tree
version=v4
num_class=1
num_tree_per_iteration=1
label_index=0
max_feature_idx=16
objective=regression
feature_names=LapNumber TyreLife CompoundEncoded LapTime TrackTemp AirTemp Humidity Position TyreDegradation StintProgression TyreLife_X_LapNumber StintProg_X_CompoundEnc Position_X_LapTime Compound_SOFT Compound_MEDIUM Compound_HARD RemainingOptimal
feature_infos=[1:58] [1:56] [1:3] [0:144.44] [30.13963963963964:37.408333333333339] [17.449549549549552:26.697435897435891] [43.653846153846153:54.157657657657658] [0:20] [0.058500000000000003:3.2760000000000007] [0.028571428571428571:1.6000000000000001] [1:3136] [0.066666666666666666:4.8000000000000007] [0:2513.2629999999999] [0:1] [0:1] [0:1] [0:34]
tree_sizes=2584 2683 2684 2691 2681 2693 2687 2676 2680 2681 2694 2681 2689 2701 2704 2690 2696 2702 2699 2706 2701 2710 2698 2704 2716 2714 2705 2714 2704 2709 2708 2707 2715 2721 2720 2713 2724 2727 2724 2724 2729 2723 2732 2739 2726 2724 2724 2734 2731 2740 2743 2740 2737 2727 2752 2742 2733 2726 2739 2742 2753 2758 2743 2760 2745 2747 2746 2771 2744 2765 2749 2757 2752 2768 2743 2761 2769 2751 2765 2775 2763 2754 2748 2768 2766 2767 2771 2782 2784 2781 2790 2767 2774 2785 2764 2783 2758 2780 2774

Tree=0
num_leaves=31
num_cat=0
split_feature=16 3 9 16 3 16 1 8 10 1 10 1 3 3 8 10 1 1 1 1 7 8 12 9 10 1 3 3 10 3
split_gain=106087 42286.3 25625.6 11674.3 6809.58 4221.78 5842.05 2944.25 2154.65 1727.83 1415.82 1379.5 1055.03 869.284 866.384 750.95 659.168 588.726 567.668 473.435 363.505 350.123 323.016 318.702 316.413 231.327 223.925 203.657 190.559 173.966
threshold=14.500000000000002 94.64474300000002 1.0685714285714287 24.500000000000004 97.992111000000008 4.5000000000000009 20.500000000000004 2.6032500000000005 485.00000000000006 10.500000000000002 204.00000000000003 25.500000000000004 87.55265150000001 93.422478000000012 0.41600000000000009 86.000000000000014 10.500000000000002 49.500000000000007 15.500000000000002 16.500000000000004 4.5000000000000009 2.3497500000000007 1294.4630325000003 0.98571428571428588 708.00000000000011 5.5000000000000009 95.68902150000001 103.84971350000002 1308.0000000000002 87.223183500000019
decision_type=2 2 2 2 2 2 2 2 2 2 2 2 2 2 2 2 2 2 2 2 2 2 2 2 2 2 2 2 2 2
left_child=2 3 5 8 14 23 16 21 9 22 13 -8 -10 15 -3 -5 -7 -9 -11 26 -17 -4 -2 24 -1 27 -18 -6 -13 -22
right_child=1 4 7 10 25 6 11 17 12 18 -12 28 -14 -15 -16 20 19 -19 -20 -21 29 -23 -24 -25 -26 -27 -28 -29 -30 -31
leaf_value=13.148637050806215 13.859211264273775 13.976446557395672 13.073323769868848 14.705409538613111 13.379719286494469 13.196130783229925 13.816849539142225 12.687358857588146 13.714754253299512 14.338972000211106 14.261017999667654 13.620990243435491 14.063262889793085 14.307229184545442 13.684946554763899 14.353696574899571 13.515303698408855 12.403928058367873 14.145660857917456 13.25577990364793 14.50161324222851 12.899565220954187 14.112446568690753 13.196419179626117 13.36028439496341 13.186577008040892 13.338446564727043 13.199719297656793 13.475894828906602 14.658160862600678
leaf_weight=21 34 50 57 135 55 57 134 57 39 118 35 103 49 23 52 24 63 27 56 39 36 59 20 73 111 46 25 22 29 35
leaf_count=21 34 50 57 135 55 57 134 57 39 118 35 103 49 23 52 24 63 27 56 39 36 59 20 73 111 46 25 22 29 35
internal_value=13.7078 14.1109 13.3171 14.3288 13.5258 13.4683 13.554 12.8217 14.119 14.2001 14.5591 13.7038 13.9088 14.6003 13.8278 14.6296 13.3374 12.5963 14.2768 13.4008 14.5219 12.9849 13.953 13.2803 13.3266 13.2753 13.4651 13.3283 13.5891 14.5788
internal_weight=1684 829 855 604 225 655 450 200 316 228 288 266 88 253 102 230 184 84 174 127 95 116 54 205 132 123 88 77 132 71
internal_count=1684 829 855 604 225 655 450 200 316 228 288 266 88 253 102 230 184 84 174 127 95 116 54 205 132 123 88 77 132 71
is_linear=0
shrinkage=1


Tree=1
num_leaves=31
num_cat=0
split_feature=16 3 9 16 3 16 1 0 8 0 16 1 0 8 3 1 3 7 7 8 3 1 7 3 0 9 10 16 3 0
split_gain=95743.2 38163.4 23127.1 10536.1 6145.65 3810.16 5272.45 3323.72 2660 1620.12 1537.69 1245 894.494 782.319 776.358 891.194 553.727 526.69 510.021 470.077 410.915 398.568 396.219 826.974 348.08 287.629 285.563 242.304 349.086 225.549
threshold=14.500000000000002 94.64474300000002 1.0685714285714287 24.500000000000004 97.992111000000008 4.5000000000000009 20.500000000000004 42.500000000000007 2.6390000000000007 29.500000000000004 19.500000000000004 25.500000000000004 52.500000000000007 0.48425000000000012 93.422478000000012 7.5000000000000009 94.490417000000022 2.5000000000000004 3.5000000000000004 2.427750000000001 85.432341500000021 50.500000000000007 7.5000000000000009 85.432341500000021 33.500000000000007 0.98571428571428588 708.00000000000011 8.5000000000000018 96.81237400000002 4.5000000000000009
decision_type=2 2 2 2 2 2 2 2 2 2 2 2 2 2 2 2 2 2 2 2 2 2 2 2 2 2 2 2 2 2
left_child=2 3 5 7 13 25 12 10 19 14 17 -8 16 -3 15 22 -7 -2 -12 -4 -17 -10 23 -5 -20 26 -1 -18 -29 -6
right_child=1 4 8 9 29 6 11 -9 21 -11 18 -13 -14 -15 -16 20 27 -19 24 -21 -22 -23 -24 -25 -26 -27 -28 28 -30 -31
leaf_value=-0.53124136470613026 0.080893234269959591 0.23221453762597452 -0.62531898408322728 0.97786688933501376 -0.34484310985084565 -0.12800780947391804 0.10356050609652677 -0.23326429640874269 -1.0122244932213609 0.43996767418252097 0.35062122673823914 -0.11278899611171447 -0.54014195178417457 -0.048200816505177074 0.56942112549491553 0.82533654877633755 -0.47507597378322058 0.35266509263192192 0.61937440756325413 -0.81732568825994223 0.56232014458488544 -1.2725773902166457 0.98433911882597835 0.60561154747009283 0.39672924961362566 -0.48584833537062555 -0.33017638266623561 -0.22038971697506696 -0.45562408367792773 -0.48029884159564973
leaf_weight=21 21 59 74 37 63 39 134 20 49 27 29 132 47 43 23 33 28 118 107 56 27 21 116 25 21 73 111 46 24 60
leaf_count=21 21 59 74 37 63 39 134 20 49 27 29 132 47 43 23 33 28 118 107 56 27 21 116 25 21 73 111 46 24 60
internal_value=-4.48395e-09 0.382876 -0.371233 0.589933 -0.172956 -0.227538 -0.146145 0.390571 -0.841835 0.808678 0.432722 -0.0038009 -0.351924 0.114 0.84682 0.873628 -0.287353 0.311606 0.539952 -0.70803 0.706979 -1.09033 0.929802 0.827764 0.582847 -0.406208 -0.362164 -0.350766 -0.301041 -0.410919
internal_weight=1684 829 855 604 225 655 450 316 200 288 296 266 184 102 261 238 137 139 157 130 60 70 178 62 128 205 132 98 70 123
internal_count=1684 829 855 604 225 655 450 316 200 288 296 266 184 102 261 238 137 139 157 130 60 70 178 62 128 205 132 98 70 123
is_linear=0
shrinkage=0.05


Tree=2
num_leaves=31
num_cat=0
split_feature=16 3 9 16 3 0 16 0 3 8 0 16 8 3 1 0 9 0 1 7 1 3 7 3 16 7 8 3 0 0
split_gain=86408.2 34442.5 20872.2 9508.79 5546.45 3446.18 3573.87 2999.66 2918.45 2411.3 1462.16 1387.76 717.809 700.663 804.303 693.641 907.187 547.998 483.069 475.338 474.256 370.851 357.588 746.344 300.568 294.012 290.364 244.968 203.558 185.339
threshold=14.500000000000002 94.64474300000002 1.0685714285714287 24.500000000000004 97.992111000000008 52.500000000000007 7.5000000000000009 42.500000000000007 94.64474300000002 2.6032500000000005 29.500000000000004 19.500000000000004 0.41600000000000009 93.422478000000012 7.5000000000000009 26.500000000000004 0.91714285714285726 45.500000000000007 49.500000000000007 2.5000000000000004 10.500000000000002 85.432341500000021 7.5000000000000009 85.432341500000021 11.500000000000002 3.5000000000000004 2.3497500000000007 96.81237400000002 4.5000000000000009 14.500000000000002
decision_type=2 2 2 2 2 2 2 2 2 2 2 2 2 2 2 2 2 2 2 2 2 2 2 2 2 2 2 2 2 2
left_child=2 3 5 7 12 6 15 11 17 26 13 19 -3 14 22 -1 -17 24 -11 -2 -13 -16 23 -5 -8 -22 -4 29 -6 -10
right_child=1 4 9 10 28 -7 8 -9 27 18 -12 20 -14 -15 21 16 -18 -19 -20 -21 25 -23 -24 -25 -26 -27 -28 -29 -30 -31
leaf_value=-0.49172459404642987 0.076848564226002933 0.24356694601476195 -0.57152304314730462 0.92897353558926976 -0.32760095814509049 -0.49123553246566937 0.015150419509281282 -0.22160109093412761 -0.16400487973753897 -0.92123794388352787 0.41796927606617962 0.31789074654762567 -0.021763956804688164 0.54095011483068045 0.78406972596139624 -0.18225073994592178 -0.38775736689567569 -0.13452493713961708 -1.1779788829662183 0.33503183193378527 0.37520196914672854 0.534204144389541 0.93512218080717957 0.57533097028732294 0.1433103362118805 0.58346462700818036 -0.72975951695846308 -0.4389737275930552 -0.45628389179706574 -0.35556062408115552
leaf_weight=41 21 50 57 37 63 97 92 20 28 57 27 26 52 23 33 129 92 36 27 118 20 27 116 25 91 111 59 26 60 23
leaf_count=41 21 50 57 37 63 97 92 20 28 57 27 26 52 23 33 129 92 36 27 118 20 27 116 25 91 111 59 26 60 23
internal_value=-2.37631e-09 0.363733 -0.352672 0.560436 -0.164308 -0.216161 -0.168344 0.371042 -0.0492945 -0.799743 0.768244 0.411086 0.1083 0.804479 0.829947 -0.302842 -0.267801 0.0437999 -1.00376 0.296026 0.512954 0.67163 0.883312 0.786376 0.0788802 0.551669 -0.652005 -0.314069 -0.390373 -0.250393
internal_weight=1684 829 855 604 225 655 558 316 296 200 288 296 102 261 238 262 221 219 84 139 157 60 178 62 183 131 116 77 123 51
internal_count=1684 829 855 604 225 655 558 316 296 200 288 296 102 261 238 262 221 219 84 139 157 60 178 62 183 131 116 77 123 51
is_linear=0
shrinkage=0.05


Tree=3
num_leaves=31
num_cat=0
split_feature=16 3 8 16 3 0 16 0 3 8 0 16 0 9 9 3 10 7 1 0 7 7 9 16 3 0 0 0 0 8
split_gain=77983.4 31084.4 18872.7 8581.69 5005.67 3019.91 2826.11 2719.75 2658.4 2622.43 1319.6 1255.2 714.623 670.076 648.046 632.349 744.195 734.843 546.694 453.695 449.773 436.737 273.709 271.263 221.083 194.985 183.711 179.621 167.268 156.907
threshold=14.500000000000002 94.64474300000002 2.1255000000000011 24.500000000000004 97.992111000000008 51.500000000000007 7.5000000000000009 41.500000000000007 94.64474300000002 2.5447500000000005 29.500000000000004 19.500000000000004 26.500000000000004 0.91714285714285726 0.23428571428571429 93.422478000000012 86.000000000000014 4.5000000000000009 48.500000000000007 45.500000000000007 3.5000000000000004 2.5000000000000004 1.1171428571428574 11.500000000000002 96.81237400000002 55.500000000000007 4.5000000000000009 32.500000000000007 14.500000000000002 0.58825000000000027
decision_type=2 2 2 2 2 2 2 2 2 2 2 2 2 2 2 2 2 2 2 2 2 2 2 2 2 2 2 2 2 2
left_child=2 3 5 7 14 6 12 11 19 22 15 21 -1 -14 -3 16 -5 -18 -11 23 -13 -2 -4 -8 28 -7 -6 -22 -10 -16
right_child=1 4 9 10 26 25 8 -9 24 18 -12 20 13 -15 29 -17 17 -19 -20 -21 27 -23 -24 -25 -26 -27 -28 -29 -30 -31
leaf_value=-0.46713838577270511 0.068837687345221651 0.22891490322117714 -0.5030006079838194 0.86700783546705906 -0.3112209057997144 -0.37448796878258389 0.014392899495104087 -0.14796744841337203 -0.15580463837166983 -0.84397386672004826 0.39707082908738545 0.31521937107217723 -0.16363911047577859 -0.35188556053699593 0.05954105266266399 0.51390257710995879 0.46412008211568551 0.76676460229433507 -1.0951916925834888 -0.12154494217463903 0.56257520002477313 0.32182900507388446 -0.65188169334874013 0.13614482298329636 -0.41702503653673029 -0.51360274530806638 -0.43346970736980439 0.41054567644993467 -0.33778259857841164 -0.11616575568914414
leaf_weight=41 20 51 58 133 63 48 92 25 28 63 27 29 120 78 27 23 27 78 33 35 102 116 66 91 26 53 60 24 23 24
leaf_count=41 20 51 58 133 63 48 92 25 28 63 27 29 120 78 27 23 27 78 33 35 102 116 66 91 26 53 60 24 23 24
internal_value=1.86088e-09 0.345546 -0.335038 0.532415 -0.156092 -0.196768 -0.149347 0.35249 -0.0458133 -0.734136 0.729832 0.395485 -0.27714 -0.237797 0.102885 0.764255 0.788449 0.688942 -0.93033 0.0433911 0.492756 0.284624 -0.582244 0.0749362 -0.298366 -0.447489 -0.370854 0.533617 -0.237873 -0.0231445
internal_weight=1684 829 855 604 225 635 534 316 295 220 288 291 239 198 102 261 238 105 96 218 155 136 124 183 77 101 123 126 51 51
internal_count=1684 829 855 604 225 635 534 316 295 220 288 291 239 198 102 261 238 105 96 218 155 136 124 183 77 101 123 126 51 51
is_linear=0
shrinkage=0.05


Tree=4
num_leaves=31
num_cat=0
split_feature=16 3 9 16 3 0 16 9 0 3 0 16 0 8 3 1 12 9 0 1 1 7 1 16 7 3 7 3 9 1
split_gain=70380 28053.6 17042.6 7744.97 4517.62 2778.42 2483.89 2473.04 2471.9 2377.19 1190.93 1128.48 664.905 587.81 570.695 692.587 592.66 495.483 451.961 412.798 409.773 385.493 344.724 253.62 250.959 517.243 236.839 199.528 179.152 170.532
threshold=14.500000000000002 94.64474300000002 1.0342857142857145 24.500000000000004 97.992111000000008 52.500000000000007 7.5000000000000009 1.2714285714285716 42.500000000000007 94.64474300000002 29.500000000000004 19.500000000000004 26.500000000000004 0.54925000000000013 93.422478000000012 6.5000000000000009 417.40377500000005 0.90000000000000002 46.500000000000007 50.500000000000007 10.500000000000002 2.5000000000000004 40.500000000000007 11.500000000000002 7.5000000000000009 85.432341500000021 3.5000000000000004 96.81237400000002 0.15142857142857144 12.500000000000002
decision_type=2 2 2 2 2 2 2 2 2 2 2 2 2 2 2 2 2 2 2 2 2 2 2 2 2 2 2 2 2 2
left_child=2 3 5 8 13 6 12 22 11 18 14 21 -1 28 15 24 -17 -14 23 -9 -13 -2 -4 -8 25 -5 -22 -11 -3 -28
right_child=1 4 7 10 -6 -7 9 19 -10 27 -12 20 17 -15 -16 16 -18 -19 -20 -21 26 -23 -24 -25 -26 -27 29 -29 -30 -31
leaf_value=-0.44378146427433668 0.070080457131067905 0.27260952373345693 -0.49578639763157545 0.85549486529442564 -0.35231173978588448 -0.44042833716004764 0.010774155119151781 -0.84030095100402835 -0.20312265634536741 -0.2259794724904293 0.37721728701834328 0.28175856402287119 -0.14988083017093165 -0.075821653189081142 0.48820744390073029 0.39595896124839786 0.70778155922889718 -0.30687533287291835 -0.15200766854816014 -1.0952900023687453 0.34068091154098512 0.30258692828780515 -0.65587816656681541 0.12576236997240334 0.85825749198989121 0.53849214011887936 0.59991979497544312 -0.39617379995492791 0.11008730102808049 0.47449145093560219
leaf_weight=41 21 30 82 31 123 91 99 65 20 51 27 26 108 33 23 20 64 94 27 21 20 118 57 93 101 22 47 26 39 64
leaf_count=41 21 30 82 31 123 91 99 65 20 51 27 26 108 33 23 20 64 94 27 21 20 118 57 93 101 22 47 26 39 64
internal_value=1.65846e-09 0.328269 -0.318286 0.505794 -0.148288 -0.18488 -0.141736 -0.691823 0.334866 -0.0444836 0.69334 0.371216 -0.260199 0.0977409 0.726043 0.749027 0.633538 -0.222938 0.0395358 -0.902566 0.463077 0.26746 -0.561436 0.0664716 0.812021 0.723909 0.499063 -0.283448 0.180749 0.527601
internal_weight=1684 829 855 604 225 630 539 225 316 296 288 296 243 102 261 238 84 202 219 86 157 139 139 192 154 53 131 77 69 111
internal_count=1684 829 855 604 225 630 539 225 316 296 288 296 243 102 261 238 84 202 219 86 157 139 139 192 154 53 131 77 69 111
is_linear=0
shrinkage=0.05


Tree=5
num_leaves=31
num_cat=0
split_feature=16 3 9 16 3 16 1 0 8 0 16 0 1 8 3 1 12 7 3 7 9 9 10 1 16 7 3 0 3 9
split_gain=63518 25318.4 15383.9 6989.84 4077.15 2562.51 3751.47 2231.96 1804.13 1074.82 1001.56 624.649 587.62 534.361 515.052 625.06 534.876 395.704 358.123 335.352 316.127 306.154 352.811 268.867 263.576 226.491 466.812 169.674 159.476 136.35
threshold=14.500000000000002 94.64474300000002 1.0685714285714287 24.500000000000004 97.992111000000008 5.5000000000000009 20.500000000000004 40.500000000000007 2.6390000000000007 29.500000000000004 19.500000000000004 53.500000000000007 25.500000000000004 0.41600000000000009 93.422478000000012 6.5000000000000009 417.40377500000005 3.5000000000000004 96.279263000000014 3.5000000000000004 1.1857142857142859 0.95142857142857151 556.50000000000011 50.500000000000007 9.5000000000000018 7.5000000000000009 85.432341500000021 6.5000000000000009 103.84971350000002 0.32666666666666672
decision_type=2 2 2 2 2 2 2 2 2 2 2 2 2 2 2 2 2 2 2 2 2 2 2 2 2 2 2 2 2 2
left_child=2 3 5 7 13 21 11 10 20 14 19 18 -8 -3 15 25 -17 -12 24 -2 -4 22 -1 -10 -7 26 -5 28 -6 -15
right_child=1 4 8 9 27 6 12 -9 23 -11 17 -13 -14 29 -16 16 -18 -19 -20 -21 -22 -23 -24 -25 -26 -27 -28 -29 -30 -31
leaf_value=-0.44435061268184495 0.11121940142635643 0.20956282024085524 -0.50491776399209465 0.81272009726493588 -0.25753670122187872 -0.28569526248856597 0.087950222605644779 -0.077748879656428474 -0.82668962284010294 0.35835642237906107 0.28333867952741426 -0.44870344671336088 -0.06959977712271348 0.052737914154241831 0.46379710073056429 0.37616101622581488 0.67239248901605608 0.48849799882981088 -0.37098850783179788 0.30390853637135495 -0.66152705338041662 -0.380126110636271 -0.22935224920511246 -1.0405254454839798 -0.11740134157240392 0.81534462730483259 0.51156752610748468 -0.42598840329382154 -0.41327994520013989 -0.11028015302575155
leaf_weight=23 29 50 71 31 65 38 134 32 49 27 29 44 106 29 23 20 64 124 34 102 59 104 112 21 60 101 22 36 22 23
leaf_count=23 29 50 71 31 65 38 134 32 49 27 29 44 106 29 23 20 64 124 34 102 59 104 112 21 60 101 22 36 22 23
internal_value=1.45572e-09 0.311855 -0.302372 0.480504 -0.140873 -0.185175 -0.110215 0.318122 -0.68619 0.658673 0.362727 -0.285551 0.0183656 0.0928539 0.689741 0.711575 0.601861 0.449612 -0.231167 0.261252 -0.575994 -0.315651 -0.265982 -0.89084 -0.182658 0.77142 0.687713 -0.334696 -0.29692 -0.0193662
internal_weight=1684 829 855 604 225 655 416 316 200 288 284 176 240 102 261 238 84 153 132 131 130 239 135 70 98 154 53 123 87 52
internal_count=1684 829 855 604 225 655 416 316 200 288 284 176 240 102 261 238 84 153 132 131 130 239 135 70 98 154 53 123 87 52
is_linear=0
shrinkage=0.05


Tree=6
num_leaves=31
num_cat=0
split_feature=16 3 8 16 3 8 2 8 0 0 16 7 8 3 8 0 16 8 3 3 8 8 2 9 3 7 7 3 8 12
split_gain=57325 22849.9 13914.7 6308.33 3679.63 2340.66 2257.96 2906.41 2061.44 970.024 940.634 493.737 484.415 464.834 572.527 454.68 428.333 413.852 352.756 350.458 345.752 293.656 290.625 285.799 275.713 341.26 249.669 566.318 211.076 181.264
threshold=14.500000000000002 94.64474300000002 2.0605000000000007 24.500000000000004 97.992111000000008 2.5447500000000005 2.5000000000000004 1.6705000000000008 42.500000000000007 29.500000000000004 18.500000000000004 2.5000000000000004 0.48425000000000012 93.422478000000012 0.44850000000000012 54.500000000000007 7.5000000000000009 2.8372500000000014 85.432341500000021 96.279263000000014 1.4462500000000003 1.9012500000000006 2.5000000000000004 1.1171428571428574 87.443527000000017 7.5000000000000009 7.5000000000000009 85.432341500000021 0.8027500000000003 1294.4630325000003
decision_type=2 2 2 2 2 2 2 2 2 2 2 2 2 2 2 2 2 2 2 2 2 2 2 2 2 2 2 2 2 2
left_child=2 3 6 8 12 23 15 20 10 13 24 -12 -3 14 26 16 -1 -7 -16 29 -8 -9 -13 -4 -2 -26 27 -5 -24 -18
right_child=1 4 5 9 -6 17 7 21 -10 -11 11 22 -14 -15 18 -17 19 -19 -20 -21 -22 -23 28 -25 25 -27 -28 -29 -30 -31
leaf_value=-0.366863790260894 0.30103054696863352 0.18123342059957165 -0.41852730056385934 0.76423736262965847 -0.31796134292958228 -0.72359015752398781 0.10003878173400771 -0.18092294255892438 -0.18907908303197474 0.34043859944299415 0.17676369405928113 0.27749023079872132 -0.039423945372880895 0.4406072471452796 0.65208718848950942 -0.43395972956310624 -0.18879672836084838 -0.94216544122406942 0.40839376272978606 -0.34144680192393645 -0.027075511948378001 -0.30900042607234074 0.52027427956864647 -0.55811625452183966 0.0056927214264869694 0.25224274061620239 0.76431295296241508 0.45618454837799077 0.39627397693693639 -0.021383858370510017
leaf_weight=56 55 59 81 37 123 63 106 105 20 27 21 25 43 23 33 44 61 33 27 31 108 78 74 67 25 32 116 25 64 22
leaf_count=56 55 59 81 37 123 63 106 105 20 27 21 25 43 23 33 44 61 33 27 31 108 78 74 67 25 32 116 25 64 22
internal_value=-5.86912e-10 0.296263 -0.287253 0.456479 -0.13383 -0.606443 -0.159786 -0.0892166 0.302216 0.62574 0.335412 0.404952 0.0882112 0.655254 0.675997 -0.290703 -0.253625 -0.798725 0.542425 -0.197999 0.0358876 -0.235513 0.43435 -0.48172 0.221168 0.144107 0.721021 0.640023 0.462767 -0.144422
internal_weight=1684 829 855 604 225 244 611 397 316 288 296 184 102 261 238 214 170 96 60 114 214 183 163 148 112 57 178 62 138 83
internal_count=1684 829 855 604 225 244 611 397 316 288 296 184 102 261 238 214 170 96 60 114 214 183 163 148 112 57 178 62 138 83
is_linear=0
shrinkage=0.05


Tree=7
num_leaves=31
num_cat=0
split_feature=9 2 10 9 3 3 0 1 10 8 0 9 1 1 3 1 0 8 12 3 3 1 1 10 12 7 7 3 3 1
split_gain=44919.6 24506.3 8733.68 8299.86 6929.9 2276.26 2591.21 1565.31 1487.05 1195.69 1126.84 1123.45 838.124 551.335 501.594 303.546 258.58 247.516 245.2 235.737 534.249 257.795 221.232 210.381 187.272 161.68 161.435 759.133 141.9 141.793
threshold=0.71714285714285719 2.5000000000000004 399.50000000000006 1.1000000000000003 94.673393500000017 97.992111000000008 48.500000000000007 9.5000000000000018 141.50000000000003 2.7040000000000011 44.500000000000007 0.91714285714285726 25.500000000000004 18.500000000000004 93.422478000000012 28.500000000000004 4.5000000000000009 2.4797500000000006 345.85135800000006 87.55265150000001 84.237355500000021 10.500000000000002 10.500000000000002 24.500000000000004 1144.9606200000003 14.500000000000002 7.5000000000000009 85.432341500000021 102.84957100000001 50.500000000000007
decision_type=2 2 2 2 2 2 2 2 2 2 2 2 2 2 2 2 2 2 2 2 2 2 2 2 2 2 2 2 2 2
left_child=1 5 4 11 8 6 7 23 14 17 13 12 -2 18 26 -14 28 -5 -4 20 -10 -21 -22 -1 -9 -25 27 -3 -7 -11
right_child=3 2 10 9 -6 16 -8 24 19 29 -12 -13 15 -15 -16 -17 -18 -19 -20 21 22 -23 -24 25 -26 -27 -28 -29 -30 -31
leaf_value=0.22027730359695852 -0.35876166928898207 0.72655499219894415 0.1234900724887848 -0.49398206668113592 -0.1837362221309117 -0.13731726104250322 -0.36892312180762199 -0.17714359340342611 0.51890667080879216 -0.77614568542031681 -0.16325711146125507 -0.33660099521661418 -0.0425975701212883 0.11301184212671052 0.43023842620849612 -0.17187679336184547 -0.36638534539182421 -0.63572693791305812 0.3260731139425504 0.61231134439769552 0.17874493314461276 0.4363262487494427 0.37528966752494258 0.048156539831430686 -0.016455056786537171 0.20867739174337616 0.70006887272231344 0.34927871868014337 -0.29457577839493754 -0.94139090492611843
leaf_weight=48 44 40 20 67 35 26 51 66 56 34 29 156 80 158 25 105 71 57 59 38 22 46 41 62 25 21 129 20 32 21
leaf_count=48 44 40 20 67 35 26 51 66 56 34 29 156 80 158 25 105 71 57 59 38 22 46 41 62 25 21 129 20 32 21
internal_value=-5.09905e-11 0.183251 0.358257 -0.363903 0.492033 -0.12932 -0.0475337 0.026299 0.548752 -0.645203 0.130938 -0.233117 -0.162622 0.166937 0.640713 -0.115972 -0.302403 -0.559139 0.274786 0.451807 0.406538 0.515939 0.306655 0.136956 -0.132998 0.0887702 0.668554 0.600796 -0.224081 -0.839239
internal_weight=1684 1120 718 564 452 402 273 222 417 179 266 385 229 237 214 185 129 124 79 203 119 84 63 131 91 83 189 60 58 55
internal_count=1684 1120 718 564 452 402 273 222 417 179 266 385 229 237 214 185 129 124 79 203 119 84 63 131 91 83 189 60 58 55
is_linear=0
shrinkage=0.05


Tree=8
num_leaves=31
num_cat=0
split_feature=9 2 10 9 3 3 0 1 10 9 0 8 1 1 3 1 0 12 3 3 1 1 10 3 0 3 3 8 1 12
split_gain=40539.9 22117 7882.15 7492.26 6254.23 2054.33 2339.42 1439.82 1342.06 1190.17 1016.97 922.738 756.407 497.58 452.688 273.951 233.369 221.293 212.753 482.16 232.66 199.662 189.869 176.39 166.465 162.068 439.761 160.07 156.909 147.744
threshold=0.71714285714285719 2.5000000000000004 399.50000000000006 1.1171428571428574 94.673393500000017 97.992111000000008 49.500000000000007 9.5000000000000018 141.50000000000003 0.91714285714285726 44.500000000000007 2.7040000000000011 25.500000000000004 18.500000000000004 93.422478000000012 28.500000000000004 4.5000000000000009 345.85135800000006 87.55265150000001 84.237355500000021 10.500000000000002 10.500000000000002 24.500000000000004 93.979630000000014 13.500000000000002 87.55265150000001 85.432341500000021 2.4797500000000006 35.500000000000007 1144.9606200000003
decision_type=2 2 2 2 2 2 2 2 2 2 2 2 2 2 2 2 2 2 2 2 2 2 2 2 2 2 2 2 2 2
left_child=1 5 4 9 8 6 7 22 14 12 13 27 -2 17 25 -14 -7 -4 19 -10 -20 -21 -1 -9 -25 26 -3 -5 -11 -24
right_child=3 2 10 11 -6 16 -8 23 18 28 -12 -13 15 -15 -16 -17 -18 -19 20 21 -22 -23 29 24 -26 -27 -28 -29 -30 -31
leaf_value=0.20926344012841583 -0.34082358709790489 0.66419451290438347 0.11731556594371795 -0.48262995160543004 -0.17454940395695823 -0.21287655534929245 -0.35810245737737545 0.0044056763499975204 0.49296134114265444 -0.28338958183924357 -0.15509425893361714 -0.79727736386385839 -0.040467690853402016 0.10736125103091892 0.40872649383544923 -0.16328295259248643 -0.34806607348818175 0.30976945848788251 0.58169578627536178 0.16980768604712054 0.41450994325720747 0.35652518156098156 0.034142755478058222 -0.08871683635421701 -0.23973906503783332 0.69907626372117271 0.45995101724800308 -0.60394059147751122 -0.37931365172068277 0.17299893777507047
leaf_weight=48 44 86 20 52 35 58 49 20 56 90 29 55 80 158 25 105 71 59 38 22 46 41 53 37 36 65 38 57 81 30
leaf_count=48 44 86 20 52 35 58 49 20 56 90 29 55 80 158 25 105 71 59 38 22 46 41 53 37 36 65 38 57 81 30
internal_value=-7.36209e-10 0.174089 0.340344 -0.345708 0.467431 -0.122854 -0.045157 0.0232998 0.521314 -0.22902 0.124391 -0.630315 -0.154491 0.15859 0.608678 -0.110174 -0.287283 0.261047 0.429217 0.386211 0.490142 0.291322 0.130108 -0.127151 -0.163194 0.635126 0.601604 -0.546068 -0.328827 0.0843317
internal_weight=1684 1120 718 564 452 402 273 224 417 400 266 164 229 237 214 185 129 79 203 119 84 63 131 93 73 189 124 109 171 83
internal_count=1684 1120 718 564 452 402 273 224 417 400 266 164 229 237 214 185 129 79 203 119 84 63 131 93 73 189 124 109 171 83
is_linear=0
shrinkage=0.05


Tree=9
num_leaves=31
num_cat=0
split_feature=16 3 8 0 16 3 0 16 3 9 3 0 0 8 3 4 3 16 9 0 0 8 9 10 16 9 0 3 0 3
split_gain=42219.3 16804.8 10266.8 4860.32 2791.38 2772.33 1792.9 1491.08 1584.93 1435.87 946.778 482.889 438.612 388.545 353.87 1986.39 410.653 350.84 349.928 320.688 289.433 266.888 189.6 180.454 166.258 132.725 130.741 150.977 120.857 118.31
threshold=14.500000000000002 94.64474300000002 2.1255000000000011 33.500000000000007 24.500000000000004 97.992111000000008 51.500000000000007 7.5000000000000009 94.64474300000002 1.2714285714285716 87.55265150000001 10.500000000000002 26.500000000000004 0.54925000000000013 85.432341500000021 33.7739864864865 87.736949000000024 20.500000000000004 0.90000000000000002 43.500000000000007 45.500000000000007 2.8957500000000009 1.1514285714285715 75.500000000000014 11.500000000000002 0.11714285714285715 6.5000000000000009 103.84971350000002 55.500000000000007 96.81237400000002
decision_type=2 2 2 2 2 2 2 2 2 2 2 2 2 2 2 2 2 2 2 2 2 2 2 2 2 2 2 2 2 2
left_child=2 3 6 4 11 13 7 12 20 22 19 -2 -1 25 -6 -16 -17 -13 -14 -5 24 -11 -4 -18 -9 -3 27 -7 -8 -10
right_child=1 5 9 10 14 26 28 8 29 21 -12 17 18 -15 15 16 23 -19 -20 -21 -22 -23 -24 -25 -26 -27 -28 -29 -30 -31
leaf_value=-0.34967149001796072 0.13385010449023083 0.2541737923026085 -0.38579568894704186 0.024253828583225126 0.63194557428359988 -0.20293613187395609 -0.28024596969286603 0.013883044100973919 -0.18354579713913172 -0.64074188086946138 0.22973210835456848 0.28823555637808407 -0.10485706172957279 -0.062967412399523179 0.19766066450821729 0.41592376656506369 0.71577665805816659 0.42213795540180615 -0.2378244626153376 -0.232549499347806 -0.095651194708687923 -0.83053308769508638 -0.50560353650885115 0.58697322795265605 0.10920041341866767 0.10132656067001576 -0.35455238686667551 -0.3544725358486176 -0.38976956403480389 -0.31460108206822324
leaf_weight=41 29 20 75 31 108 65 48 92 51 59 50 102 101 33 38 23 52 94 97 20 35 27 59 57 91 49 36 22 53 26
leaf_count=41 29 20 75 31 108 65 48 92 51 59 50 102 101 33 38 23 52 94 97 20 35 27 59 57 91 49 36 22 53 26
internal_value=1.07329e-11 0.25425 -0.246518 0.391648 0.455205 -0.114589 -0.144535 -0.107996 -0.0327925 -0.540879 0.0751236 0.324278 -0.20082 0.0781427 0.56117 0.516207 0.60791 0.352454 -0.169998 -0.0764534 0.0360857 -0.700327 -0.438547 0.648421 0.0612813 0.14563 -0.274416 -0.241256 -0.337719 -0.227798
internal_weight=1684 829 855 604 503 225 635 534 295 220 101 225 239 102 278 170 132 196 198 51 218 86 134 109 183 69 123 87 101 77
internal_count=1684 829 855 604 503 225 635 534 295 220 101 225 239 102 278 170 132 196 198 51 218 86 134 109 183 69 123 87 101 77
is_linear=0
shrinkage=0.05


Tree=10
num_leaves=31
num_cat=0
split_feature=16 3 9 0 16 3 8 0 3 16 0 7 16 8 3 10 12 1 16 0 8 0 3 3 0 7 3 9 16 0
split_gain=38102.9 15166.3 9282.07 4397.07 2753.1 2502.03 1596.83 1593.23 1341.26 1470.37 675.167 483.575 500.279 354.885 341.025 457.037 325.293 288.443 273.976 208.385 188.556 177.828 160.913 158.72 137.167 132.792 220.935 125.643 123.519 121.608
threshold=14.500000000000002 94.64474300000002 1.0142857142857145 35.500000000000007 24.500000000000004 97.992111000000008 2.5447500000000005 50.500000000000007 94.64474300000002 8.5000000000000018 43.500000000000007 2.5000000000000004 20.500000000000004 0.35425000000000012 93.422478000000012 97.000000000000014 345.85135800000006 48.500000000000007 4.5000000000000009 17.500000000000004 2.310750000000001 44.500000000000007 87.55265150000001 96.81237400000002 54.500000000000007 7.5000000000000009 84.054000000000016 0.32666666666666672 17.500000000000004 3.5000000000000004
decision_type=2 2 2 2 2 2 2 2 2 2 2 2 2 2 2 2 2 2 2 2 2 2 2 2 2 2 2 2 2 2
left_child=2 3 7 4 11 13 20 8 9 18 22 -2 28 -3 15 25 -17 -8 -1 23 -4 -11 -5 -10 -9 26 -6 -15 -13 -7
right_child=1 5 6 10 14 29 17 24 19 21 -12 12 -14 27 -16 16 -18 -19 -20 -21 -22 -23 -24 -25 -26 -27 -28 -29 -30 -31
leaf_value=-0.20021896191162641 0.11131006402188336 0.19034824553877117 -0.34360865706747235 0.018390634369391663 0.64418882456692783 -0.20162323012071501 -0.58884972996181906 -0.23461120739215757 -0.15018558851637256 0.074222356374225307 -0.220922019071877 0.19731503058882321 0.40688520022800995 0.053984829893287949 0.34871783878492274 0.3397359319031239 0.52802678037572792 -0.77132695371454418 -0.085402100512357526 -0.35885345320547785 -0.45640128776431088 -0.053605843758718533 0.18162938074933158 -0.30172105431556706 -0.35175182446837427 0.64079205036163334 0.41457383051514629 -0.093361435830593115 0.30356349318714471 -0.30253735392794223
leaf_weight=101 29 40 88 26 22 51 63 41 48 155 20 51 105 39 23 32 81 33 107 31 64 33 36 27 64 100 20 23 59 72
leaf_count=101 29 40 88 26 22 51 63 41 48 155 20 51 105 39 23 32 81 33 107 31 64 33 36 27 64 100 20 23 59 72
internal_value=-2.27687e-09 0.241537 -0.234192 0.372066 0.425535 -0.10886 -0.49193 -0.128889 -0.0918416 -0.0495572 0.0316875 0.302968 0.32882 0.0742355 0.533112 0.549743 0.474705 -0.651576 -0.141155 -0.24981 -0.3911 0.0517844 0.113174 -0.204738 -0.306011 0.609457 0.534848 -0.000675882 0.254303 -0.260695
internal_weight=1684 829 855 604 522 225 248 607 502 396 82 244 215 102 278 255 113 96 208 106 152 188 62 75 105 142 42 62 110 123
internal_count=1684 829 855 604 522 225 248 607 502 396 82 244 215 102 278 255 113 96 208 106 152 188 62 75 105 142 42 62 110 123
is_linear=0
shrinkage=0.05


Tree=11
num_leaves=31
num_cat=0
split_feature=16 2 8 0 1 12 2 1 4 9 0 7 1 0 12 7 12 0 1 16 10 1 0 7 1 1 4 10 4 0
split_gain=34387.9 10265.3 8377.92 2867.2 1500.27 1808.07 1427.51 1747.39 1421.62 1403.11 995.983 498.537 490.927 352.364 298.403 691.366 288.979 279.548 277.164 256.834 221.629 216.506 195.845 191.172 153.37 151.071 162.571 150.61 103.65 102.163
threshold=14.500000000000002 2.5000000000000004 2.0605000000000007 35.500000000000007 12.500000000000002 1705.0802110000002 2.5000000000000004 28.500000000000004 33.7739864864865 1.2342857142857147 8.5000000000000018 14.500000000000002 6.5000000000000009 3.5000000000000004 1451.5242450000003 17.500000000000004 345.85135800000006 54.500000000000007 47.500000000000007 8.5000000000000018 86.000000000000014 24.500000000000004 53.500000000000007 7.5000000000000009 39.500000000000007 14.500000000000002 33.7739864864865 47.000000000000007 33.7739864864865 5.5000000000000009
decision_type=2 2 2 2 2 2 2 2 2 2 2 2 2 2 2 2 2 2 2 2 2 2 2 2 2 2 2 2 2 2
left_child=2 8 6 4 5 12 17 21 10 24 29 -5 14 -10 23 -16 -14 19 -11 -1 -18 28 -9 27 -4 -6 -27 -3 -8 -2
right_child=1 3 9 11 25 -7 7 22 13 18 -12 -13 16 -15 15 -17 20 -19 -20 -21 -22 -23 -24 -25 -26 26 -28 -29 -30 -31
leaf_value=-0.27386517730705878 -0.21712754730667388 0.38235604673624041 -0.3266399262899376 0.13427897190505808 0.32654228210449221 -0.011839978645245235 0.13899499069560659 -0.15938069079166806 0.19835527033234637 -0.53889193888063791 0.12088219469243831 -0.15297475321137388 0.28215874014674008 0.016404554672258469 0.21533707434480842 0.61642275537763336 0.28671868264675143 -0.33999764431606638 -0.70690878338283969 -0.14841643869192064 0.46729234910644268 -0.020284160302469025 -0.30523102283477788 0.61427127060137299 -0.43058163427537494 0.26900680847465991 0.14240781352633522 0.55527375235277066 0.038652341608558932 -0.33274749558547451
leaf_weight=68 56 20 83 44 47 21 44 156 36 54 22 23 37 102 22 21 20 44 45 102 113 108 27 76 62 64 42 34 62 29
leaf_count=68 56 20 83 44 47 21 44 156 36 54 22 23 37 102 22 21 20 44 45 102 113 108 27 76 62 64 42 34 62 29
internal_value=2.7322e-10 0.22946 -0.222482 0.343421 0.383304 0.438525 -0.123575 -0.0674637 -0.0421851 -0.470157 -0.178966 0.0356695 0.466098 0.06387 0.525395 0.411216 0.405755 -0.227669 -0.615263 -0.198596 0.440138 0.0295399 -0.1809 0.563162 -0.371084 0.251928 0.218845 0.49123 0.080304 -0.256574
internal_weight=1684 829 855 584 517 364 611 397 245 244 107 67 343 138 173 43 170 214 99 170 133 214 183 130 145 153 106 54 106 85
internal_count=1684 829 855 584 517 364 611 397 245 244 107 67 343 138 173 43 170 214 99 170 133 214 183 130 145 153 106 54 106 85
is_linear=0
shrinkage=0.05


Tree=12
num_leaves=31
num_cat=0
split_feature=16 3 9 16 2 10 8 0 3 3 0 0 12 0 3 16 12 3 1 1 3 1 3 4 3 9 12 16 12 0
split_gain=31078.3 10463.4 9931.81 2189.09 2150.67 2227.11 1556 637.488 588.992 556.806 572.001 429.192 413.722 412.601 602.749 771.855 346.377 931.759 307.551 285.743 269.421 239.054 262.549 191.49 188.378 138.493 134.744 131.206 126.228 122.375
threshold=18.500000000000004 96.279263000000014 0.98571428571428588 25.500000000000004 2.5000000000000004 886.00000000000011 2.4797500000000006 36.500000000000007 94.64474300000002 93.422478000000012 28.500000000000004 50.500000000000007 204.12485600000005 53.500000000000007 96.81237400000002 11.500000000000002 666.96427500000016 85.432341500000021 47.500000000000007 29.500000000000004 103.84971350000002 22.500000000000004 87.443527000000017 33.7739864864865 92.632081000000014 1.1000000000000003 652.98925650000012 21.500000000000004 1294.4630325000003 4.5000000000000009
decision_type=2 2 2 2 2 2 2 2 2 2 2 2 2 2 2 2 2 2 2 2 2 2 2 2 2 2 2 2 2 2
left_child=2 3 4 7 13 21 25 8 12 10 16 19 -2 14 15 24 17 -5 -8 -7 23 22 -6 -3 -1 -4 -24 -14 -17 -10
right_child=1 20 6 9 5 11 18 -9 29 -11 -12 -13 27 -15 -16 28 -18 -19 -20 -21 -22 -23 26 -25 -26 -27 -28 -29 -30 -31
leaf_value=-0.075592424832284455 0.12983656525611878 -0.19195206974233903 -0.288632359403245 0.56456107199192052 0.21025500983408052 -0.02755183427545585 -0.50256044402051336 0.02685119194480089 0.19751929669426038 0.26103321413199104 0.26346847176551819 -0.24962106891300367 0.29557269870331798 -0.31831894732536159 -0.29032080887802064 -0.03871199861955895 0.56411921346888827 0.20162594744137358 -0.67156336254543736 -0.14496502901378433 -0.3325836489200592 0.035094443976114963 -0.034958851039409641 -0.014906742991436095 -0.24854132611606575 -0.38271182366271517 0.11859965741634369 0.38489934687220728 0.10349598302971573 0.033008800698444245
leaf_weight=20 24 56 94 48 73 114 67 26 26 30 25 46 66 47 63 71 136 28 45 95 25 78 20 21 74 67 50 109 20 20
leaf_count=20 24 56 94 48 73 114 67 26 26 30 25 46 66 47 63 71 136 28 45 95 25 78 20 21 74 67 50 109 20 20
internal_value=2.89517e-10 0.274339 -0.168177 0.362368 -0.07641 -0.0106688 -0.427344 0.262257 0.287239 0.463979 0.489668 -0.111354 0.324512 -0.182487 -0.156745 -0.111257 0.516343 0.430848 -0.570463 -0.0809215 -0.18997 0.105506 0.143912 -0.143667 -0.211744 -0.327783 0.0747258 0.35121 -0.0074575 0.125993
internal_weight=1684 640 1044 538 771 476 273 271 245 267 237 255 199 295 248 185 212 76 112 209 102 221 143 77 94 161 70 175 91 46
internal_count=1684 640 1044 538 771 476 273 271 245 267 237 255 199 295 248 185 212 76 112 209 102 221 143 77 94 161 70 175 91 46
is_linear=0
shrinkage=0.05


Tree=13
num_leaves=31
num_cat=0
split_feature=16 3 8 16 0 3 16 8 0 3 0 3 7 1 3 3 0 3 16 1 16 0 0 0 7 3 10 8 0 0
split_gain=28093.9 11308.7 7758.94 2861.95 1430.09 1311.27 1525.56 1146.1 834.902 520.539 485.265 559.233 444.058 375.532 282.121 274.744 257.043 299.635 239.638 230.494 228.544 225.946 204.512 151.386 138.75 341.762 134.449 131.759 108.64 98.5226
threshold=16.500000000000004 96.279263000000014 2.0605000000000007 24.500000000000004 50.500000000000007 94.64474300000002 8.5000000000000018 2.5447500000000005 40.500000000000007 94.64474300000002 29.500000000000004 93.422478000000012 2.5000000000000004 7.5000000000000009 101.52464250000001 85.432341500000021 16.500000000000004 96.81237400000002 20.500000000000004 50.500000000000007 4.5000000000000009 43.500000000000007 18.500000000000004 6.5000000000000009 7.5000000000000009 85.432341500000021 610.50000000000011 2.310750000000001 54.500000000000007 12.500000000000002
decision_type=2 2 2 2 2 2 2 2 2 2 2 2 2 2 2 2 2 2 2 2 2 2 2 2 2 2 2 2 2 2
left_child=2 3 4 8 5 6 20 27 9 12 11 13 -2 24 -3 -15 17 29 -14 -9 -1 22 -8 -11 25 -5 -24 -4 -6 -7
right_child=1 14 7 10 28 16 21 19 -10 23 -12 -13 18 15 -16 -17 -18 -19 -20 -21 -22 -23 26 -25 -26 -27 -28 -29 -30 -31
leaf_value=-0.17654906755401978 0.080824614635535655 -0.089993089579400568 -0.29602206576438178 0.54921602945070014 -0.20208093131460797 -0.024189090805834739 -0.065830314088435413 -0.51802976353963215 -0.098634618483483802 0.15943395461982643 0.227612842950556 0.25700165647448919 0.23817968703806403 0.46524003419009125 -0.2477900042616088 0.25017441555305764 -0.31237248090597303 -0.27299468678732713 0.34477997747836292 -0.70544091179257351 -0.072715902815912378 -0.043363785184919838 0.15512951923840082 -0.0097623859532177462 0.54537646873243928 0.3099081881046295 0.065586998579757555 -0.39124922007322316 -0.30601747072660007 -0.15452198479966872
leaf_weight=105 28 42 84 37 41 29 21 75 20 39 27 33 103 33 87 27 39 36 108 21 107 44 67 20 116 25 112 64 65 29
leaf_count=105 28 42 84 37 41 29 21 75 20 39 27 33 103 33 87 27 39 36 108 21 107 44 67 20 116 25 112 64 65 29
internal_value=-1.30429e-09 0.229276 -0.181907 0.318423 -0.0967463 -0.0663196 -0.0260291 -0.424477 0.214094 0.235082 0.429754 0.449893 0.267916 0.476639 -0.196414 0.368461 -0.204458 -0.159685 0.292743 -0.559026 -0.124143 0.0592171 0.0817849 0.102079 0.513103 0.452721 0.0991029 -0.337201 -0.265816 -0.0893555
internal_weight=1684 745 939 616 695 589 456 244 318 298 298 271 239 238 129 60 133 94 211 96 212 244 200 59 178 62 179 148 106 58
internal_count=1684 745 939 616 695 589 456 244 318 298 298 271 239 238 129 60 133 94 211 96 212 244 200 59 178 62 179 148 106 58
is_linear=0
shrinkage=0.05


Tree=14
num_leaves=31
num_cat=0
split_feature=16 3 16 0 2 1 16 8 3 3 3 16 7 0 1 7 3 3 0 16 1 1 3 4 16 3 0 8 3 0
split_gain=25367.1 8493.81 8092.07 1873.82 1767.52 1798.42 1611.63 1270.25 548.711 478.977 341.015 742.541 317.3 302.211 257.584 257.483 649.388 234.621 222.192 240.269 198.893 166.992 160.954 159.758 129.986 129.594 107.225 105.933 82.8328 81.1427
threshold=18.500000000000004 96.279263000000014 1.0000000180025095e-35 37.500000000000007 2.5000000000000004 26.500000000000004 25.500000000000004 2.4797500000000006 93.422478000000012 94.64474300000002 100.47969500000001 14.500000000000002 2.5000000000000004 43.500000000000007 47.500000000000007 7.5000000000000009 85.432341500000021 103.84971350000002 54.500000000000007 10.500000000000002 30.500000000000004 18.500000000000004 92.632081000000014 33.7739864864865 21.500000000000004 94.302206500000025 4.5000000000000009 2.2522500000000005 87.443527000000017 48.500000000000007
decision_type=2 2 2 2 2 2 2 2 2 2 2 2 2 2 2 2 2 2 2 2 2 2 2 2 2 2 2 2 2 2
left_child=2 3 7 6 10 13 9 27 15 12 11 18 -2 21 -9 16 -8 23 19 22 29 28 -4 -3 -14 -23 -11 -1 -6 -7
right_child=1 17 4 -5 5 20 8 14 -10 26 -12 -13 24 -15 -16 -17 -18 -19 -20 -21 -22 25 -24 -25 -26 -27 -28 -29 -30 -31
leaf_value=-0.26340162486446145 0.1241974449157715 -0.17137386644525188 -0.087317529320716861 -0.078783259292443605 0.23615634867123197 -0.044996470622718332 0.50916344356536869 -0.4530447490179717 0.23513146589199702 0.17967163605185657 -0.28572502159798635 0.018729266911811596 0.26209597017409075 -0.053291100342022751 -0.60771077050103084 0.5032773135540386 0.22835335131202428 -0.30356496751308443 -0.29151704136918233 -0.082748032302285238 -0.16628506150201106 0.091138167054422445 -0.24841053598168969 -0.0096617534756660468 0.34866825396861506 -0.044100483953952795 0.025680690258741382 -0.34650423488919696 0.1095696213344733 -0.14982050706942876
leaf_weight=98 25 56 20 27 28 80 50 67 30 26 49 56 72 38 45 144 35 25 41 60 107 155 69 21 109 20 20 63 24 24
leaf_count=98 25 56 20 27 28 80 50 67 30 26 49 56 72 38 45 144 35 25 41 60 107 155 69 21 109 20 20 63 24 24
internal_value=3.2093e-10 0.247853 -0.151941 0.327165 -0.0691076 -0.00950949 0.348615 -0.385876 0.436202 0.258594 -0.165273 -0.14128 0.291168 0.0772128 -0.515187 0.462544 0.393536 -0.17048 -0.188441 -0.160078 -0.118426 0.0990593 -0.21221 -0.127271 0.314231 0.0756823 0.112719 -0.29592 0.177732 -0.0691866
internal_weight=1684 640 1044 538 771 476 511 273 259 252 295 246 206 265 112 229 85 102 190 149 211 227 89 77 181 175 46 161 52 104
internal_count=1684 640 1044 538 771 476 511 273 259 252 295 246 206 265 112 229 85 102 190 149 211 227 89 77 181 175 46 161 52 104
is_linear=0
shrinkage=0.05


Tree=15
num_leaves=31
num_cat=0
split_feature=16 3 9 16 2 10 8 12 4 10 3 3 16 10 7 1 1 1 3 3 3 1 3 3 1 12 4 12 10 9
split_gain=22893.8 7665.66 7303.1 1598.06 1595.19 1629.11 1146.4 488.308 1235.82 328.62 414.232 314.96 649.514 299.435 321.686 292.846 286.811 235.414 211.746 208.378 221.914 186.565 214.61 176.363 265.96 149.864 144.181 123.932 108.028 102.488
threshold=18.500000000000004 96.279263000000014 0.98571428571428588 25.500000000000004 2.5000000000000004 886.00000000000011 2.4797500000000006 1432.0350435000003 33.7739864864865 492.00000000000006 94.64474300000002 96.81237400000002 14.500000000000002 86.000000000000014 4.5000000000000009 29.500000000000004 9.5000000000000018 48.500000000000007 103.84971350000002 87.55265150000001 85.432341500000021 22.500000000000004 87.443527000000017 86.095205500000006 17.500000000000004 1144.9606200000003 33.7739864864865 652.98925650000012 356.00000000000006 1.1000000000000003
decision_type=2 2 2 2 2 2 2 2 2 2 2 2 2 2 2 2 2 2 2 2 2 2 2 2 2 2 2 2 2 2
left_child=2 3 4 9 11 21 29 13 -9 10 16 12 23 19 -15 -7 -2 -8 26 20 -5 22 -6 -1 25 -25 -3 -24 -18 -4
right_child=1 18 6 7 5 15 17 8 -10 -11 -12 -13 -14 14 -16 -17 28 -19 -20 -21 -22 -23 27 24 -26 -27 -28 -29 -30 -31
leaf_value=-0.24877457927573809 0.1433365292634283 -0.16280517391860486 -0.24744443259340654 0.500313949584961 0.18423692085971571 -0.039201385228604571 -0.44257678985595705 0.0024025297760963439 0.43295230162143705 0.048637142280737566 0.10708309586929239 -0.25324390990232737 0.028042224268702898 0.22258324302159826 0.43481044727459289 -0.14646534686698054 0.32431022870925164 -0.60158687649351184 -0.28838671708106994 0.60403307791679139 0.30717023790348325 0.028124159221083689 -0.043487915992736818 -0.12806283554959078 -0.23455993755066651 0.026753802326592531 -0.0091786663801897133 0.10378092777729037 0.23152951853615897 -0.32837602273741767
leaf_weight=55 35 56 94 58 73 122 79 25 50 24 46 66 51 26 57 133 124 33 25 31 20 78 20 54 47 22 21 50 42 67
leaf_count=55 35 56 94 58 73 122 79 25 50 24 46 66 51 26 57 133 124 33 25 31 20 78 20 54 47 22 21 50 42 67
internal_value=-4.30287e-10 0.235461 -0.144344 0.310807 -0.0656522 -0.00903402 -0.366582 0.397624 0.289436 0.225272 0.242434 -0.157009 -0.129273 0.439885 0.36833 -0.0951469 0.27341 -0.489428 -0.161956 0.494373 0.45079 0.090327 0.124256 -0.174347 -0.141066 -0.0832475 -0.120907 0.0617041 0.300836 -0.281124
internal_weight=1684 640 1044 538 771 476 273 267 75 271 247 295 229 192 83 255 201 112 102 109 78 221 143 178 123 76 77 70 166 161
internal_count=1684 640 1044 538 771 476 273 267 75 271 247 295 229 192 83 255 201 112 102 109 78 221 143 178 123 76 77 70 166 161
is_linear=0
shrinkage=0.05


Tree=16
num_leaves=31
num_cat=0
split_feature=16 3 8 16 0 3 16 8 0 7 3 7 3 0 10 12 0 3 3 3 3 16 8 16 0 0 10 1 0 0
split_gain=20694.9 8332.27 5709.65 2089.55 1106.3 1060.64 1120 867.296 663.553 406.885 402.912 366.418 828.77 631.521 320.807 255.535 216.705 221.58 211.531 197.159 187.545 182.077 177.164 147.639 132.375 152.159 117.227 112.608 111.337 93.1966
threshold=16.500000000000004 96.279263000000014 2.0605000000000007 24.500000000000004 49.500000000000007 94.64474300000002 8.5000000000000018 2.6390000000000007 40.500000000000007 2.5000000000000004 94.490417000000022 15.500000000000002 91.261967500000011 21.500000000000004 86.000000000000014 345.85135800000006 17.500000000000004 96.279263000000014 101.52464250000001 87.55265150000001 85.338616500000015 3.5000000000000004 2.3497500000000007 21.500000000000004 43.500000000000007 18.500000000000004 610.50000000000011 50.500000000000007 54.500000000000007 12.500000000000002
decision_type=2 2 2 2 2 2 2 2 2 2 2 2 2 2 2 2 2 2 2 2 2 2 2 2 2 2 2 2 2 2
left_child=2 3 4 8 5 6 21 22 9 -2 23 14 13 -13 19 -16 17 29 -3 20 -5 -1 -4 -11 25 -8 -27 -9 -6 -7
right_child=1 18 7 11 28 16 24 27 -10 10 -12 12 -14 -15 15 -17 -18 -19 -20 -21 -22 -23 -24 -25 -26 26 -28 -29 -30 -31
leaf_value=-0.16149080213977071 0.045253254618081787 -0.076468132879762424 -0.26152730483819941 0.47714624210279821 -0.16878207944474133 -0.0039410789981484421 -0.055107989304122473 -0.47131703532471952 -0.094639744684100149 0.2241009518018916 0.11432525122922564 0.4828147395797398 0.046509643314549556 0.15190259324652811 0.22882933255397911 0.39760432345526558 -0.28950665773767414 -0.22570695331828161 -0.2131047970947178 0.5738314105618384 0.30141748061234303 -0.064986627161010238 -0.36376475503999894 0.31193813789635899 -0.026403095073452811 0.13947216654891401 0.055861160531640058 -0.60970397903805695 -0.26642396743480978 -0.1336928271237881
leaf_weight=82 36 42 101 49 53 25 21 49 20 119 63 46 26 21 33 70 33 44 87 31 22 121 73 80 41 67 112 21 65 31
leaf_count=82 36 42 101 49 53 25 21 49 20 119 63 46 26 21 33 70 33 44 87 31 22 121 73 80 41 67 112 21 65 31
internal_value=-1.36712e-09 0.196782 -0.156126 0.273303 -0.0830722 -0.0545445 -0.0174422 -0.364211 0.184157 0.202868 0.224525 0.368431 0.286115 0.379096 0.405775 0.343531 -0.178405 -0.141741 -0.168618 0.468629 0.422695 -0.103969 -0.30442 0.259412 0.055441 0.0722191 0.0871569 -0.512833 -0.222568 -0.0757679
internal_weight=1684 745 939 616 695 577 444 244 318 298 262 298 93 67 205 103 133 100 129 102 71 203 174 199 241 200 179 70 118 56
internal_count=1684 745 939 616 695 577 444 244 318 298 262 298 93 67 205 103 133 100 129 102 71 203 174 199 241 200 179 70 118 56
is_linear=0
shrinkage=0.05


Tree=17
num_leaves=31
num_cat=0
split_feature=16 3 9 2 1 16 9 12 4 10 3 3 16 10 7 10 1 9 3 3 3 3 10 12 16 4 4 1 10 10
split_gain=18714.9 6226.32 5941.74 1311.6 1315.23 1297.82 939.431 400.003 1113.36 280.659 342.279 264.687 553.627 241.13 268.107 237.877 235.604 202.182 197.358 184.551 169.706 188.518 161.893 122.151 169.487 122.015 120.309 96.7923 93.4659 80.7496
threshold=18.500000000000004 96.279263000000014 0.98571428571428588 2.5000000000000004 26.500000000000004 25.500000000000004 1.2142857142857146 1432.0350435000003 33.7739864864865 492.00000000000006 94.64474300000002 100.47969500000001 14.500000000000002 86.000000000000014 4.5000000000000009 750.00000000000011 9.5000000000000018 1.3571428571428574 94.302206500000025 103.84971350000002 87.55265150000001 85.432341500000021 1351.5000000000002 364.13737600000007 11.500000000000002 33.7739864864865 33.7739864864865 4.5000000000000009 356.00000000000006 593.50000000000011
decision_type=2 2 2 2 2 2 2 2 2 2 2 2 2 2 2 2 2 2 2 2 2 2 2 2 2 2 2 2 2 2
left_child=2 5 3 11 15 9 -4 13 -9 10 16 12 23 20 -15 18 -2 -8 29 26 21 -7 -6 -1 25 -25 -3 -12 -18 -5
right_child=1 19 6 4 22 7 17 8 -10 -11 27 -13 -14 14 -16 -17 28 -19 -20 -21 -22 -23 -24 24 -26 -27 -28 -29 -30 -31
leaf_value=-0.21955478277898607 0.12983818865979888 -0.14522964818669218 -0.25242693551681328 0.16735604306062063 -0.065003101673722266 0.45249160980356157 -0.38371725082397462 -0.011328073501586915 0.39733383434265851 0.040474899609883624 0.16014895990777475 -0.24848603834303057 0.016934739425778389 0.20001261692780714 0.39376154322373241 0.0074970119535213431 0.29442172665749827 -0.51858266989390056 -0.027840377514561018 -0.26331214413046838 0.54513984880139754 0.27447340190410613 -0.15413240180459134 -0.06996937956322323 -0.047133829960456265 -0.20568260229123175 -0.0048963254583733427 0.013841135799884796 0.20812086207526073 0.090267685204744347
leaf_weight=62 35 56 159 66 125 58 66 25 50 24 26 49 56 26 57 105 124 48 24 25 31 20 86 22 39 67 21 20 42 70
leaf_count=62 35 56 159 66 125 58 66 25 50 24 26 49 56 26 57 105 124 48 24 25 31 20 86 22 39 67 21 20 42 70
internal_value=-4.44604e-10 0.212889 -0.130507 -0.0595275 -0.00818807 0.280794 -0.330964 0.359032 0.261113 0.203711 0.219572 -0.142367 -0.121229 0.397282 0.333069 0.0659745 0.24773 -0.440503 0.10435 -0.145279 0.446177 0.406846 -0.101331 -0.161951 -0.134049 -0.172136 -0.106957 0.0965369 0.272587 0.127678
internal_weight=1684 640 1044 771 476 538 273 267 75 271 247 295 246 192 83 265 201 114 160 102 109 78 211 190 128 89 77 46 166 136
internal_count=1684 640 1044 771 476 538 273 267 75 271 247 295 246 192 83 265 201 114 160 102 109 78 211 190 128 89 77 46 166 136
is_linear=0
shrinkage=0.05


Tree=18
num_leaves=31
num_cat=0
split_feature=16 3 9 0 2 16 9 10 3 3 0 3 16 12 12 3 0 1 10 3 1 3 1 12 4 9 16 12 0 3
split_gain=16890.2 5619.26 5371 1405.04 1335.6 1063.67 1008.27 965.857 481.233 326.753 254.438 248.774 475.327 243.589 218.762 553.947 209.795 218.445 188.265 166.557 142.111 173.131 114.469 111.701 108.579 106.544 94.3422 91.2058 87.355 85.2335
threshold=18.500000000000004 96.279263000000014 0.95142857142857151 37.500000000000007 2.5000000000000004 25.500000000000004 1.2142857142857146 886.00000000000011 93.422478000000012 94.64474300000002 49.500000000000007 96.81237400000002 15.500000000000002 204.12485600000005 666.96427500000016 85.432341500000021 50.500000000000007 17.500000000000004 2694.0000000000005 103.84971350000002 22.500000000000004 87.443527000000017 29.500000000000004 652.98925650000012 33.7739864864865 1.1000000000000003 22.500000000000004 1294.4630325000003 4.5000000000000009 90.060739500000011
decision_type=2 2 2 2 2 2 2 2 2 2 2 2 2 2 2 2 2 2 2 2 2 2 2 2 2 2 2 2 2 2
left_child=2 3 4 5 11 9 25 20 14 13 22 12 16 -2 15 -7 17 27 -8 24 21 -6 -9 -23 -3 -4 -15 -1 -11 -25
right_child=1 19 6 -5 7 8 18 10 -10 28 -12 -13 -14 26 -16 -17 -18 -19 -20 -21 -22 23 -24 29 -26 -27 -28 -29 -30 -31
leaf_value=-0.094236109657606607 0.09280305767059327 -0.13796816462916989 -0.20338801155090336 -0.08476641923189164 0.16082946502999085 0.42433822774887092 -0.3879445017025035 -0.01012331706609715 0.16818235932538908 0.15214151423424482 -0.17450491112211478 -0.21989655297701108 0.046809146441519262 0.22608575895428659 0.41869896078068347 0.16498328115258898 -0.23076027393341067 -0.20261475890874864 -0.55369534265427356 -0.25014653515815738 0.023055134699321713 -0.049093294739723209 -0.09117845133559345 0.14858554324933462 -0.0046515086754446945 -0.28231034755706785 0.29853107620434588 0.024377987422936023 0.013149079084396362 0.017072166367010637
leaf_weight=71 25 56 125 27 73 50 93 108 30 26 46 66 40 98 144 35 50 44 21 25 78 20 73 28 21 65 83 21 20 22
leaf_count=71 25 56 125 27 73 50 93 108 30 26 46 66 40 98 144 35 50 44 21 25 78 20 73 28 21 65 83 21 20 22
internal_value=-2.8642e-10 0.202244 -0.123981 0.266755 -0.0512923 0.285328 -0.300921 0.00293839 0.356484 0.212195 -0.0695003 -0.134496 -0.109555 0.2391 0.381153 0.317545 -0.143182 -0.110984 -0.418478 -0.138015 0.0773437 0.106956 -0.0428141 0.0507731 -0.101609 -0.230388 0.259307 -0.0671612 0.09171 0.0907197
internal_weight=1684 640 1044 538 740 511 304 448 259 252 227 292 226 206 229 85 186 136 114 102 221 143 181 70 77 190 181 92 46 50
internal_count=1684 640 1044 538 740 511 304 448 259 252 227 292 226 206 229 85 186 136 114 102 221 143 181 70 77 190 181 92 46 50
is_linear=0
shrinkage=0.05


Tree=19
num_leaves=31
num_cat=0
split_feature=16 3 9 16 16 1 9 4 3 7 10 3 3 1 3 3 7 1 9 1 10 3 12 10 1 1 3 10 1 10
split_gain=15255.1 6143.49 4219.84 1519.38 688.463 1068.03 574.073 347.332 1144.27 484.292 346.908 296.578 228.515 168.52 212.018 158.197 153.808 128.041 189.906 126.881 104.24 101.394 99.3097 121.522 97.6251 89.9808 86.0208 89.1493 84.1652 85.218
threshold=16.500000000000004 96.279263000000014 1.0342857142857145 24.500000000000004 7.5000000000000009 18.500000000000004 1.3000000000000003 33.7739864864865 85.432341500000021 14.500000000000002 593.50000000000011 94.490417000000022 87.55265150000001 8.5000000000000018 96.279263000000014 101.52464250000001 2.5000000000000004 24.500000000000004 0.90000000000000002 4.5000000000000009 1030.5000000000002 95.286152500000014 1294.4630325000003 220.50000000000003 41.500000000000007 50.500000000000007 94.302206500000025 687.00000000000011 10.500000000000002 282.50000000000006
decision_type=2 2 2 2 2 2 2 2 2 2 2 2 2 2 2 2 2 2 2 2 2 2 2 2 2 2 2 2 2 2
left_child=2 3 4 10 17 13 24 8 9 -5 11 16 -9 -6 22 -3 -2 -1 -19 -14 26 -13 23 -15 -4 -8 27 -7 -18 -30
right_child=1 15 6 7 5 20 25 12 -10 -11 -12 21 19 14 -16 -17 28 18 -20 -21 -22 -23 -24 -25 -26 -27 -28 -29 29 -31
leaf_value=-0.20153742474503816 0.085515660524368292 -0.065115946149897005 -0.23815471712423833 0.39331623554229739 -0.19799795423476202 0.10933650398955626 -0.40341930342655563 0.21249709665775299 0.024978830939845036 0.12665850392409736 -0.02014308559894562 0.043582713510841135 0.45075280112879618 -0.031357107485862491 -0.20520233185961845 -0.18327847096169819 0.14431290500091784 -0.068191522401626986 -0.15828811202862467 0.35070513161792333 -0.032738763505462995 0.17126222615656647 0.036346829610622744 -0.15545108714962708 -0.3213889789581299 -0.52639416512988857 -0.044686528593301772 0.035570890615576681 0.2825689523870295 0.20622704389992111
leaf_weight=56 25 42 98 90 53 68 51 20 38 21 25 48 56 47 32 87 33 107 129 73 43 23 22 34 55 21 20 103 55 109
leaf_count=56 25 42 98 90 53 68 51 20 38 21 25 48 56 47 32 87 33 107 129 73 43 23 22 34 55 21 20 103 55 109
internal_value=2.08441e-10 0.168951 -0.134045 0.234657 -0.074544 -0.033703 -0.322863 0.315775 0.261795 0.342867 0.158641 0.173895 0.369756 -0.122446 -0.0927849 -0.144807 0.202344 -0.133568 -0.117439 0.394137 0.0375948 0.0849437 -0.0578591 -0.0834459 -0.268076 -0.439287 0.0534291 0.0649046 0.217169 0.23183
internal_weight=1684 745 939 616 714 422 225 298 149 111 318 293 149 188 135 129 222 292 236 129 234 71 103 81 153 72 191 171 197 164
internal_count=1684 745 939 616 714 422 225 298 149 111 318 293 149 188 135 129 222 292 236 129 234 71 103 81 153 72 191 171 197 164
is_linear=0
shrinkage=0.05


Tree=20
num_leaves=31
num_cat=0
split_feature=16 3 9 0 16 0 3 16 9 3 7 3 10 11 3 3 3 3 0 0 0 10 9 16 12 0 0 10 16 3
split_gain=13792.7 5198.5 4103.47 1274.77 963.261 909.16 966.211 866.6 601.925 373.403 277.934 249.724 218.585 210.83 201.769 168.74 520.993 140.928 127.61 125.313 138.822 146.887 117.982 113.279 94.0037 87.193 83.7976 81.6046 69.4725 67.7745
threshold=17.500000000000004 96.279263000000014 1.0142857142857145 39.500000000000007 24.500000000000004 49.500000000000007 94.64474300000002 8.5000000000000018 1.3000000000000003 93.422478000000012 2.5000000000000004 94.490417000000022 97.000000000000014 1.5314285714285716 96.279263000000014 87.55265150000001 85.356895500000022 101.52464250000001 14.500000000000002 44.500000000000007 15.500000000000002 610.50000000000011 1.1514285714285715 4.5000000000000009 256.09708050000006 53.500000000000007 6.5000000000000009 2694.0000000000005 22.500000000000004 87.55265150000001
decision_type=2 2 2 2 2 2 2 2 2 2 2 2 2 2 2 2 2 2 2 2 2 2 2 2 2 2 2 2 2 2
left_child=2 3 5 4 10 6 7 23 22 12 -2 28 26 14 18 16 -14 -3 -8 20 -9 -22 -4 -1 -23 -7 -6 -10 -12 -28
right_child=1 17 8 -5 9 25 13 19 27 -11 11 -13 15 -15 -16 -17 -18 -19 -20 -21 21 24 -24 -25 -26 -27 29 -29 -30 -31
leaf_value=-0.1186888812929392 0.041451493185013538 -0.049822802776219074 -0.21084305877779044 -0.10829886006048094 0.45875806411107378 -0.13050994179969611 -0.012809496407592019 -0.054495058102267124 -0.38316514725778617 0.15389739207246089 0.20713067881439043 0.10643916750496084 0.32997061952948575 -0.29381296691440401 -0.19356357627793364 0.34605694671846787 0.022423821403866725 -0.16760156770685206 -0.14717207665244739 -0.034156417701502934 0.12875061536228263 -0.043429994365821289 -0.29377429839727043 -0.043239949946526933 0.066156111422153024 -0.21960290137090183 0.32883870062919768 -0.50027645883106053 0.27588089969423085 0.40761976185299109
leaf_weight=100 32 37 102 26 24 43 43 21 51 33 115 55 40 21 57 53 21 81 30 34 91 24 74 99 106 76 78 21 54 42
leaf_count=100 32 37 102 26 24 43 43 21 51 33 115 55 40 21 57 53 21 81 30 34 91 24 74 99 106 76 78 21 54 42
internal_value=1.48381e-10 0.171537 -0.119368 0.233772 0.250031 -0.0607245 -0.0366422 -0.00161858 -0.295534 0.312265 0.17929 0.198981 0.332521 -0.146816 -0.12307 0.280796 0.224094 -0.130671 -0.068027 0.0557276 0.0683559 0.0800296 -0.245712 -0.081154 0.0459248 -0.18741 0.37347 -0.417323 0.229098 0.356412
internal_weight=1684 691 993 573 547 745 626 475 248 291 256 224 258 151 130 114 61 118 73 276 242 221 176 199 130 119 144 72 169 120
internal_count=1684 691 993 573 547 745 626 475 248 291 256 224 258 151 130 114 61 118 73 276 242 221 176 199 130 119 144 72 169 120
is_linear=0
shrinkage=0.05


Tree=21
num_leaves=31
num_cat=0
split_feature=16 3 16 0 2 8 10 3 16 12 12 3 0 0 3 16 16 1 3 0 16 1 8 3 11 3 8 10 3 3
split_gain=12453.9 4140.47 3959.81 1241.22 1000.04 741.643 708.195 633.322 540.6 530.319 302.955 1175.57 250.952 243.52 195.175 376.746 161.264 138.339 135.436 131.539 134.015 115.58 111.975 97.8154 88.7858 86.2972 78.9684 78.2077 59.1768 226.632
threshold=18.500000000000004 94.64474300000002 1.5000000000000002 37.500000000000007 2.5000000000000004 2.4797500000000006 805.00000000000011 97.992111000000008 28.500000000000004 1592.2022810000001 345.85135800000006 85.432341500000021 6.5000000000000009 48.500000000000007 100.47969500000001 14.500000000000002 23.500000000000004 47.500000000000007 94.302206500000025 55.500000000000007 10.500000000000002 29.500000000000004 0.2697500000000001 103.84971350000002 0.16571428571428573 92.632081000000014 2.2522500000000005 633.50000000000011 87.55265150000001 85.338616500000015
decision_type=2 2 2 2 2 2 2 2 2 2 2 2 2 2 2 2 2 2 2 2 2 2 2 2 2 2 2 2 2 2
left_child=2 3 5 8 14 26 18 22 10 12 11 -2 -10 21 15 19 -12 -7 27 20 25 -8 -3 24 -9 -4 -1 -6 29 -14
right_child=1 7 4 -5 6 17 13 23 9 -11 16 -13 28 -15 -16 -17 -18 -19 -20 -21 -22 -23 -24 -25 -26 -27 -28 -29 -30 -31
leaf_value=-0.17633245407148851 0.31393332680066433 0.14098354518927378 -0.063609027869201126 -0.083225964451277709 0.12834470382538335 -0.31509959235120177 0.0020721158957374948 -0.027339401810119554 0.50657051227710859 0.094439182281494144 0.20872618132936105 -0.12251416280589722 0.3687750845563178 -0.14157038905790872 -0.20707611026508466 0.016079969617671202 0.2937656347816055 -0.4284460470411513 -0.026372224092483521 -0.22234674764401988 -0.057765961618950736 -0.076245349141913402 0.010523339351148983 -0.22009520807862284 -0.14842733682655707 -0.17956662215292454 -0.2446264002058241 0.056772138092920248 0.38085437064268152 0.17971590420474179
leaf_weight=129 36 29 21 27 87 67 140 24 27 20 112 27 51 56 49 56 111 45 26 33 65 71 38 25 41 68 63 68 49 23
leaf_count=129 36 29 21 27 87 67 140 24 27 20 112 27 51 56 49 56 111 45 26 33 65 71 38 25 41 68 63 68 49 23
internal_value=-2.51517e-10 0.173665 -0.106461 0.246172 -0.0440476 -0.258388 0.00287846 -0.049399 0.265676 0.336289 0.223703 0.126884 0.368535 -0.0488811 -0.116044 -0.0976875 0.251055 -0.360641 0.079231 -0.131757 -0.112345 -0.0242812 0.0669912 -0.136045 -0.103718 -0.152206 -0.198741 0.0969451 0.338235 0.310013
internal_weight=1684 640 1044 483 740 304 448 157 456 170 286 63 150 267 292 243 223 112 181 187 154 211 67 90 65 89 192 155 123 74
internal_count=1684 640 1044 483 740 304 448 157 456 170 286 63 150 267 292 243 223 112 181 187 154 211 67 90 65 89 192 155 123 74
is_linear=0
shrinkage=0.05


Tree=22
num_leaves=31
num_cat=0
split_feature=16 9 2 0 12 0 2 1 4 9 1 7 12 12 1 16 10 1 0 12 7 7 1 7 0 0 4 0 9 1
split_gain=11251 3346.99 2632.33 1020.1 796.794 755.152 527.199 540.396 504.654 493.73 475.823 209.781 152.986 435.252 138.043 136.606 107.094 106.285 103.618 93.7762 318.863 93.2069 90.9388 89.2358 219.817 89.0259 106.155 107.268 70.9989 67.4701
threshold=17.500000000000004 1.0142857142857145 2.5000000000000004 37.500000000000007 1703.1745110000002 50.500000000000007 2.5000000000000004 25.500000000000004 33.7739864864865 1.2714285714285716 6.5000000000000009 11.500000000000002 345.85135800000006 174.91488700000005 12.500000000000002 8.5000000000000018 86.000000000000014 31.500000000000004 2.5000000000000004 1451.5242450000003 17.500000000000004 2.5000000000000004 50.500000000000007 7.5000000000000009 22.500000000000004 16.500000000000004 33.7739864864865 12.500000000000002 1.1171428571428574 21.500000000000004
decision_type=2 2 2 2 2 2 2 2 2 2 2 2 2 2 2 2 2 2 2 2 2 2 2 2 2 2 2 2 2 2
left_child=1 5 8 4 10 6 15 21 11 28 19 -2 13 -12 16 -1 -14 -9 -10 23 -21 -8 -11 24 -4 26 -17 -28 -3 -23
right_child=2 9 3 -5 -6 -7 7 17 18 22 12 -13 14 -15 -16 25 -18 -19 -20 20 -22 29 -24 -25 -26 -27 27 -29 -30 -31
leaf_value=-0.1613102427454757 -0.1434837364637461 -0.18361298271587917 0.2028534233570099 -0.12677431645847501 -0.064769385077736594 -0.17776862115503472 -0.030435230336817248 -0.033472107789406541 0.16084682375192644 -0.3345143505243155 0.30282866954803467 0.021828044631651472 0.14818553224205971 0.017409247159957886 0.17662663143508289 -0.17862599910451815 0.27370896223372065 -0.10884029201098851 0.042904366241538365 0.11137846410274506 0.38376471088046121 0.098428163379430778 -0.45419598079863049 0.36406118583369568 0.41175585746765136 0.022770939909276509 -0.022513568237210152 -0.12363740639842076 -0.24985999602537889 0.037859283975434511
leaf_weight=61 61 84 34 21 22 107 28 141 25 65 22 28 20 34 98 26 113 70 73 22 21 90 21 77 20 21 61 46 78 94
leaf_count=61 61 84 34 21 22 107 28 141 25 65 22 28 20 34 98 26 113 70 73 22 21 90 21 77 20 21 61 46 78 94
internal_value=4.41922e-10 -0.10781 0.154928 0.214372 0.229204 -0.0548472 -0.0342319 -0.00182805 -0.00528414 -0.266912 0.243233 -0.0914755 0.203681 0.129538 0.221655 -0.0979845 0.254833 -0.0584758 0.0729917 0.308473 0.244404 0.0545525 -0.363739 0.329503 0.280225 -0.0729009 -0.0880069 -0.0659874 -0.21551 0.0674854
internal_weight=1684 993 691 504 483 745 638 423 187 248 461 89 287 56 231 215 133 211 98 174 43 212 86 131 54 154 133 107 162 184
internal_count=1684 993 691 504 483 745 638 423 187 248 461 89 287 56 231 215 133 211 98 174 43 212 86 131 54 154 133 107 162 184
is_linear=0
shrinkage=0.05


Tree=23
num_leaves=31
num_cat=0
split_feature=16 3 9 16 2 10 9 3 10 3 10 3 1 1 3 3 16 3 11 3 3 1 3 10 3 3 9 3 3 7
split_gain=10154 3942.28 3020.66 814.638 577.529 726.155 448.874 310.813 235.714 224.096 214.26 220.691 141.514 128.421 122.145 119.815 184.178 108.405 105.328 96.9124 159.438 125.181 94.2894 110.565 88.2387 215.289 86.7169 70.7975 96.5095 67.1738
threshold=17.500000000000004 96.279263000000014 1.0142857142857145 25.500000000000004 2.5000000000000004 954.50000000000011 1.3000000000000003 93.422478000000012 115.50000000000001 87.55265150000001 492.00000000000006 94.64474300000002 31.500000000000004 9.5000000000000018 103.84971350000002 96.81237400000002 14.500000000000002 95.286152500000014 0.16571428571428573 86.095205500000006 87.443527000000017 15.500000000000002 94.302206500000025 633.50000000000011 85.777812500000024 84.237355500000021 1.1514285714285715 87.55265150000001 85.777812500000024 7.5000000000000009
decision_type=2 2 2 2 2 2 2 2 2 2 2 2 2 2 2 2 2 2 2 2 2 2 2 2 2 2 2 2 2 2
left_child=2 3 4 10 15 22 26 8 24 -10 11 13 -7 -2 18 16 19 -13 -3 -1 -21 -22 23 -6 25 -5 -4 28 -25 -20
right_child=1 14 6 7 5 12 -8 -9 9 -11 -12 17 -14 -15 -16 -17 -18 -19 29 20 21 -23 -24 27 -26 -27 -28 -29 -30 -31
leaf_value=-0.1710938709703359 0.10164138139225543 -0.0080643528806311742 -0.18064782689599432 0.3465860148270925 0.1093166784585818 -0.045807111380447969 -0.35873730050192942 0.11357382001976174 0.12831736100025667 0.29892898515651101 0.02735051056917976 0.013261000924941266 -0.1219161339600881 0.20073672736157253 -0.21168269285788904 -0.17979728331351108 0.005346766555387723 0.16078451007604599 -0.17718563118288597 0.037936993427574638 -0.059205695148557426 -0.16899872006443159 -0.03826736499523295 0.035791236775306365 0.35520070616791893 0.17584129393100739 -0.25174661294834033 0.080444485558520851 -0.086635132138194015 -0.074686013862039102
leaf_weight=55 40 28 102 48 69 146 72 30 39 38 34 33 105 179 26 51 38 20 31 20 50 54 29 60 82 30 74 46 22 33
leaf_count=55 40 28 102 48 69 146 72 30 39 38 34 33 105 179 26 51 38 20 31 20 50 54 29 60 82 30 74 46 22 33
internal_value=-7.12836e-11 0.147182 -0.102419 0.201378 -0.0521048 -0.0191069 -0.253566 0.265201 0.284395 0.212515 0.145689 0.160481 -0.0776455 0.182637 -0.115991 -0.110836 -0.0946289 0.0689302 -0.0889478 -0.115853 -0.0913506 -0.116214 0.0459073 0.0582985 0.318986 0.280915 -0.210542 0.0307965 0.00294514 -0.124334
internal_weight=1684 691 993 573 745 477 248 267 237 77 306 272 251 219 118 268 217 53 92 179 124 104 226 197 160 78 176 128 82 64
internal_count=1684 691 993 573 745 477 248 267 237 77 306 272 251 219 118 268 217 53 92 179 124 104 226 197 160 78 176 128 82 64
is_linear=0
shrinkage=0.05


Tree=24
num_leaves=31
num_cat=0
split_feature=16 3 8 0 16 2 10 8 3 7 3 0 7 3 0 3 16 0 3 11 3 10 10 8 0 7 1 3 3 7
split_gain=9164.01 3557.91 2727.9 929.325 642.52 601.074 548.87 455.997 321.645 231.824 187.854 147.173 137.366 455.078 126.624 147.316 217.223 119.971 110.236 95.0587 85.0962 99.7845 78.8353 77.6008 77.2849 72.2661 71.5373 63.8947 87.0998 60.6244
threshold=17.500000000000004 96.279263000000014 1.9955000000000007 39.500000000000007 25.500000000000004 2.5000000000000004 954.50000000000011 2.6032500000000005 93.422478000000012 2.5000000000000004 94.490417000000022 53.500000000000007 7.5000000000000009 85.432341500000021 55.500000000000007 96.279263000000014 9.5000000000000018 25.500000000000004 103.84971350000002 0.16571428571428573 94.302206500000025 633.50000000000011 2694.0000000000005 2.310750000000001 45.500000000000007 11.500000000000002 28.500000000000004 87.55265150000001 85.777812500000024 7.5000000000000009
decision_type=2 2 2 2 2 2 2 2 2 2 2 2 2 2 2 2 2 2 2 2 2 2 2 2 2 2 2 2 2 2
left_child=2 3 5 4 9 14 20 23 12 -2 -11 26 13 -6 15 16 -1 -14 19 -3 21 -7 -9 -4 25 -18 -8 28 -23 -21
right_child=1 18 7 -5 8 6 11 22 -10 10 -12 -13 17 -15 -16 -17 24 -19 -20 29 -22 27 -24 -25 -26 -27 -28 -29 -30 -31
leaf_value=-0.13389584487794262 0.034796662463082211 -0.0076611351753984175 -0.16234954715868749 -0.10075876148274313 0.32818273448944096 0.10385084605735283 -0.015072264539470016 -0.30189968252938892 0.10789512522518635 0.19406056600584232 0.090752450167609938 -0.19255686544236683 0.33043117119419962 0.093109401975359246 -0.1930083814594481 -0.16226599551737309 -0.033621565218676222 0.203735427422957 -0.20109855432349902 -0.16832634825860301 -0.036353994649032072 0.03400167608944079 -0.41376360143933982 -0.22817120834400784 -0.11035549845546484 0.066258973083286377 -0.076137118534399917 0.076422261762554233 -0.082303373456339951 -0.070951713124910984
leaf_weight=76 36 28 109 26 50 69 76 63 30 193 57 21 124 35 36 57 55 22 26 31 29 60 21 76 20 27 130 46 22 33
leaf_count=76 36 28 109 26 50 69 76 63 30 193 57 21 124 35 36 57 55 22 26 31 29 60 21 76 20 27 130 46 22 33
internal_value=-4.36931e-10 0.139823 -0.0972985 0.191309 0.205191 -0.0467839 -0.0115468 -0.233256 0.261917 0.153424 0.170506 -0.0664626 0.28192 0.231388 -0.105686 -0.0923087 -0.0699067 0.31134 -0.110192 -0.0845004 0.0436119 0.0553835 -0.329866 -0.18939 -0.0222285 -0.000734071 -0.0536083 0.0292566 0.00279788 -0.118118
internal_weight=1684 691 993 573 547 724 453 269 261 286 250 227 231 85 271 235 178 146 118 92 226 197 84 185 102 82 206 128 82 64
internal_count=1684 691 993 573 547 724 453 269 261 286 250 227 231 85 271 235 178 146 118 92 226 197 84 185 102 82 206 128 82 64
is_linear=0
shrinkage=0.05


Tree=25
num_leaves=31
num_cat=0
split_feature=16 3 9 0 2 9 10 3 16 12 0 0 7 3 16 3 0 12 3 8 1 3 1 16 9 0 5 1 12 1
split_gain=8277.84 2827.44 2644.36 891.741 672.201 497.335 482.751 435.826 366.583 321.501 334.443 180.783 174.142 148.518 192.487 140.54 500.15 129.952 99.9208 94.3904 87.1615 78.81 76.8572 74.1634 73.1889 71.3756 128.612 55.0465 59.5787 45.4557
threshold=18.500000000000004 94.64474300000002 0.95142857142857151 37.500000000000007 2.5000000000000004 1.2342857142857147 805.00000000000011 97.992111000000008 26.500000000000004 1592.2022810000001 7.5000000000000009 48.500000000000007 2.5000000000000004 102.59071400000001 13.500000000000002 85.432341500000021 20.500000000000004 476.9538075000001 94.302206500000025 0.2697500000000001 50.500000000000007 103.84971350000002 29.500000000000004 22.500000000000004 1.1000000000000003 53.500000000000007 22.073492723492723 22.500000000000004 256.09708050000006 19.500000000000004
decision_type=2 2 2 2 2 2 2 2 2 2 2 2 2 2 2 2 2 2 2 2 2 2 2 2 2 2 2 2 2 2
left_child=2 3 4 8 13 24 18 19 12 10 -10 22 -2 14 25 -12 -17 -16 27 -3 -7 -9 -8 -14 -4 26 -1 28 -6 -28
right_child=1 7 5 -5 6 20 11 21 9 -11 15 -13 23 -15 17 16 -18 -19 -20 -21 -22 -23 -24 -25 -26 -27 29 -29 -30 -31
leaf_value=-0.0077333090634181577 0.0573729966367994 0.12173953730741452 -0.14260611796379091 -0.077698071797688811 0.021997804868788946 -0.2786331919523386 0.0026324633801622054 -0.085607143273720376 0.4303149765188044 0.091233352820078537 0.30351343452930452 -0.11991512621087688 0.15877635397625214 -0.21676844462104469 -0.10221361316446412 0.005936863747510044 0.28285270929336548 0.015214991644625704 -0.024986322797261751 0.0019605517313864671 -0.39339382875533335 -0.19006837889365855 -0.061232153840467964 0.21884853434231549 -0.20385098561644555 -0.18416076451539995 -0.10992007471057913 0.029546831318965329 0.11505993690929915 -0.19046080735596746
leaf_weight=29 28 29 125 27 21 78 140 65 33 24 80 56 98 23 38 22 63 62 26 38 21 25 71 108 80 32 86 39 95 22
leaf_count=29 28 29 125 27 21 78 140 65 33 24 80 56 98 23 38 22 63 62 26 38 21 25 71 108 80 32 86 39 95 22
internal_value=2.74281e-10 0.141585 -0.0867955 0.201503 -0.0357919 -0.210949 0.00268113 -0.0427467 0.218034 0.26406 0.285009 -0.0400531 0.174368 -0.094819 -0.0843921 0.255948 0.21118 -0.0294079 0.0657201 0.0538052 -0.302976 -0.114624 -0.0188575 0.190271 -0.166507 -0.116927 -0.101223 0.0809353 0.0982125 -0.126327
internal_weight=1684 640 1044 483 740 304 448 157 456 222 198 267 234 292 269 165 85 100 181 67 99 90 211 206 205 169 137 155 116 108
internal_count=1684 640 1044 483 740 304 448 157 456 222 198 267 234 292 269 165 85 100 181 67 99 90 211 206 205 169 137 155 116 108
is_linear=0
shrinkage=0.05


Tree=26
num_leaves=31
num_cat=0
split_feature=16 3 9 16 16 1 4 3 9 10 7 3 3 3 7 7 3 3 1 10 1 10 7 7 3 1 10 3 1 3
split_gain=7482.14 3119.41 2073.82 726.939 338.482 516.422 326.821 943.747 292.579 226.159 195.009 180.369 113.924 91.9123 108.273 91.5695 91.3147 171.499 86.0334 117.858 74.7543 94.7931 74.4315 72.9938 70.7264 65.9191 53.8133 52.5497 51.2536 50.1749
threshold=16.500000000000004 96.279263000000014 1.0342857142857145 25.500000000000004 7.5000000000000009 18.500000000000004 33.7739864864865 85.432341500000021 1.3171428571428574 593.50000000000011 13.500000000000002 94.64474300000002 95.286152500000014 101.97807100000001 5.5000000000000009 4.5000000000000009 86.095205500000006 96.279263000000014 9.5000000000000018 341.50000000000006 24.500000000000004 1725.0000000000002 13.500000000000002 12.500000000000002 95.286152500000014 41.500000000000007 1030.5000000000002 94.302206500000025 4.5000000000000009 85.432341500000021
decision_type=2 2 2 2 2 2 2 2 2 2 2 2 2 2 2 2 2 2 2 2 2 2 2 2 2 2 2 2 2 2
left_child=2 3 4 9 20 16 7 10 25 11 -5 18 -13 14 -3 -8 -6 22 23 29 -1 -22 24 -2 -18 -4 27 -7 -17 -20
right_child=1 13 8 6 5 26 15 -9 -10 -11 -12 12 -14 -15 -16 28 17 -19 19 -21 21 -23 -24 -25 -26 -27 -28 -29 -30 -31
leaf_value=-0.14548503800428339 0.02147768078290898 -0.13714780232736043 -0.16628345810637182 0.28946613216400147 -0.14234924309832209 0.046396471227502879 0.18367281079292297 -0.055558589626761051 -0.32299237374601697 -0.027265647530555728 0.12571703294912975 -0.0037600088159780243 0.13794611135254736 -0.13828320352360607 0.013041435830694224 0.33438901641152124 -0.079451844625759369 -0.14265824481844902 0.2305406030486612 0.11902910416223565 -0.067562746297774007 -0.15471666278065863 0.060999545636586855 0.14744676053524017 0.031488599482108838 -0.23007986096368321 -0.024484323796837831 -0.039259693026542669 0.26729597773687064 0.16513813993205195
leaf_weight=56 23 21 98 75 51 171 20 34 58 25 24 37 23 80 28 55 51 46 51 98 199 37 20 23 20 69 43 20 59 69
leaf_count=56 23 21 98 75 51 171 20 34 58 25 24 37 23 80 28 55 51 46 51 98 199 37 20 23 20 69 43 20 59 69
internal_value=1.00495e-10 0.118322 -0.0938766 0.165142 -0.0521642 -0.0235275 0.227242 0.171716 -0.226244 0.117634 0.249769 0.128814 0.0505607 -0.105253 -0.0513254 0.282353 -0.085236 -0.0639749 0.146599 0.159711 -0.0935502 -0.0812267 -0.0242009 0.0844622 -0.048201 -0.192642 0.0260503 0.0374272 0.299665 0.192934
internal_weight=1684 745 939 616 714 422 267 133 225 349 99 324 60 129 49 134 188 137 264 218 292 236 91 46 71 167 234 191 114 120
internal_count=1684 745 939 616 714 422 267 133 225 349 99 324 60 129 49 134 188 137 264 218 292 236 91 46 71 167 234 191 114 120
is_linear=0
shrinkage=0.05


Tree=27
num_leaves=31
num_cat=0
split_feature=16 3 9 0 3 12 2 2 16 9 10 12 0 3 16 0 0 3 11 3 3 10 12 1 9 1 3 3 3 3
split_gain=6755.81 2618.76 2013.92 743.431 501.147 1056.37 532.066 494.54 428.071 403.517 316.065 195.592 101.273 129.843 162.256 98.7306 91.1998 85.6563 82.9755 79.0788 333.316 75.5299 64.6183 86.5965 58.8242 56.0017 57.186 115.471 51.2639 49.2677
threshold=17.500000000000004 96.279263000000014 0.95142857142857151 39.500000000000007 93.422478000000012 1487.7631675000002 2.5000000000000004 2.5000000000000004 27.500000000000004 1.2342857142857147 954.50000000000011 204.12485600000005 55.500000000000007 96.279263000000014 10.500000000000002 49.500000000000007 7.5000000000000009 103.84971350000002 0.16571428571428573 87.55265150000001 85.356895500000022 2694.0000000000005 204.12485600000005 24.500000000000004 1.1000000000000003 12.500000000000002 85.777812500000024 83.948555500000012 92.632081000000014 95.286152500000014
decision_type=2 2 2 2 2 2 2 2 2 2 2 2 2 2 2 2 2 2 2 2 2 2 2 2 2 2 2 2 2 2
left_child=2 3 7 4 8 6 29 12 11 24 22 -2 13 14 28 -12 -10 18 -3 20 -18 -11 -9 -24 -4 26 27 -13 -1 -6
right_child=1 17 9 -5 5 -7 -8 10 16 21 15 25 -14 -15 -16 -17 19 -19 -20 -21 -22 -23 23 -25 -26 -27 -28 -29 -30 -31
leaf_value=-0.03926238644690741 0.048931484903608054 -4.7224008345178193e-06 -0.12928130908012389 -0.09700360086101753 0.04101477724223121 -0.22064417001345885 0.34463806240646933 -0.038205252259969714 0.33863015254338585 -0.25097334109819852 -0.029769920525685341 0.23505191595658015 -0.16792505019240911 -0.14303881976949542 -0.0091498895233047065 -0.11395902077356974 0.26582913416804693 -0.17457470355125576 -0.10320236029219815 0.28440392252170676 0.032826898694038396 -0.35780258746374227 0.067933908188259687 -0.0044990449019804086 -0.18418795093894005 0.14802531124365451 0.22498415491797707 0.078273543715476998 -0.12983735941777952 0.13841789066791535
leaf_weight=21 35 28 125 26 37 23 27 25 30 78 154 23 36 57 89 45 66 26 64 66 20 21 143 58 80 99 77 24 61 20
leaf_count=21 35 28 125 26 37 23 27 25 30 78 154 23 36 57 89 45 66 26 64 66 20 21 143 58 80 99 77 24 61 20
internal_value=-5.12331e-10 0.120053 -0.0835415 0.164225 0.176641 0.0795917 0.161799 -0.0362434 0.200242 -0.19074 -0.00285706 0.15882 -0.0899903 -0.0776848 -0.0559002 -0.0488077 0.258961 -0.0944409 -0.0717944 0.243236 0.211643 -0.273634 0.0376039 0.0470329 -0.150708 0.176067 0.198456 0.154995 -0.106641 0.0751913
internal_weight=1684 691 993 573 547 107 84 689 440 304 425 258 264 228 171 199 182 118 92 152 86 99 226 201 205 223 124 47 82 57
internal_count=1684 691 993 573 547 107 84 689 440 304 425 258 264 228 171 199 182 118 92 152 86 99 226 201 205 223 124 47 82 57
is_linear=0
shrinkage=0.05


Tree=28
num_leaves=31
num_cat=0
split_feature=16 16 3 0 0 3 16 1 3 7 2 16 11 4 0 3 12 7 3 7 3 0 16 0 1 1 16 0 1 1
split_gain=6106.56 2228.41 1657.36 635.826 581.395 894.242 521.848 349.223 342.559 1020.31 373.735 281.969 190.714 205.053 191.038 137.445 529.684 131.341 101.559 90.2785 115.263 177.148 82.6621 80.7051 76.2573 58.6456 47.714 44.825 42.5269 39.3459
threshold=20.500000000000004 1.5000000000000002 96.81237400000002 36.500000000000007 48.500000000000007 94.64474300000002 11.500000000000002 45.500000000000007 93.422478000000012 15.500000000000002 2.5000000000000004 27.500000000000004 1.5314285714285716 33.7739864864865 12.500000000000002 85.432341500000021 349.8297740000001 2.5000000000000004 103.84971350000002 14.500000000000002 85.432341500000021 24.500000000000004 5.5000000000000009 41.500000000000007 39.500000000000007 25.500000000000004 25.500000000000004 15.500000000000002 50.500000000000007 17.500000000000004
decision_type=2 2 2 2 2 2 2 2 2 2 2 2 2 2 2 2 2 2 2 2 2 2 2 2 2 2 2 2 2 2
left_child=1 7 3 8 5 6 22 24 11 10 -10 15 13 -7 -15 -2 -17 -8 -4 20 -13 -22 -3 27 -1 -6 -18 -19 -9 -29
right_child=2 4 18 -5 25 12 17 28 9 -11 -12 19 -14 14 -16 16 26 23 -20 -21 21 -23 -24 -25 -26 -27 -28 29 -30 -31
leaf_value=-0.1305206247278162 0.21649185129114101 -0.064337635217677977 -0.042086284373363016 -0.088646223870190721 -0.15985636143457324 -0.15612840909382394 -0.010776659191862957 -0.25460813552775285 0.096892006462439895 -0.20616000638831233 0.35161649932463968 0.26974705831328433 -0.23957643494009973 0.008029419360319515 -0.11154230253265825 -0.097432089419592 0.16207438238403377 0.035876417710729268 -0.16805677115917206 0.3015501350652976 0.082135319268261953 0.26883153865734738 -0.0029525740628051161 0.012530661387176352 -0.18929586383429442 -0.088487568666350172 0.2499290782213211 0.1400585982729407 -0.34019311269124353 0.092002512370808087
leaf_weight=148 74 84 48 22 63 58 37 47 36 21 24 67 20 77 59 21 68 23 24 61 27 24 158 29 88 53 20 68 21 114
leaf_count=148 74 84 48 22 63 58 37 47 36 21 24 67 20 77 59 21 68 23 24 61 27 24 158 29 88 53 20 68 21 114
internal_value=-1.78332e-10 -0.0651482 0.139153 0.173717 -0.0232969 -0.00671045 0.0291057 -0.181203 0.186747 0.0937969 0.198782 0.207545 -0.0925687 -0.0774133 -0.0438436 0.163901 0.128198 0.0767604 -0.0840764 0.252163 0.226633 0.169992 -0.0242598 0.0906018 -0.152437 -0.127248 0.182041 0.101646 -0.281039 0.109958
internal_weight=1684 1147 537 465 843 727 513 304 443 81 60 362 214 194 136 183 109 271 72 179 118 51 242 234 236 116 88 205 68 182
internal_count=1684 1147 537 465 843 727 513 304 443 81 60 362 214 194 136 183 109 271 72 179 118 51 242 234 236 116 88 205 68 182
is_linear=0
shrinkage=0.05


Tree=29
num_leaves=31
num_cat=0
split_feature=16 9 3 0 2 3 7 2 1 8 16 3 16 3 7 0 7 9 0 3 3 1 0 3 3 0 4 0 0 1
split_gain=5516.1 1876.06 1684.64 560.133 494.757 358.735 887.593 373.044 342.871 337.723 299.864 147.984 248.892 128.507 519.94 125.849 109.764 86.3431 82.1098 76.4306 75.8568 79.5526 69.8656 56.7338 316.052 52.7726 81.4317 102.67 52.4324 48.9278
threshold=19.500000000000004 0.95142857142857151 96.81237400000002 37.500000000000007 2.5000000000000004 93.422478000000012 15.500000000000002 2.5000000000000004 25.500000000000004 2.427750000000001 27.500000000000004 100.47969500000001 15.500000000000002 85.432341500000021 4.5000000000000009 44.500000000000007 2.5000000000000004 1.3571428571428574 12.500000000000002 103.84971350000002 94.302206500000025 21.500000000000004 7.5000000000000009 87.55265150000001 85.356895500000022 56.500000000000007 33.7739864864865 49.500000000000007 48.500000000000007 9.5000000000000018
decision_type=2 2 2 2 2 2 2 2 2 2 2 2 2 2 2 2 2 2 2 2 2 2 2 2 2 2 2 2 2 2
left_child=1 4 3 5 11 10 7 -7 15 -3 13 12 18 -2 -15 16 -6 -11 -1 -4 21 -18 -12 24 -24 26 27 -20 -10 -16
right_child=2 9 19 -5 8 6 -8 -9 28 17 22 -13 -14 14 29 -17 20 -19 25 -21 -22 -23 23 -25 -26 -27 -28 -29 -30 -31
leaf_value=-0.012721665311520074 0.19734242381084532 -0.12780357589212696 -0.052487018288423615 -0.083645643747371184 -0.03610570250914015 0.080581034744239388 -0.19673510590060192 0.31752771460092988 -0.026592756405213403 -0.20231176110414359 0.30703983545303348 -0.14661181213591121 0.032951049257776352 -0.086648583173751847 0.22286982536315919 -0.069844881572167991 0.10302955977050431 -0.28754344880580901 0.052004003617912534 -0.15654308011941612 -0.020232338526032189 0.036047574174655997 0.25041414834558967 0.25814487780585432 0.022703086733818056 -0.17524534821510318 -0.11276872356973806 -0.10289445752682894 -0.08406318892847818 0.14594907479153738
leaf_weight=33 84 178 60 23 29 46 22 26 158 78 30 58 58 25 29 22 118 48 20 25 22 71 64 66 20 20 103 23 53 72
leaf_count=33 84 178 60 23 29 46 22 26 158 78 30 58 58 25 29 22 118 48 20 25 22 71 64 66 20 20 103 23 53 72
internal_value=1.6052e-11 -0.0666292 0.122904 0.15744 -0.0259234 0.168896 0.0812157 0.166145 0.00640824 -0.172143 0.190029 -0.0744721 -0.0581916 0.149439 0.117503 0.0446111 0.0551029 -0.234781 -0.0847557 -0.0830917 0.0676386 0.077867 0.237385 0.223454 0.196197 -0.0990758 -0.0886416 -0.0308487 -0.0410285 0.168035
internal_weight=1684 1092 592 507 788 484 94 72 473 304 390 315 257 210 126 262 240 126 199 85 211 189 180 150 84 166 146 43 211 101
internal_count=1684 1092 592 507 788 484 94 72 473 304 390 315 257 210 126 262 240 126 199 85 211 189 180 150 84 166 146 43 211 101
is_linear=0
shrinkage=0.05


Tree=30
num_leaves=31
num_cat=0
split_feature=16 9 3 0 0 3 16 8 3 12 2 16 11 3 3 3 12 12 3 0 9 12 3 0 16 0 1 0 3 16
split_gain=4991.79 1811.38 1348.07 522.207 478.807 741.973 428.607 304.795 277.312 833.914 305.078 228.702 170.459 174.659 121.135 112.596 433.476 106.996 83.8604 79.9783 78.4306 75.4609 100.199 153.232 73.3699 69.3599 49.597 42.7843 41.6479 39.4063
threshold=20.500000000000004 0.95142857142857151 96.81237400000002 36.500000000000007 48.500000000000007 94.64474300000002 11.500000000000002 2.427750000000001 93.422478000000012 1487.7631675000002 2.5000000000000004 27.500000000000004 1.5314285714285716 96.279263000000014 95.413385000000019 85.432341500000021 349.8297740000001 204.12485600000005 103.84971350000002 11.500000000000002 1.3171428571428574 1290.5884420000004 85.432341500000021 24.500000000000004 5.5000000000000009 39.500000000000007 25.500000000000004 15.500000000000002 102.59071400000001 25.500000000000004
decision_type=2 2 2 2 2 2 2 2 2 2 2 2 2 2 2 2 2 2 2 2 2 2 2 2 2 2 2 2 2 2
left_child=1 4 3 8 5 6 24 -3 11 10 -10 15 13 14 19 -2 -17 -8 -4 -7 -9 22 -13 -24 -1 27 -6 -19 -15 -18
right_child=2 7 18 -5 26 12 17 20 9 -11 -12 21 -14 28 -16 16 29 25 -20 -21 -22 -23 23 -25 -26 -27 -28 -29 -30 -31
leaf_value=-0.059614673469747817 0.19580013558671283 -0.12141339715277211 -0.037357619459119938 -0.080784032967957595 -0.14549246316864378 0.0016591195570072161 -0.0093140669972509964 -0.18718769239342734 0.088018356367117842 -0.18601524462657315 0.31815929437677065 0.24454640630465835 -0.22330754484981297 -0.093539409122119346 0.070410985442308283 -0.0882280537060329 0.14644832164049149 0.030732510206492054 -0.15182677783692877 -0.106286433540486 -0.26644442248762701 0.27284184752917684 0.069826793229138415 0.24346372559666635 -0.0017826297189274074 0.023126583557757666 -0.079860029467996571 0.10339371979236603 -0.1623341146743659 0.22628912925720215
leaf_weight=84 74 178 48 22 63 32 37 69 36 21 24 67 20 66 26 21 68 23 24 37 57 61 27 24 158 41 53 170 33 20
leaf_count=84 74 178 48 22 63 32 37 69 36 21 24 67 20 66 26 21 68 23 24 37 57 61 27 24 158 41 53 170 33 20
internal_value=-2.0428e-10 -0.0589024 0.125812 0.156985 -0.0211698 -0.00611766 0.0265069 -0.163536 0.168793 0.0851625 0.180075 0.187506 -0.0843252 -0.0699972 -0.0215665 0.1482 0.115885 0.069695 -0.075514 -0.0562247 -0.223042 0.227689 0.204348 0.151538 -0.0218566 0.0821879 -0.115505 0.0947346 -0.116471 0.164594
internal_weight=1684 1147 537 465 843 727 513 304 443 81 60 362 214 194 95 183 109 271 72 69 126 179 118 51 242 234 116 193 99 88
internal_count=1684 1147 537 465 843 727 513 304 443 81 60 362 214 194 95 183 109 271 72 69 126 179 118 51 242 234 116 193 99 88
is_linear=0
shrinkage=0.05


Tree=31
num_leaves=31
num_cat=0
split_feature=16 3 8 0 0 3 7 16 3 16 16 9 7 0 3 3 3 3 0 3 0 10 12 16 3 0 3 3 1 10
split_gain=4509.43 1740.5 1352.94 504.007 361.43 360.979 687.465 407.916 353.282 368.151 272.325 172.903 142.149 117.309 104.233 75.9319 164.54 97.4756 74.3176 72.0059 63.1852 80.3965 58.7756 58.6582 46.8598 45.027 41.7747 144.244 70.525 35.2152
threshold=17.500000000000004 96.81237400000002 2.1255000000000011 40.500000000000007 51.500000000000007 93.422478000000012 15.500000000000002 23.500000000000004 94.64474300000002 9.5000000000000018 27.500000000000004 1.3171428571428574 2.5000000000000004 17.500000000000004 96.279263000000014 85.777812500000024 84.237355500000021 87.443527000000017 45.500000000000007 95.413385000000019 15.500000000000002 610.50000000000011 256.09708050000006 4.5000000000000009 103.84971350000002 3.5000000000000004 85.777812500000024 84.637352000000007 11.500000000000002 57.000000000000007
decision_type=2 2 2 2 2 2 2 2 2 2 2 2 2 2 2 2 2 2 2 2 2 2 2 2 2 2 2 2 2 2
left_child=2 3 4 5 8 10 7 -7 9 23 12 -4 -2 14 19 16 -12 -17 20 -10 -11 -22 -23 -1 25 -3 27 -14 -28 -19
right_child=1 24 11 -5 -6 6 -8 -9 13 18 15 -13 26 -15 -16 17 -18 29 -20 -21 21 22 -24 -25 -26 -27 28 -29 -30 -31
leaf_value=-0.069785908949375156 0.036062235151018411 -0.025819713756059987 -0.15112980556340866 -0.096572339340396551 -0.12431680895749807 0.055892194888292585 -0.18130817342063654 0.2876340261212102 -0.0600008635049952 -0.034617539779061367 0.23236193905274072 -0.25173282952144227 0.15263698895772299 -0.17277648868039253 -0.11737350366670979 0.32870461629784625 0.087327863953330309 0.25014880124260402 -0.048207590745931325 0.055267544053494932 0.092640926451845615 -0.042181243358746817 0.04680903890791039 -0.022972058804023417 -0.14204920104418237 -0.098850263849548675 0.20044474431446624 -0.0006415265798568726 0.12890097981220799 0.18272655924161277
leaf_weight=125 35 39 162 23 103 64 23 27 42 21 48 58 66 34 55 23 33 34 22 20 88 23 96 144 26 46 63 20 76 45
leaf_count=125 35 39 162 23 103 64 23 27 42 21 48 58 66 34 55 23 33 34 22 20 88 23 96 144 26 46 63 20 76 45
internal_value=1.70828e-10 0.0980834 -0.0682534 0.132798 -0.0371179 0.14227 0.0629222 0.124651 -0.0237127 -0.0041288 0.162689 -0.177652 0.1298 -0.091024 -0.0672669 0.209416 0.173274 0.238117 0.0395535 -0.0228175 0.0480216 0.0564053 0.0296092 -0.0447257 -0.0833096 -0.0653421 0.144381 0.116991 0.161327 0.211744
internal_weight=1684 691 993 580 773 557 114 91 670 519 443 220 260 151 117 183 81 102 250 62 228 207 119 269 111 85 225 86 139 79
internal_count=1684 691 993 580 773 557 114 91 670 519 443 220 260 151 117 183 81 102 250 62 228 207 119 269 111 85 225 86 139 79
is_linear=0
shrinkage=0.05


Tree=32
num_leaves=31
num_cat=0
split_feature=16 9 3 0 3 0 9 16 3 3 3 7 2 10 11 3 3 12 9 3 12 10 8 0 0 0 16 8 7 8
split_gain=4080.62 1478.91 1099.32 433.235 420.249 638.73 295.126 279.955 229.525 758.032 238.64 680.524 260.934 165.642 129.975 193.221 107.098 350.75 69.2489 68.716 54.8675 52.8721 51.662 51.5345 50.9031 45.7785 41.3022 36.4259 35.7983 35.7633
threshold=20.500000000000004 0.91714285714285726 96.81237400000002 36.500000000000007 94.64474300000002 47.500000000000007 1.1857142857142859 11.500000000000002 85.432341500000021 86.095205500000006 93.422478000000012 15.500000000000002 2.5000000000000004 141.50000000000003 1.2828571428571431 97.992111000000008 87.443527000000017 272.72959500000007 1.4142857142857144 103.84971350000002 438.20870500000007 288.50000000000006 1.5112500000000004 12.500000000000002 23.500000000000004 39.500000000000007 24.500000000000004 1.6705000000000008 9.5000000000000018 1.1570000000000003
decision_type=2 2 2 2 2 2 2 2 2 2 2 2 2 2 2 2 2 2 2 2 2 2 2 2 2 2 2 2 2 2
left_child=1 4 3 8 5 7 -3 24 26 -10 13 12 -12 -11 15 23 29 -18 -8 -4 -15 -19 -7 -6 -1 -23 -2 -26 -16 -9
right_child=2 6 19 -5 14 22 18 16 9 10 11 -13 -14 20 28 -17 17 21 -20 -21 -22 25 -24 -25 27 -27 -28 -29 -30 -31
leaf_value=-0.086682361648196274 0.15962351774558045 -0.10451072623718133 -0.033514091900239393 -0.074666859074072403 0.014524815831906521 -0.13197819129113228 -0.18122521245479584 0.11692751943133772 -0.16225643498556955 0.22522937217537239 0.077926053686274421 -0.16764907333112899 0.29076639413833621 0.063495670394463979 -0.11059590127319097 -0.11677151202248076 -0.15517080708273823 -0.0066230775415897364 -0.26898028275062302 -0.13713298033302029 0.15343213637132902 0.10505490007240381 -0.06474698014416784 -0.062196953809171007 0.011751976276396729 0.027938706979707434 0.21965388390753005 -0.033703604459330655 -0.20519809320569041 0.06426531219923938
leaf_weight=21 39 206 48 22 65 62 100 80 21 98 36 21 24 22 20 78 21 20 29 24 74 67 53 33 122 27 108 69 20 54
leaf_count=21 39 206 48 22 65 62 100 80 21 98 36 21 24 22 20 78 21 20 29 24 74 67 53 33 122 27 108 69 20 54
internal_value=-1.04138e-10 -0.0532559 0.113751 0.141902 -0.0167886 0.00486599 -0.141648 0.0301754 0.152657 0.127294 0.149405 0.0773222 0.163062 0.179502 -0.0765391 -0.0580487 0.064039 0.0326072 -0.200953 -0.0680537 0.132822 0.0671979 -0.100993 -0.0113101 -0.0127931 0.0829045 0.203727 -0.00466915 -0.157897 0.0957054
internal_weight=1684 1147 537 465 812 596 335 481 443 296 275 81 60 194 216 176 269 135 129 72 96 114 115 98 212 94 147 191 40 134
internal_count=1684 1147 537 465 812 596 335 481 443 296 275 81 60 194 216 176 269 135 129 72 96 114 115 98 212 94 147 191 40 134
is_linear=0
shrinkage=0.05


Tree=33
num_leaves=31
num_cat=0
split_feature=16 8 3 3 16 12 16 8 4 3 11 4 1 3 12 3 3 10 12 16 10 4 3 1 16 3 3 16 9 10
split_gain=3682.76 1336.25 992.14 323.537 365.457 220.743 214.611 191.413 185.804 374.248 137.975 139.192 127.684 110.502 322.856 161.037 116.109 87.8489 85.4991 85.0025 85.1322 65.9738 210.042 79.0703 63.3905 62.0162 53.9992 43.9803 42.8015 33.4456
threshold=20.500000000000004 1.9955000000000007 96.81237400000002 94.64474300000002 12.500000000000002 1.0000000180025095e-35 29.500000000000004 2.6390000000000007 33.7739864864865 85.432341500000021 1.5314285714285716 33.7739864864865 12.500000000000002 84.206048500000009 345.85135800000006 84.637352000000007 93.422478000000012 750.00000000000011 1315.1634185000003 5.5000000000000009 271.00000000000006 33.7739864864865 87.55265150000001 14.500000000000002 25.500000000000004 103.84971350000002 89.68382600000001 9.5000000000000018 1.1000000000000003 36.500000000000007
decision_type=2 2 2 2 2 2 2 2 2 2 2 2 2 2 2 2 2 2 2 2 2 2 2 2 2 2 2 2 2 2
left_child=1 3 6 4 19 -6 13 28 9 29 11 -5 -13 -2 -15 -16 24 21 -18 -1 -21 -7 -23 -24 -17 -4 -10 -22 -3 -8
right_child=2 7 25 10 5 17 8 -9 26 -11 -12 12 -14 14 15 16 18 -19 -20 20 27 22 23 -25 -26 -27 -28 -29 -30 -31
leaf_value=-0.062977310303718823 0.16902702667496422 -0.09755858941210642 -0.031838387576863171 -0.12330060353288885 -0.11423717424983071 0.096494005873799332 0.23298193668497019 -0.21920712028230938 0.21036333315647565 -0.056990216970443736 -0.19536581181344534 0.010010162362973992 -0.087744261062372542 -0.044538277557918005 -0.015903428792953492 0.13059602715941362 0.1186429768374988 -0.01652131040354033 -0.010950499242171646 -0.10891732356765055 -0.024301935157804627 -0.090494774468243125 -0.0082792412888790887 0.10291207507808707 0.19971545758070772 -0.13027632820109528 0.30103321944673861 0.022004144380361839 -0.14414844075474173 0.15318750987450283
leaf_weight=155 66 90 48 61 21 100 29 70 52 20 21 77 59 35 20 86 35 37 20 22 127 24 21 67 54 24 24 86 109 24
leaf_count=155 66 90 48 61 21 100 29 70 52 20 21 77 59 35 20 86 35 37 20 22 127 24 21 67 54 24 24 86 109 24
internal_value=-7.52483e-11 -0.0505931 0.108064 -0.0207213 -0.0032775 0.0414389 0.134807 -0.148093 0.184274 0.127304 -0.0735328 -0.0605455 -0.032398 0.111482 0.0962899 0.119215 0.133074 0.0545682 0.0715181 -0.034235 -0.0152773 0.0669753 0.0406194 0.0763778 0.157256 -0.064651 0.238996 -0.00560558 -0.123078 0.196849
internal_weight=1684 1147 537 878 660 270 465 269 149 73 218 197 136 316 250 215 195 249 55 390 235 212 112 88 140 72 76 213 199 53
internal_count=1684 1147 537 878 660 270 465 269 149 73 218 197 136 316 250 215 195 249 55 390 235 212 112 88 140 72 76 213 199 53
is_linear=0
shrinkage=0.05


Tree=34
num_leaves=31
num_cat=0
split_feature=16 3 10 16 2 10 5 3 10 3 3 8 12 12 3 10 3 12 7 3 16 3 7 3 10 3 12 16 10 1
split_gain=3328.5 1284.5 1004.8 288.583 191.511 251.364 167.688 337.759 142.764 146.382 143.008 127.585 78.901 66.5387 678.797 79.0468 72.0351 93.8112 59.3898 52.1033 93.6293 50.1064 57.6911 48.7342 46.8565 52.7831 38.3772 49.4769 30.1846 27.69
threshold=17.500000000000004 96.279263000000014 1703.0000000000002 29.500000000000004 2.5000000000000004 1151.0000000000002 22.073492723492723 85.432341500000021 452.50000000000006 87.736949000000024 93.422478000000012 2.7040000000000011 1333.8524690000002 345.85135800000006 85.432341500000021 168.50000000000003 87.223183500000019 1118.8334430000002 8.5000000000000018 97.992111000000008 13.500000000000002 102.84957100000001 7.5000000000000009 89.68382600000001 750.00000000000011 94.302206500000025 191.12357800000004 9.5000000000000018 36.500000000000007 36.500000000000007
decision_type=2 2 2 2 2 2 2 2 2 2 2 2 2 2 2 2 2 2 2 2 2 2 2 2 2 2 2 2 2 2
left_child=2 3 4 8 19 24 7 28 10 -10 13 -4 18 14 -2 -15 17 -17 -12 20 26 22 -3 -8 25 -6 -1 -28 -5 -7
right_child=1 21 11 6 5 29 23 -9 9 -11 12 -13 -14 15 -16 16 -18 -19 -20 -21 -22 -23 -24 -25 -26 -27 27 -29 -30 -31
leaf_value=-0.11931842340347476 0.19774905264377596 -0.084267469302371709 -0.13141230022833672 0.22133283820645563 0.049550254668655071 -0.049621044824910324 0.19984516810912353 -0.054140712022781368 -0.086537387612320132 0.096048364172811096 0.035607169266488103 -0.21954988696358424 -0.028898957317384583 0.17028832130887536 -0.14802674000913449 0.11191282722353935 0.14640420597532522 -0.01401792204096204 0.13212392500468664 -0.11659837295966489 -0.0056112946817213957 -0.096920207070727515 0.017295971525640327 0.28598155478636422 -0.0033077900750932338 -0.033364497319511743 -0.086569933675047839 -0.023065829459501773 0.14552813867727918 -0.09835875696606107
leaf_weight=39 40 27 162 29 116 153 52 20 21 23 37 55 24 89 22 50 69 21 28 42 66 62 29 24 170 23 82 49 24 36
leaf_count=39 40 27 162 29 116 153 52 20 21 23 37 55 24 89 22 50 69 21 28 42 66 62 29 24 170 23 82 49 24 36
internal_value=-2.35309e-10 0.0842673 -0.0586392 0.115203 -0.0320421 -0.0134836 0.175061 0.120939 0.0941683 0.00890516 0.104041 -0.153751 0.0485771 0.121004 0.0750544 0.133445 0.110023 0.0746657 0.0771836 -0.0652873 -0.0561556 -0.065955 -0.0316721 0.227046 0.0142981 0.0358305 -0.0757787 -0.0628165 0.187006 -0.0589044
internal_weight=1684 691 993 573 776 498 149 73 424 44 380 217 89 291 62 229 140 71 65 278 236 118 56 76 309 139 170 131 53 189
internal_count=1684 691 993 573 776 498 149 73 424 44 380 217 89 291 62 229 140 71 65 278 236 118 56 76 309 139 170 131 53 189
is_linear=0
shrinkage=0.05


Tree=35
num_leaves=31
num_cat=0
split_feature=9 3 0 9 0 9 12 0 3 3 1 4 11 3 12 3 7 7 3 3 12 0 3 3 10 10 7 10 0 9
split_gain=2594.05 1177.69 1266.05 428.017 374.924 332.802 187.32 188.521 173.838 174.491 151.054 113.383 200.872 101.884 84.275 83.7307 425.091 98.1148 81.3591 70.1004 69.9491 257.622 165.421 62.6937 55.7585 53.0991 52.2358 51.1458 51.0029 47.0536
threshold=0.83428571428571441 94.64474300000002 32.500000000000007 0.51714285714285724 47.500000000000007 1.1857142857142859 1875.5243380000002 4.5000000000000009 93.422478000000012 94.490417000000022 7.5000000000000009 33.7739864864865 1.0771428571428574 87.55265150000001 174.91488700000005 85.432341500000021 5.5000000000000009 3.5000000000000004 84.237355500000021 96.81237400000002 674.21064000000013 22.500000000000004 83.948555500000012 94.928988500000017 2694.0000000000005 1703.0000000000002 7.5000000000000009 886.00000000000011 8.5000000000000018 0.63428571428571445
decision_type=2 2 2 2 2 2 2 2 2 2 2 2 2 2 2 2 2 2 2 2 2 2 2 2 2 2 2 2 2 2
left_child=1 2 3 8 13 25 7 19 10 -10 20 -9 -13 14 -4 17 -17 -12 -16 -3 21 22 -1 -14 -7 -2 -21 -15 -22 -5
right_child=5 6 4 29 -6 24 -8 11 9 -11 15 12 23 27 18 16 -18 -19 -20 26 28 -23 -24 -25 -26 -27 -28 -29 -30 -31
leaf_value=0.15026353465186226 -0.063162846229790501 0.080453047989045873 0.052014009561389685 0.060156640165777354 -0.10248735157343059 -0.15880359168405889 -0.19038890940802439 -0.12392839221791788 -0.033062433715789548 0.14447886765003204 0.23039704990386964 0.0053267487547697225 -0.17659655057865642 0.078285863767586547 0.010584366073211034 -0.12119546234607698 0.12738585660332127 0.11740700810788625 -0.095474661206826572 -0.064549894139170658 0.24393574128279816 0.2672853802641233 -0.034437926249070598 -0.071474749735883775 -0.24784638427552724 -0.10864569954974677 0.030657464523306668 0.012551799587980091 0.17385189416764799 0.0023173852880309163
leaf_weight=27 207 34 30 67 91 108 21 55 31 25 25 94 23 67 33 21 95 83 40 25 37 24 22 37 21 93 34 53 87 74
leaf_count=27 207 34 30 67 91 108 21 55 31 25 25 94 23 67 33 21 95 83 40 25 37 24 22 37 21 93 34 53 87 74
internal_value=2.52325e-13 0.0362823 0.0647963 0.106336 -0.0169593 -0.106141 -0.0459932 -0.0359524 0.128959 0.0461971 0.139968 -0.0623045 -0.0402959 0.0179422 -0.0185367 0.111881 0.0823841 0.143562 -0.0475302 0.0232689 0.171904 0.133073 0.0673363 -0.111771 -0.173299 -0.0772625 -0.00968464 0.0492533 0.194764 0.0298013
internal_weight=1684 1255 932 618 314 429 323 302 477 56 421 209 154 223 103 224 116 108 73 93 197 73 49 60 129 300 59 120 124 141
internal_count=1684 1255 932 618 314 429 323 302 477 56 421 209 154 223 103 224 116 108 73 93 197 73 49 60 129 300 59 120 124 141
is_linear=0
shrinkage=0.05


Tree=36
num_leaves=31
num_cat=0
split_feature=9 3 0 9 0 9 12 0 12 12 3 3 0 9 4 11 3 3 3 4 3 9 7 10 10 14 12 7 3 10
split_gain=2341.13 1062.87 1142.61 392.46 338.369 300.353 169.056 171.852 146.352 187.282 375.933 827.92 268.919 111.153 100.444 161.014 91.9502 86.7162 76.9683 83.6329 60.2362 50.6485 50.2777 48.219 46.6258 37.8937 37.7157 37.019 26.9729 25.0482
threshold=0.83428571428571441 94.64474300000002 32.500000000000007 0.35142857142857148 47.500000000000007 1.1857142857142859 1875.5243380000002 5.5000000000000009 1592.2022810000001 671.5884440000001 85.432341500000021 87.55265150000001 8.5000000000000018 0.63428571428571445 33.7739864864865 1.1600000000000004 87.55265150000001 96.81237400000002 87.223183500000019 33.7739864864865 94.928988500000017 1.4142857142857144 7.5000000000000009 1669.5000000000002 815.50000000000011 1.0000000180025095e-35 1015.6482240000001 14.500000000000002 92.632081000000014 158.00000000000003
decision_type=2 2 2 2 2 2 2 2 2 2 2 2 2 2 2 2 2 2 2 2 2 2 2 2 2 2 2 2 2 2
left_child=1 2 3 8 16 23 7 17 9 10 -1 -12 -11 25 -9 -16 18 -3 19 26 -17 -7 -19 28 -18 -5 -4 -6 -2 -14
right_child=5 6 4 13 27 21 -8 14 -10 12 11 -13 29 -15 15 20 24 22 -20 -21 -22 -23 -24 -25 -26 -27 -28 -29 -30 -31
