tree
version=v4
num_class=1
num_tree_per_iteration=1
label_index=0
max_feature_idx=11
objective=regression
feature_names=LapNumber TyreLife CompoundEncoded LapTime TrackTemp AirTemp Humidity FuelCorrectedLapTime LapTimeDelta LapTimeMA3 TyreDegradation StintProgression
feature_infos=[9:39] none [1:3] [115.71599999999999:148.31800000000001] none none none [112.416:145.018] [-3.0010000000000048:37.414000000000016] [104.72066666666666:120.67633333333333] none [0.038461538461538464:0.055555555555555552]
tree_sizes=754 760 761 682 808 661 738 663 734 735 738 740 738 740 815 712 807 808 750 746 769 844 762 736 758 747 657 662 660 694 711 736 736 726 755 831 942 849 838 811 773 697 744 834 778 604 665 684 763 683 682 695 757 759 780 872 719 797 955 795 741 743 745 741 690 781 743 747 670 779 776 779 932 785 952 874 874 867 747 800 804 870 817 785 858 700 704 701 699 703 663 686 684 762 742 688 690 690 711 706

Tree=0
num_leaves=8
num_cat=0
split_feature=0 0 0 0 0 11 0
split_gain=1654.15 228.667 147 43.2 24 8.16667 6
threshold=25.500000000000004 14.500000000000002 33.500000000000007 20.500000000000004 29.500000000000004 0.043040293040293047 35.500000000000007
decision_type=2 2 2 2 2 2 2
left_child=1 5 4 -3 -2 -1 -4
right_child=2 3 6 -5 -6 -7 -8
leaf_value=22.478125000000002 23.878125000000001 22.998125000000002 24.678125000000001 23.478124999999999 24.278124999999999 22.244791666666668 24.878125000000001
leaf_weight=3.0000000000000027 2.9999999999999982 5 3 3 3 3 3
leaf_count=3 3 5 3 3 3 3 3
internal_value=23.5666 22.8281 24.4281 23.1781 24.0781 22.3615 24.7781
internal_weight=26 14 12 8 6 6 6
internal_count=26 14 12 8 6 6 6
is_linear=0
shrinkage=1


Tree=1
num_leaves=7
num_cat=0
split_feature=9 11 3 9 9 8
split_gain=760.51 299.097 191.117 64.9446 53.4682 14.9784
threshold=105.70866666666669 0.043040293040293047 118.99400000000001 106.48200000000001 107.08416666666669 16.677500000000013
decision_type=2 2 2 2 2 2
left_child=-1 2 4 -3 5 -2
right_child=1 3 -4 -5 -6 -7
leaf_value=1.1401874732971184 -0.087812479337056409 -0.49981250762939455 -0.49821248531341555 -1.1578125317891437 0.54218750596046439 0.22818748553593948
leaf_weight=5.0000000000000027 3.0000000000000018 2.9999999999999991 4.9999999999999991 3 4 3
leaf_count=5 3 3 5 3 4 3
internal_value=0.0318029 -0.232098 0.00658751 -0.828813 0.258988 0.0701875
internal_weight=26 21 15 6 10 6
internal_count=26 21 15 6 10 6
is_linear=0
shrinkage=0.1


Tree=2
num_leaves=7
num_cat=0
split_feature=9 11 3 9 9 8
split_gain=616.013 242.269 154.805 52.6051 43.3092 12.1325
threshold=105.70866666666669 0.043040293040293047 118.99400000000001 106.48200000000001 107.08416666666669 16.677500000000013
decision_type=2 2 2 2 2 2
left_child=-1 2 4 -3 5 -2
right_child=1 3 -4 -5 -6 -7
leaf_value=1.0261687469482415 -0.079031236966450938 -0.44983124732971191 -0.44839125156402587 -1.0420312245686847 0.48796875178813925 0.20536872943242385
leaf_weight=5.0000000000000027 3.0000000000000018 2.9999999999999991 4.9999999999999991 3 4 3
leaf_count=5 3 3 5 3 4 3
internal_value=0.0286226 -0.208888 0.00592875 -0.745931 0.233089 0.0631687
internal_weight=26 21 15 6 10 6
internal_count=26 21 15 6 10 6
is_linear=0
shrinkage=0.1


Tree=3
num_leaves=6
num_cat=0
split_feature=9 11 3 9 8
split_gain=498.971 196.238 125.392 42.6101 36.585
threshold=105.70866666666669 0.043040293040293047 118.99400000000001 106.48200000000001 16.054500000000001
decision_type=2 2 2 2 2
left_child=-1 2 4 -3 -2
right_child=1 3 -4 -5 -6
leaf_value=0.92355186462402283 0.40105186700820905 -0.40484813849131274 -0.40355211973190308 -0.9378280957539874 0.018507881164550776
leaf_weight=5.0000000000000027 5.0000000000000018 2.9999999999999991 4.9999999999999991 3 5
leaf_count=5 5 3 5 3 5
internal_value=0.0257603 -0.188 0.00533588 -0.671338 0.20978
internal_weight=26 21 15 6 10
internal_count=26 21 15 6 10
is_linear=0
shrinkage=0.1


Tree=4
num_leaves=8
num_cat=0
split_feature=0 0 0 0 3 9 0
split_gain=827.947 150.838 59.7007 15.1737 6.43442 2.91342 1.27158
threshold=20.500000000000004 29.500000000000004 14.500000000000002 33.500000000000007 118.80050000000001 107.33400000000003 35.500000000000007
decision_type=2 2 2 2 2 2 2
left_child=2 4 5 -3 -2 -1 -5
right_child=1 3 -4 6 -6 -7 -8
leaf_value=-0.91813427607218356 0.22160482009251914 0.581718174616496 -0.38058115005493159 0.81112483342488584 0.014490952094395951 -0.77876858711242658 0.90319671630859344
leaf_weight=3.0000000000000018 2.9999999999999991 2.9999999999999982 5 3 3 3 3
leaf_count=3 3 3 5 3 3 3 3
internal_value=0.0231843 0.506427 -0.635783 0.765347 0.118048 -0.848451 0.857161
internal_weight=26 15 11 9 6 6 6
internal_count=26 15 11 9 6 6 6
is_linear=0
shrinkage=0.1


Tree=5
num_leaves=6
num_cat=0
split_feature=0 0 0 0 3
split_gain=770.228 125.423 45.5833 34.6456 0.685269
threshold=29.500000000000004 20.500000000000004 14.500000000000002 35.500000000000007 118.06950000000002
decision_type=2 2 2 2 2
left_child=1 2 -1 -2 -4
right_child=3 -3 4 -5 -6
leaf_value=-0.76892656326293851 0.62371836662292501 0.058110477328300485 -0.32630519866943353 1.0185665011405944 -0.39389560222625719
leaf_weight=5.0000000000000053 4.9999999999999982 4.9999999999999991 3 4 3
leaf_count=5 5 5 3 4 3
internal_value=0.059127 -0.357168 -0.54593 0.799206 -0.3601
internal_weight=25 16 11 9 6
internal_count=25 16 11 9 6
is_linear=0
shrinkage=0.1


Tree=6
num_leaves=7
num_cat=0
split_feature=9 8 2 3 3 9
split_gain=201.178 78.7566 127.072 81.0897 36.9623 23.274
threshold=105.70866666666669 16.868000000000013 2.5000000000000004 119.85600000000001 118.49900000000001 106.48200000000001
decision_type=2 2 2 2 2 2
left_child=-1 2 5 -3 -4 -2
right_child=1 3 4 -5 -6 -7
leaf_value=0.70319337844848573 -0.29367467959721866 0.60323465665181475 0.2941376969218254 -0.13201885918776191 -0.13575951009988782 -0.66213799715042099
leaf_weight=4.0000000000000027 3.0000000000000009 2.9999999999999991 4 3 4 4
leaf_count=4 3 3 4 3 4 4
internal_value=0.0532143 -0.0705912 -0.193071 0.235608 0.0791891 -0.504225
internal_weight=25 21 15 6 8 7
internal_count=25 21 15 6 8 7
is_linear=0
shrinkage=0.1


Tree=7
num_leaves=6
num_cat=0
split_feature=0 0 0 0 8
split_gain=543.543 89.2677 31.6735 23.1443 1.45019
threshold=29.500000000000004 20.500000000000004 14.500000000000002 35.500000000000007 16.677500000000013
decision_type=2 2 2 2 2
left_child=1 2 -1 -2 -4
right_child=3 -3 4 -5 -6
leaf_value=-0.64695005416870044 0.52616765499115004 0.048529864847660066 -0.25699942111968987 0.84888949394226065 -0.35532506306966138
leaf_weight=5.0000000000000053 4.9999999999999982 4.9999999999999991 3 4 3
leaf_count=5 5 5 3 4 3
internal_value=0.0478929 -0.301817 -0.461066 0.6696 -0.306162
internal_weight=25 16 11 9 6
internal_count=25 16 11 9 6
is_linear=0
shrinkage=0.1


Tree=8
num_leaves=7
num_cat=0
split_feature=0 0 0 0 3 9
split_gain=440.27 72.3068 25.6556 19.6876 8.31984 1.18115
threshold=29.500000000000004 20.500000000000004 14.500000000000002 33.500000000000007 116.93850000000002 106.24116666666667
decision_type=2 2 2 2 2 2
left_child=1 2 -1 -2 -5 -4
right_child=3 -3 5 4 -6 -7
leaf_value=-0.58225506305694508 0.39347387949625667 0.043676878511905673 -0.31991472244262686 0.58946681022644032 0.824978176752726 -0.23117731014887488
leaf_weight=5.0000000000000053 2.9999999999999982 4.9999999999999991 3 3 3 3
leaf_count=5 3 5 3 3 3 3
internal_value=0.0431036 -0.271635 -0.414959 0.60264 0.707222 -0.275546
internal_weight=25 16 11 9 6 6
internal_count=25 16 11 9 6 6
is_linear=0
shrinkage=0.1


Tree=9
num_leaves=7
num_cat=0
split_feature=0 0 0 7 7 8
split_gain=356.618 58.5685 20.781 17.7244 4.58074 1.09744
threshold=29.500000000000004 20.500000000000004 14.500000000000002 115.19900000000003 113.63850000000002 16.677500000000013
decision_type=2 2 2 2 2 2
left_child=1 2 -1 4 -2 -4
right_child=3 -3 5 -5 -6 -7
leaf_value=-0.5240295696258539 0.53052013715108248 0.039309191703796389 -0.2052238265673319 0.74083868662516261 0.35576816399892164 -0.29075900316238396
leaf_weight=5.0000000000000053 2.9999999999999982 4.9999999999999991 3 3 3 3
leaf_count=5 3 5 3 3 3 3
internal_value=0.0387932 -0.244472 -0.373463 0.542376 0.443144 -0.247991
internal_weight=25 16 11 9 6 6
internal_count=25 16 11 9 6 6
is_linear=0
shrinkage=0.1


Tree=10
num_leaves=7
num_cat=0
split_feature=0 0 0 9 0 0
split_gain=353.402 36.7094 30.615 7.15038 5.26656 4.58443
threshold=25.500000000000004 35.500000000000007 14.500000000000002 107.33400000000003 29.500000000000004 17.500000000000004
decision_type=2 2 2 2 2 2
left_child=2 4 3 -1 -2 -4
right_child=1 -3 5 -5 -6 -7
leaf_value=-0.54419482946395792 0.15966349641482042 0.6202323579788207 -0.28172810872395843 -0.35511308610439296 0.34704115390777579 -0.13032751654585201
leaf_weight=4.0000000000000053 2.9999999999999982 5 2.9999999999999982 4 3 6
leaf_count=4 3 5 3 4 3 6
internal_value=-0.0215395 0.420116 -0.307317 -0.449654 0.253352 -0.180794
internal_weight=28 11 17 8 6 9
internal_count=28 11 17 8 6 9
is_linear=0
shrinkage=0.1


Tree=11
num_leaves=7
num_cat=0
split_feature=0 0 0 9 0 0
split_gain=286.256 29.7346 24.7982 5.79181 4.26591 3.71339
threshold=25.500000000000004 35.500000000000007 14.500000000000002 107.33400000000003 29.500000000000004 17.500000000000004
decision_type=2 2 2 2 2 2
left_child=2 4 3 -1 -2 -4
right_child=1 -3 5 -5 -6 -7
leaf_value=-0.48977535367011948 0.14369714657465624 0.55820915222167966 -0.25355530579884855 -0.31960178315639487 0.31233702500661209 -0.11729476327697436
leaf_weight=4.0000000000000053 2.9999999999999982 5 2.9999999999999982 4 3 6
leaf_count=4 3 5 3 4 3 6
internal_value=-0.0193855 0.378104 -0.276585 -0.404689 0.228017 -0.162715
internal_weight=28 11 17 8 6 9
internal_count=28 11 17 8 6 9
is_linear=0
shrinkage=0.1


Tree=12
num_leaves=7
num_cat=0
split_feature=0 0 0 0 9 3
split_gain=233.898 35.6177 10.3511 6.79118 4.69136 1.26752
threshold=20.500000000000004 35.500000000000007 14.500000000000002 29.500000000000004 107.33400000000003 118.06950000000002
decision_type=2 2 2 2 2 2
left_child=2 3 4 -2 -1 -4
right_child=1 -3 5 -5 -6 -7
leaf_value=-0.44079779386520362 0.09078883565962316 0.50238821983337389 -0.14857169985771179 0.28110332489013662 -0.28764159828424452 -0.23455945849418636
leaf_weight=4.0000000000000018 4.9999999999999982 5 2.9999999999999991 3 4 4
leaf_count=4 5 5 3 3 4 4
internal_value=-0.017447 0.293015 -0.286514 0.162157 -0.36422 -0.197708
internal_weight=28 13 15 8 8 7
internal_count=28 13 15 8 8 7
is_linear=0
shrinkage=0.1


Tree=13
num_leaves=7
num_cat=0
split_feature=0 0 0 0 9 3
split_gain=189.458 28.8503 8.38443 5.50085 3.80001 1.0267
threshold=20.500000000000004 35.500000000000007 14.500000000000002 29.500000000000004 107.33400000000003 118.06950000000002
decision_type=2 2 2 2 2 2
left_child=2 3 4 -2 -1 -4
right_child=1 -3 5 -5 -6 -7
leaf_value=-0.39671802520751931 0.081709951683878915 0.45214941263198843 -0.13371452788511914 0.25299299558003735 -0.25887743234634397 -0.21110351532697674
leaf_weight=4.0000000000000018 4.9999999999999982 5 2.9999999999999991 3 4 4
leaf_count=4 5 5 3 3 4 4
internal_value=-0.0157023 0.263714 -0.257863 0.145941 -0.327798 -0.177937
internal_weight=28 13 15 8 8 7
internal_count=28 13 15 8 8 7
is_linear=0
shrinkage=0.1


Tree=14
num_leaves=8
num_cat=0
split_feature=0 0 0 3 9 0 9
split_gain=154.232 15.3251 12.8166 3.21119 2.3727 2.00506 0.167321
threshold=25.500000000000004 35.500000000000007 14.500000000000002 119.85600000000001 106.24116666666667 29.500000000000004 107.48100000000001
decision_type=2 2 2 2 2 2 2
left_child=2 5 3 -1 -4 -2 -6
right_child=1 -3 4 -5 6 -7 -8
leaf_value=-0.34409334182739215 0.11207755307356521 0.40693447351455686 -0.19367307424545296 -0.21322565376758573 -0.10145278175671893 0.22769370079040518 -0.068054061879714314
leaf_weight=5.0000000000000053 2.9999999999999982 5 2.9999999999999982 3 3 3 3
leaf_count=5 3 5 3 3 3 3 3
internal_value=-0.014132 0.277635 -0.202923 -0.295018 -0.12106 0.169886 -0.0847534
internal_weight=28 11 17 8 9 6 6
internal_count=28 11 17 8 9 6 6
is_linear=0
shrinkage=0.1


Tree=15
num_leaves=7
num_cat=0
split_feature=0 0 9 9 9 9
split_gain=95.7258 6.77044 6.13545 2.72176 2.22522 0.421517
threshold=25.500000000000004 14.500000000000002 106.48200000000001 107.33400000000003 107.48100000000001 105.1015
decision_type=2 2 2 2 2 2
left_child=1 3 5 -1 -3 -2
right_child=2 4 -4 -5 -6 -7
leaf_value=-0.33721228043238283 0.22743493715922047 -0.17018832802772521 0.11073295965790747 -0.20250854641199109 -0.061248655120531709 0.2770217210054397
leaf_weight=3.0000000000000027 2.9999999999999982 5 5 3 3 4
leaf_count=3 3 5 5 3 3 4
internal_value=-0.0119151 -0.189561 0.195338 -0.26986 -0.129336 0.25577
internal_weight=26 14 12 6 8 7
internal_count=26 14 12 6 8 7
is_linear=0
shrinkage=0.1


Tree=16
num_leaves=8
num_cat=0
split_feature=0 0 0 9 0 3 9
split_gain=77.8496 8.61121 3.89367 2.20463 1.26683 1.11392 0.341429
threshold=20.500000000000004 29.500000000000004 14.500000000000002 107.33400000000003 33.500000000000007 118.06950000000002 105.1015
decision_type=2 2 2 2 2 2 2
left_child=2 -2 3 -1 -3 -4 -6
right_child=1 4 5 -5 6 -7 -8
leaf_value=-0.3034910639127093 0.013720853906124831 0.15252386728922532 -0.087030948574344291 -0.18225769810378548 0.20469144582748411 -0.16764046289026735 0.24931956082582471
leaf_weight=3.0000000000000018 2.9999999999999991 2.9999999999999982 3 3 3 4 4
leaf_count=3 3 3 3 3 3 4 4
internal_value=-0.0107236 0.162314 -0.183762 -0.242874 0.206892 -0.133094 0.230193
internal_weight=26 13 13 6 10 7 7
internal_count=26 13 13 6 10 7 7
is_linear=0
shrinkage=0.1


Tree=17
num_leaves=8
num_cat=0
split_feature=0 0 0 9 9 3 9
split_gain=63.0582 6.97508 3.15387 1.78575 1.02613 0.902279 0.276557
threshold=20.500000000000004 29.500000000000004 14.500000000000002 107.33400000000003 106.80900000000001 118.06950000000002 105.1015
decision_type=2 2 2 2 2 2 2
left_child=2 -2 3 -1 6 -4 -3
right_child=1 4 5 -5 -6 -7 -8
leaf_value=-0.27314195632934551 0.012348768922189873 0.18422229290008552 -0.07832784975568452 -0.16403193126122151 0.13727147976557411 -0.1508764177560806 0.22438758984208104
leaf_weight=3.0000000000000018 2.9999999999999991 2.9999999999999982 3 3 3 4 4
leaf_count=3 3 3 3 3 3 4 4
internal_value=-0.00965127 0.146083 -0.165385 -0.218587 0.186203 -0.119784 0.207174
internal_weight=26 13 13 6 10 7 7
internal_count=26 13 13 6 10 7 7
is_linear=0
shrinkage=0.1


Tree=18
num_leaves=7
num_cat=0
split_feature=0 0 2 0 3 8
split_gain=51.0771 5.64982 2.96387 3.19478 0.875213 1.12246
threshold=20.500000000000004 29.500000000000004 2.5000000000000004 11.500000000000002 118.129 15.327999999999998
decision_type=2 2 2 2 2 2
left_child=2 -2 3 -1 5 -3
right_child=1 4 -4 -5 -6 -7
leaf_value=-0.19268165826797468 0.011113891874750455 0.19445430040359504 -0.20924421966075901 -0.062148743271827692 0.21277316808700558 0.11353653743863104
leaf_weight=3.0000000000000018 2.9999999999999991 2.9999999999999982 4.9999999999999991 5 3 4
leaf_count=3 3 3 5 5 3 4
internal_value=-0.00868614 0.131475 -0.148847 -0.111099 0.167583 0.148216
internal_weight=26 13 13 8 10 7
internal_count=26 13 13 8 10 7
is_linear=0
shrinkage=0.1


Tree=19
num_leaves=7
num_cat=0
split_feature=0 9 3 9 0 3
split_gain=41.3889 3.43205 4.25608 2.92918 0.810106 0.239647
threshold=25.500000000000004 107.48100000000001 118.06950000000002 106.48200000000001 11.500000000000002 116.12100000000002
decision_type=2 2 2 2 2 2
left_child=1 2 -1 5 -4 -2
right_child=3 -3 4 -5 -6 -7
leaf_value=-0.064280191063880873 0.14885212977727258 -0.058200259581208225 -0.17341349522272742 0.070002940297126767 -0.24690298239390052 0.18624114459380503
leaf_weight=3.0000000000000018 2.9999999999999982 4.9999999999999991 3 5 3 4
leaf_count=3 3 5 3 5 3 4
internal_value=-0.00781752 -0.124628 -0.161532 0.128461 -0.210158 0.170217
internal_weight=26 14 9 12 6 7
internal_count=26 14 9 12 6 7
is_linear=0
shrinkage=0.1


Tree=20
num_leaves=7
num_cat=0
split_feature=0 3 0 3 8 8
split_gain=38.6476 10.7467 3.98136 3.82189 2.03111 0.774726
threshold=25.500000000000004 118.129 20.500000000000004 118.99400000000001 16.054500000000001 15.327999999999998
decision_type=2 2 2 2 2 2
left_child=2 5 3 4 -1 -2
right_child=1 -3 -4 -5 -6 -7
leaf_value=-0.08328333199024196 0.14644407093524936 0.3387501279513041 0.032389221464594206 -0.0013189117113749187 -0.18405802249908443 0.087399450689554195
leaf_weight=4.0000000000000018 4.9999999999999982 2.9999999999999991 2.9999999999999991 2.9999999999999991 4 4
leaf_count=4 5 3 3 3 4 4
internal_value=0.0431505 0.174839 -0.0697253 -0.0975747 -0.133671 0.120202
internal_weight=26 12 14 11 8 9
internal_count=26 12 14 11 8 9
is_linear=0
shrinkage=0.1


Tree=21
num_leaves=8
num_cat=0
split_feature=0 3 0 3 3 3 0
split_gain=31.3045 8.70486 3.2249 3.09573 1.79019 0.398595 2.05393
threshold=25.500000000000004 118.129 20.500000000000004 118.99400000000001 118.06950000000002 116.93850000000002 35.500000000000007
decision_type=2 2 2 2 2 2 2
left_child=2 5 3 4 -1 6 -2
right_child=1 -3 -4 -5 -6 -7 -8
leaf_value=-0.072998922318220097 0.064554466803868629 0.30487512449423471 0.029150299324343605 -0.0011870195468266806 -0.16760829240083691 0.078419989347457864 0.18157099088033035
leaf_weight=4.0000000000000018 2.9999999999999982 2.9999999999999991 2.9999999999999991 2.9999999999999991 4 3 3
leaf_count=4 3 3 3 3 4 3 3
internal_value=0.0388355 0.157355 -0.0627528 -0.0878173 -0.120304 0.108182 0.123063
internal_weight=26 12 14 11 8 9 6
internal_count=26 12 14 11 8 9 6
is_linear=0
shrinkage=0.1


Tree=22
num_leaves=7
num_cat=0
split_feature=0 0 0 9 2 3
split_gain=25.3567 7.61133 2.61217 2.6912 3.83287 0.306732
threshold=25.500000000000004 35.500000000000007 20.500000000000004 107.48100000000001 2.5000000000000004 118.06950000000002
decision_type=2 2 2 2 2 2
left_child=2 5 3 4 -1 -2
right_child=1 -3 -4 -5 -6 -7
leaf_value=-0.055709227323532076 0.09243870042264464 0.23585277795791623 0.026235269010066987 0.001736469070116679 -0.19868472417195635 0.050138943394025151
leaf_weight=5.0000000000000018 3.9999999999999982 5 2.9999999999999991 2.9999999999999991 3 3
leaf_count=5 4 5 3 3 3 3
internal_value=0.0349519 0.14162 -0.0564775 -0.0790355 -0.109325 0.0743102
internal_weight=26 12 14 11 8 7
internal_count=26 12 14 11 8 7
is_linear=0
shrinkage=0.1


Tree=23
num_leaves=7
num_cat=0
split_feature=0 3 0 8 9 8
split_gain=20.5389 7.36857 2.20298 1.72721 1.13857 0.907292
threshold=25.500000000000004 118.129 17.500000000000004 16.868000000000013 107.08416666666669 15.327999999999998
decision_type=2 2 2 2 2 2
left_child=2 5 4 -4 -1 -2
right_child=1 -3 3 -5 -6 -7
leaf_value=-0.12542497031390659 0.11061442568898204 0.26318325151999794 0.031856773793697356 -0.068519515295823397 -0.043928423523902888 0.046717524528503411
leaf_weight=4.0000000000000018 4.9999999999999982 2.9999999999999991 4 3 3 4
leaf_count=4 5 3 4 3 3 4
internal_value=0.0314567 0.127458 -0.0508298 -0.0111616 -0.0904979 0.0822158
internal_weight=26 12 14 7 7 9
internal_count=26 12 14 7 7 9
is_linear=0
shrinkage=0.1


Tree=24
num_leaves=7
num_cat=0
split_feature=0 0 3 3 3 3
split_gain=18.6729 6.38593 2.19366 1.12595 1.00117 0.403286
threshold=35.500000000000007 20.500000000000004 118.99400000000001 118.06950000000002 118.80050000000001 117.373
decision_type=2 2 2 2 2 2
left_child=1 2 3 -1 5 -3
right_child=-2 4 -4 -5 -6 -7
leaf_value=-0.055449697375297459 0.20198850214481354 0.037793706854184483 0.0073054114977518722 -0.13048146208748221 -0.0035375462534526976 0.08629631847143171
leaf_weight=4.0000000000000053 4.9999999999999991 2.9999999999999982 2.9999999999999991 4 3 4
leaf_count=4 5 3 3 4 3 4
internal_value=0.0283111 -0.0130407 -0.0656189 -0.0929656 0.0447954 0.0655095
internal_weight=26 21 11 8 10 7
internal_count=26 21 11 8 10 7
is_linear=0
shrinkage=0.1


Tree=25
num_leaves=7
num_cat=0
split_feature=0 8 2 8 7 8
split_gain=16.0347 9.18466 3.40761 1.33461 0.407412 0.335005
threshold=17.500000000000004 16.868000000000013 2.5000000000000004 15.688000000000004 113.63850000000002 16.366000000000003
decision_type=2 2 2 2 2 2
left_child=2 3 -1 4 -2 -5
right_child=1 -3 -4 5 -6 -7
leaf_value=-0.04995048969984052 0.03401433601975442 0.21957926458368698 -0.17378207147121427 -0.02946065440773963 0.086130355795224489 0.014745600149035452
leaf_weight=5.0000000000000018 2.9999999999999982 2.9999999999999991 4 3 3 4
leaf_count=5 3 3 4 3 3 4
internal_value=0.00179566 0.0618608 -0.104987 0.0254642 0.0600723 -0.00419994
internal_weight=25 16 9 13 6 7
internal_count=25 16 9 13 6 7
is_linear=0
shrinkage=0.1


Tree=26
num_leaves=6
num_cat=0
split_feature=0 0 2 3 3
split_gain=12.9881 6.60978 2.76017 1.80659 0.302898
threshold=17.500000000000004 35.500000000000007 2.5000000000000004 118.80050000000001 117.373
decision_type=2 2 2 2 2
left_child=2 3 -1 4 -2
right_child=1 -3 -4 -5 -6
leaf_value=-0.044955438375473 0.034811615943908698 0.18947110275427503 -0.15640386193990705 -0.022355374842882154 0.07372804284095763
leaf_weight=5.0000000000000018 3.9999999999999982 2.9999999999999991 4 5 4
leaf_count=5 4 3 4 5 4
internal_value=0.0016161 0.0556747 -0.0944881 0.0247986 0.0542698
internal_weight=25 16 9 13 8
internal_count=25 16 9 13 8
is_linear=0
shrinkage=0.1


Tree=27
num_leaves=6
num_cat=0
split_feature=0 0 2 3 3
split_gain=10.5204 5.35392 2.23574 1.46334 0.245347
threshold=17.500000000000004 35.500000000000007 2.5000000000000004 118.80050000000001 117.373
decision_type=2 2 2 2 2
left_child=2 3 -1 4 -2
right_child=1 -3 -4 -5 -6
leaf_value=-0.040459895133972149 0.031330454349517832 0.17052400292207798 -0.14076347872614858 -0.020119838267564773 0.066355241090059275
leaf_weight=5.0000000000000018 3.9999999999999982 2.9999999999999991 4 5 4
leaf_count=5 4 3 4 5 4
internal_value=0.00145449 0.0501072 -0.0850393 0.0223187 0.0488428
internal_weight=25 16 9 13 8
internal_count=25 16 9 13 8
is_linear=0
shrinkage=0.1


Tree=28
num_leaves=6
num_cat=0
split_feature=0 0 2 3 3
split_gain=8.52152 4.33668 1.81095 1.1853 0.198731
threshold=17.500000000000004 35.500000000000007 2.5000000000000004 118.80050000000001 117.373
decision_type=2 2 2 2 2
left_child=2 3 -1 4 -2
right_child=1 -3 -4 -5 -6
leaf_value=-0.036413907408714273 0.02819740809500218 0.15347159852584202 -0.12668712884187697 -0.018107853308320043 0.059719717502593986
leaf_weight=5.0000000000000018 3.9999999999999982 2.9999999999999991 4 5 4
leaf_count=5 4 3 4 5 4
internal_value=0.00130904 0.0450965 -0.0765353 0.0200869 0.0439586
internal_weight=25 16 9 13 8
internal_count=25 16 9 13 8
is_linear=0
shrinkage=0.1


Tree=29
num_leaves=6
num_cat=0
split_feature=8 0 8 0 8
split_gain=8.8981 4.33899 1.32352 0.779853 0.147054
threshold=17.480500000000003 14.500000000000002 15.049499999999989 25.500000000000004 16.054500000000001
decision_type=2 2 2 2 2
left_child=1 -1 -3 -4 -5
right_child=-2 2 3 4 -6
leaf_value=-0.10617232978343949 0.13787492923438549 0.0503665816038847 0.0094384511311848968 -0.025891598562399538 -0.057202303285400061
leaf_weight=5.0000000000000062 3.9999999999999991 3.9999999999999991 5.9999999999999982 3 3
leaf_count=5 4 4 6 3 3
internal_value=0.00117814 -0.0248593 0.000550958 -0.0160542 -0.041547
internal_weight=25 21 16 12 6
internal_count=25 21 16 12 6
is_linear=0
shrinkage=0.1


Tree=30
num_leaves=6
num_cat=0
split_feature=3 9 9 8 9
split_gain=1.98069 1.93543 1.55696 1.68086 1.90384
threshold=116.93850000000002 106.24116666666667 109.71000000000002 16.677500000000013 107.08416666666669
decision_type=2 2 2 2 2
left_child=-1 -2 3 4 -3
right_child=1 2 -4 -5 -6
leaf_value=0.040802677869796723 -0.091815318912267616 -0.057714701592922184 -0.06138731479644776 0.069854915638764711 0.03484480110928416
leaf_weight=5.0000000000000027 4.0000000000000027 5.0000000000000018 4.9999999999999991 2.9999999999999991 4
leaf_count=5 4 5 5 3 4
internal_value=-0.0157621 -0.0292299 -0.0145039 0.00503087 -0.0165771
internal_weight=26 21 17 12 9
internal_count=26 21 17 12 9
is_linear=0
shrinkage=0.1


Tree=31
num_leaves=7
num_cat=0
split_feature=0 3 3 3 9 9
split_gain=5.34399 0.706537 1.15869 0.296727 0.482525 0.226299
threshold=20.500000000000004 118.80050000000001 117.373 118.06950000000002 107.08416666666669 105.1015
decision_type=2 2 2 2 2 2
left_child=3 2 5 -1 -5 -2
right_child=1 -3 -4 4 -6 -7
leaf_value=-0.040916308015584907 0.02931241790453594 -0.015229530213400722 0.075072333216667175 -0.10597966412703193 -0.055250334143638606 -0.0095290193955103533
leaf_weight=4.0000000000000027 2.9999999999999982 2.9999999999999991 5 3 5 3
leaf_count=4 3 3 5 3 5 3
internal_value=-0.0141859 0.0277874 0.0395193 -0.0631547 -0.0742738 0.0098917
internal_weight=26 14 11 12 8 6
internal_count=26 14 11 12 8 6
is_linear=0
shrinkage=0.1


Tree=32
num_leaves=7
num_cat=0
split_feature=0 9 3 3 9 9
split_gain=4.32863 0.589631 1.26895 0.240348 0.390845 0.183302
threshold=20.500000000000004 107.33400000000003 117.373 118.06950000000002 107.08416666666669 105.1015
decision_type=2 2 2 2 2 2
left_child=3 2 5 -1 -5 -2
right_child=1 -3 -4 4 -6 -7
leaf_value=-0.03682467713952061 0.0263811747233073 -0.0074399660108610995 0.08161640688776968 -0.095381697018941225 -0.049725301861762994 -0.0085761199394861834
leaf_weight=4.0000000000000027 2.9999999999999982 3.9999999999999991 4 3 5 3
leaf_count=4 3 4 4 3 5 3
internal_value=-0.0127673 0.0250086 0.0379881 -0.0568392 -0.0668465 0.00890253
internal_weight=26 14 10 12 8 6
internal_count=26 14 10 12 8 6
is_linear=0
shrinkage=0.1


Tree=33
num_leaves=7
num_cat=0
split_feature=0 2 3 3 3 9
split_gain=3.50619 3.38784 0.675028 0.480383 0.77108 0.148475
threshold=20.500000000000004 2.5000000000000004 118.129 118.80050000000001 117.373 105.1015
decision_type=2 2 2 2 2 2
left_child=1 2 -1 4 5 -2
right_child=3 -3 -4 -5 -6 -7
leaf_value=-0.033142209798097587 0.023743057250976571 -0.11402404010295866 0.029608592391014089 -0.012962580720583598 0.061184586045565072 -0.0077185094356536843
leaf_weight=4.0000000000000018 2.9999999999999982 5 3 2.9999999999999991 5 3
leaf_count=4 3 5 3 3 5 3
internal_value=-0.0114906 -0.0511553 -0.00624901 0.0225078 0.0321815 0.00801227
internal_weight=26 12 7 14 11 6
internal_count=26 12 7 14 11 6
is_linear=0
shrinkage=0.1


Tree=34
num_leaves=7
num_cat=0
split_feature=0 2 8 8 8 8
split_gain=2.84001 2.74415 0.885361 0.735097 0.524239 0.830307
threshold=20.500000000000004 2.5000000000000004 15.327999999999998 16.054500000000001 16.677500000000013 16.054500000000001
decision_type=2 2 2 2 2 2
left_child=1 3 -2 -1 5 -4
right_child=2 -3 4 -5 -6 -7
leaf_value=-0.03368839994072912 0.06001881361007691 -0.10262163581326603 0.022857609018683441 0.031794946392377212 0.032394347712397568 -0.051542508105436952
leaf_weight=4.0000000000000018 3.9999999999999991 5 2.9999999999999982 3 4 3
leaf_count=4 4 5 3 3 4 3
internal_value=-0.0103415 -0.0460397 0.020257 -0.00562411 0.00435227 -0.0143424
internal_weight=26 12 14 7 10 6
internal_count=26 12 14 7 10 6
is_linear=0
shrinkage=0.1


Tree=35
num_leaves=8
num_cat=0
split_feature=8 3 8 3 3 3 3
split_gain=7.50162 2.53057 0.764295 2.49952 0.588203 0.305259 0.119469
threshold=17.480500000000003 116.93850000000002 16.677500000000013 118.49900000000001 118.129 117.373 118.49900000000001
decision_type=2 2 2 2 2 2 2
left_child=1 -1 4 -4 5 -3 -6
right_child=-2 2 3 -5 6 -7 -8
leaf_value=0.071278350551922942 0.13401042297482491 -0.038897919654846153 -0.061895469824473061 0.067191568513711275 -0.041985447456439326 0.0062137521803379038 -0.067227593809366215
leaf_weight=3.0000000000000062 3.9999999999999991 3.0000000000000027 2.9999999999999991 3 3 3 5
leaf_count=3 4 3 3 3 3 3 5
internal_value=0.00761549 -0.0143662 -0.0272129 0.00264805 -0.0400105 -0.0163421 -0.0577618
internal_weight=27 23 20 6 14 6 8
internal_count=27 23 20 6 14 6 8
is_linear=0
shrinkage=0.1


Tree=36
num_leaves=9
num_cat=0
split_feature=0 3 0 8 8 0 8 3
split_gain=11.0177 2.32216 1.45062 1.53282 0.349253 0.240425 0.252625 0.716752
threshold=33.500000000000007 116.93850000000002 14.500000000000002 16.868000000000013 16.054500000000001 17.500000000000004 16.054500000000001 118.06950000000002
decision_type=2 2 2 2 2 2 2 2
left_child=2 -2 4 5 -1 -4 7 -7
right_child=1 -3 3 -5 -6 6 -8 -9
leaf_value=-0.092974052826563292 0.064150516688823697 0.18857343196868892 -0.019201822578907013 -0.074602439006169641 -0.044721023241678863 0.036202935377756769 0.037180581192175537 -0.032922662049531926
leaf_weight=3.0000000000000062 2.9999999999999991 3 2.9999999999999991 2.9999999999999991 3 2.9999999999999982 3 3
leaf_count=3 3 3 3 3 3 3 3 3
internal_value=0.00685394 0.126362 -0.0272912 -0.0106687 -0.0688475 0.00531476 0.013487 0.00164014
internal_weight=27 6 21 15 6 12 9 6
internal_count=27 6 21 15 6 12 9 6
is_linear=0
shrinkage=0.1


Tree=37
num_leaves=8
num_cat=0
split_feature=0 3 0 3 3 0 3
split_gain=8.92432 1.88095 1.175 0.387162 0.517052 0.895759 0.213326
threshold=33.500000000000007 116.93850000000002 14.500000000000002 118.06950000000002 118.99400000000001 29.500000000000004 119.85600000000001
decision_type=2 2 2 2 2 2 2
left_child=2 -2 6 -4 5 -5 -1
right_child=1 -3 3 4 -6 -7 -8
leaf_value=-0.080818635225295837 0.057735463231801988 0.16971608002980546 0.01704019382596016 -0.066658479347825067 0.0093908850103616697 0.0056274694701035806 -0.043106933434804269
leaf_weight=3.0000000000000062 2.9999999999999991 3 3.9999999999999991 3.9999999999999982 4 3 3
leaf_count=3 3 3 4 4 4 3 3
internal_value=0.00616855 0.113726 -0.0245621 -0.00960181 -0.0192898 -0.0356788 -0.0619628
internal_weight=27 6 21 15 11 7 6
internal_count=27 6 21 15 11 7 6
is_linear=0
shrinkage=0.1


Tree=38
num_leaves=8
num_cat=0
split_feature=0 3 0 8 2 2 3
split_gain=7.2287 1.52357 0.951752 1.2143 0.721079 0.306948 0.224423
threshold=33.500000000000007 116.93850000000002 14.500000000000002 16.868000000000013 2.5000000000000004 2.5000000000000004 118.129
decision_type=2 2 2 2 2 2 2
left_child=2 -2 4 5 -1 -4 -7
right_child=1 -3 3 -5 -6 6 -8
leaf_value=-0.021099545558293614 0.051961916188398995 0.15274447600046792 -0.017033586651086816 -0.065546302497386938 -0.090433466434478749 0.038516478240489954 0.0039198692142963405
leaf_weight=3.0000000000000062 2.9999999999999991 3 3.9999999999999973 2.9999999999999991 3 3 5
leaf_count=3 3 3 4 3 3 3 5
internal_value=0.00555169 0.102353 -0.0221059 -0.00864163 -0.0557665 0.00558454 0.0168936
internal_weight=27 6 21 15 6 12 8
internal_count=27 6 21 15 6 12 8
is_linear=0
shrinkage=0.1


Tree=39
num_leaves=7
num_cat=0
split_feature=8 3 9 8 8 3
split_gain=6.02623 1.30365 0.955865 1.50798 0.411541 0.0941235
threshold=17.480500000000003 116.93850000000002 106.24116666666667 16.677500000000013 15.049499999999989 118.49900000000001
decision_type=2 2 2 2 2 2
left_child=1 -1 -3 4 -4 -6
right_child=-2 2 3 -5 5 -7
leaf_value=0.046765725842366511 0.11828220114111901 -0.067649320513009967 0.0013559460639953613 0.040178758278489116 -0.029978119395673283 -0.050558594465255728
leaf_weight=3.0000000000000062 3.9999999999999991 4.0000000000000027 2.9999999999999991 3.9999999999999991 3.9999999999999982 5
leaf_count=3 4 4 3 4 4 5
internal_value=0.00499652 -0.0147053 -0.023926 -0.0129952 -0.0307198 -0.0414117
internal_weight=27 23 20 16 12 9
internal_count=27 23 20 16 12 9
is_linear=0
shrinkage=0.1


Tree=40
num_leaves=7
num_cat=0
split_feature=8 0 9 9 8 0
split_gain=5.65285 1.69881 1.62279 1.38891 0.493129 0.444966
threshold=17.480500000000003 14.500000000000002 106.24116666666667 107.08416666666669 16.677500000000013 25.500000000000004
decision_type=2 2 2 2 2 2
left_child=1 3 -3 -1 5 -4
right_child=-2 2 4 -5 -6 -7
leaf_value=-0.017077406247456829 0.12652773161729178 -0.04874661207199097 -0.022623298565546679 -0.11330309112866717 0.054948066174983969 0.028324053250253195
leaf_weight=3.0000000000000062 2.9999999999999991 4.9999999999999991 2.9999999999999982 3 3 4
leaf_count=3 3 5 3 3 3 4
internal_value=-0.00187587 -0.0202192 -0.00223084 -0.0651902 0.0210271 0.00648947
internal_weight=24 21 15 6 10 7
internal_count=24 21 15 6 10 7
is_linear=0
shrinkage=0.1


Tree=41
num_leaves=6
num_cat=0
split_feature=8 8 8 9 9
split_gain=4.57881 1.16681 3.03033 0.526623 0.0967021
threshold=17.480500000000003 16.366000000000003 16.677500000000013 107.33400000000003 106.80900000000001
decision_type=2 2 2 2 2
left_child=1 3 -3 4 -1
right_child=-2 2 -4 -5 -6
leaf_value=0.0013372637331485729 0.11387495696544647 -0.12750668923060102 0.0054478164762258516 -0.027550515532493592 0.022197739928960798
leaf_weight=4.0000000000000053 2.9999999999999991 2.9999999999999991 4 4.9999999999999991 5
leaf_count=4 3 3 4 5 5
internal_value=-0.00168828 -0.0181973 -0.0515327 -0.00152963 0.0129264
internal_weight=24 21 7 14 9
internal_count=24 21 7 14 9
is_linear=0
shrinkage=0.1


Tree=42
num_leaves=7
num_cat=0
split_feature=0 3 8 0 3 2
split_gain=4.56858 7.26973 1.16873 1.47265 0.862867 0.175024
threshold=25.500000000000004 118.49900000000001 16.868000000000013 14.500000000000002 117.373 2.5000000000000004
decision_type=2 2 2 2 2 2
left_child=2 4 3 -1 -2 -5
right_child=1 -3 -4 5 -6 -7
leaf_value=-0.056389973064263632 -0.04666690230369569 0.18190871725479757 -0.091141613324483242 -0.0034063438574473055 0.029177994777758912 0.030752468357483537
leaf_weight=6.0000000000000018 2.9999999999999982 3 2.9999999999999991 3 3 3
leaf_count=6 3 3 3 3 3 3
internal_value=-0.00151945 0.0548066 -0.0353151 -0.0213585 -0.00874445 0.0136731
internal_weight=24 9 15 12 6 6
internal_count=24 9 15 12 6 6
is_linear=0
shrinkage=0.1


Tree=43
num_leaves=8
num_cat=0
split_feature=0 7 8 0 9 0 2
split_gain=3.70055 5.88848 0.946668 1.19285 0.935955 0.698923 0.141769
threshold=25.500000000000004 115.19900000000003 16.868000000000013 14.500000000000002 107.08416666666669 35.500000000000007 2.5000000000000004
decision_type=2 2 2 2 2 2 2
left_child=2 5 3 4 -1 -2 -5
right_child=1 -3 -4 6 -6 -7 -8
leaf_value=-0.011255091428756706 0.026260195920864749 0.16371785067021843 -0.082027451197306311 -0.0030657092730204255 -0.090246859192848194 -0.042000213265419001 0.027677223086357113
leaf_weight=3.0000000000000018 2.9999999999999982 3 2.9999999999999991 3 3 3 3
leaf_count=3 3 3 3 3 3 3 3
internal_value=-0.00136751 0.0493259 -0.0317836 -0.0192226 -0.050751 -0.00787001 0.0123058
internal_weight=24 9 15 12 6 6 6
internal_count=24 9 15 12 6 6 6
is_linear=0
shrinkage=0.1


Tree=44
num_leaves=7
num_cat=0
split_feature=8 8 8 9 3 3
split_gain=3.68996 0.934528 1.77053 0.519768 0.124154 0.0840567
threshold=17.480500000000003 16.366000000000003 16.677500000000013 107.48100000000001 118.06950000000002 118.49900000000001
decision_type=2 2 2 2 2 2
left_child=1 3 -3 4 -1 -6
right_child=-2 2 -4 -5 5 -7
leaf_value=0.02056599140167234 0.10251117249329884 -0.10395697951316835 -0.0023298874497413632 -0.038030136624972032 -0.012606277068456011 0.01106602350870768
leaf_weight=5.0000000000000053 2.9999999999999991 2.9999999999999991 4 2.9999999999999991 3 3
leaf_count=5 3 3 4 3 3 3
internal_value=-0.00123076 -0.016051 -0.0458844 -0.00113437 0.00892811 -0.000770127
internal_weight=24 21 7 14 11 6
internal_count=24 21 7 14 11 6
is_linear=0
shrinkage=0.1


Tree=45
num_leaves=5
num_cat=0
split_feature=3 9 0 9
split_gain=0.682477 1.16097 0.655371 0.350566
threshold=116.93850000000002 107.08416666666669 14.500000000000002 106.24116666666667
decision_type=2 2 2 2
left_child=-1 3 -3 -2
right_child=1 2 -4 -5
leaf_value=0.014760850183665741 -0.08242080012957248 -0.035640025883913046 0.016616212079922355 -0.039180915802717209
leaf_weight=5.0000000000000027 3.0000000000000018 3.9999999999999982 6 5
leaf_count=5 3 4 6 5
internal_value=-0.0179229 -0.0270017 -0.00428628 -0.0553959
internal_weight=23 18 10 8
internal_count=23 18 10 8
is_linear=0
shrinkage=0.1


Tree=46
num_leaves=6
num_cat=0
split_feature=0 8 9 9 9
split_gain=0.565309 0.876392 0.573263 0.366422 0.342088
threshold=20.500000000000004 16.054500000000001 107.08416666666669 109.71000000000002 106.48200000000001
decision_type=2 2 2 2 2
left_child=2 4 -1 -4 -2
right_child=1 -3 3 -5 -6
leaf_value=-0.057002013772726026 0.049888769544971505 -0.030676151812076564 0.013750331103801725 -0.032482353597879404 0.0021333143115043634
leaf_weight=5.0000000000000018 2.9999999999999982 5 3 4 3
leaf_count=5 3 5 3 4 3
internal_value=-0.0161306 0.000244136 -0.0311407 -0.0126683 0.026011
internal_weight=23 11 12 7 6
internal_count=23 11 12 7 6
is_linear=0
shrinkage=0.1


Tree=47
num_leaves=6
num_cat=0
split_feature=0 9 3 9 3
split_gain=0.459905 0.454584 0.773901 0.435745 0.0245928
threshold=14.500000000000002 107.08416666666669 116.93850000000002 106.24116666666667 119.85600000000001
decision_type=2 2 2 2 2
left_child=4 2 -2 -4 -1
right_child=1 -3 3 -5 -6
leaf_value=-0.044721988340218816 0.010862294957041736 0.016024601956208549 -0.069356046617031084 -0.015458283821741737 -0.031917614738146458
leaf_weight=3.0000000000000027 5.0000000000000018 5.9999999999999991 3 3 3
leaf_count=3 5 6 3 3 3
internal_value=-0.0145175 -0.0061167 -0.0181938 -0.0424072 -0.0383198
internal_weight=23 17 11 6 6
internal_count=23 17 11 6 6
is_linear=0
shrinkage=0.1


Tree=48
num_leaves=7
num_cat=0
split_feature=0 8 9 8 8 3
split_gain=0.372523 0.413473 0.257314 0.266666 0.0713378 0.0199202
threshold=14.500000000000002 15.327999999999998 106.24116666666667 16.677500000000013 14.803500000000001 119.85600000000001
decision_type=2 2 2 2 2 2
left_child=5 4 -3 -4 -2 -1
right_child=1 2 3 -5 -6 -7
leaf_value=-0.040249788264433498 0.004707416395346318 -0.033777361065149315 -0.024142981817324952 0.018020667135715481 0.026515331367651614 -0.028725851575533541
leaf_weight=3.0000000000000027 3.0000000000000027 4.9999999999999982 3 3 3 3
leaf_count=3 3 5 3 3 3 3
internal_value=-0.0130658 -0.00550503 -0.0170231 -0.00306116 0.0156114 -0.0344878
internal_weight=23 17 11 6 6 6
internal_count=23 17 11 6 6 6
is_linear=0
shrinkage=0.1


Tree=49
num_leaves=6
num_cat=0
split_feature=3 9 9 9 8
split_gain=0.313956 0.616235 0.378791 0.200523 0.0305028
threshold=116.93850000000002 107.08416666666669 109.71000000000002 106.24116666666667 16.054500000000001
decision_type=2 2 2 2 2
left_child=-1 3 4 -2 -3
right_child=1 2 -4 -5 -6
leaf_value=0.010408557653427117 -0.059042703608671782 0.021653685967127492 -0.025204158574342723 -0.026340173929929728 0.0073935292661190012
leaf_weight=5.0000000000000027 3.0000000000000018 2.9999999999999982 4 5 3
leaf_count=5 3 3 4 5 3
internal_value=-0.0117592 -0.0179169 -0.0013675 -0.0386036 0.0145236
internal_weight=23 18 10 8 6
internal_count=23 18 10 8 6
is_linear=0
shrinkage=0.1


Tree=50
num_leaves=6
num_cat=0
split_feature=3 0 8 8 0
split_gain=1.16053 0.424709 0.226199 0.506665 0.0849455
threshold=118.80050000000001 33.500000000000007 15.327999999999998 16.677500000000013 20.500000000000004
decision_type=2 2 2 2 2
left_child=1 2 -1 -4 -2
right_child=4 -3 3 -5 -6
leaf_value=-0.011552932262420639 -0.049154190222422289 0.042394546791911125 0.035054180920124044 -0.016928615669409432 -0.025357058644294734
leaf_weight=5.0000000000000062 2.9999999999999991 3.9999999999999991 5 3 3
leaf_count=5 3 4 5 3 3
internal_value=0.000554993 0.0138999 0.00513234 0.0155606 -0.0372556
internal_weight=23 17 13 8 6
internal_count=23 17 13 8 6
is_linear=0
shrinkage=0.1


Tree=51
num_leaves=6
num_cat=0
split_feature=3 3 3 9 0
split_gain=0.946359 0.522 0.435955 0.758559 0.256858
threshold=118.99400000000001 118.49900000000001 118.06950000000002 106.24116666666667 20.500000000000004
decision_type=2 2 2 2 2
left_child=1 2 3 -1 -4
right_child=-2 -3 4 -5 -6
leaf_value=0.04346106559038157 -0.037987615019083022 0.049269206076860431 -0.037995418906211859 -0.014964222162961957 0.0033855415880680081
leaf_weight=5.0000000000000053 4.9999999999999991 2.9999999999999991 2.9999999999999991 4 3
leaf_count=5 5 3 3 4 3
internal_value=0.000499493 0.0111904 0.00357459 0.0174943 -0.0173049
internal_weight=23 18 15 9 6
internal_count=23 18 15 9 6
is_linear=0
shrinkage=0.1


Tree=52
num_leaves=7
num_cat=0
split_feature=3 0 9 9 9 0
split_gain=0.812399 0.254296 0.404564 0.647224 0.237668 0.0513867
threshold=118.80050000000001 33.500000000000007 106.80900000000001 107.33400000000003 106.24116666666667 20.500000000000004
decision_type=2 2 2 2 2 2
left_child=1 2 4 -4 -1 -2
right_child=5 -3 3 -5 -6 -7
leaf_value=0.0097750201821327001 -0.0404400110244751 0.033663782477378848 0.056728699554999651 -0.0089586619287729246 -0.027459324896335596 -0.0219311524182558
leaf_weight=3.0000000000000053 2.9999999999999991 3.9999999999999991 3 3 4 3
leaf_count=3 3 4 3 3 4 3
internal_value=0.000449544 0.0116149 0.00483061 0.023885 -0.0115017 -0.0311856
internal_weight=23 17 13 6 7 6
internal_count=23 17 13 6 7 6
is_linear=0
shrinkage=0.1


Tree=53
num_leaves=7
num_cat=0
split_feature=8 9 9 9 0 3
split_gain=0.69255 1.11292 0.661004 0.629484 0.476741 0.302268
threshold=16.366000000000003 106.24116666666667 106.80900000000001 107.33400000000003 17.500000000000004 118.49900000000001
decision_type=2 2 2 2 2 2
left_child=1 -1 -3 -4 -2 -6
right_child=4 2 3 -5 5 -7
leaf_value=0.069043251872062603 -0.052732886622349442 -0.039674798150857303 0.051055828233559912 -0.0095411221031099537 -0.02908107340335845 0.012909770710393785
leaf_weight=3.0000000000000027 2.9999999999999982 2.9999999999999982 3 4 3 4
leaf_count=3 3 3 3 4 3 4
internal_value=0.00040459 0.0156237 -0.00040214 0.016429 -0.0193803 -0.00508631
internal_weight=23 13 10 7 10 7
internal_count=23 13 10 7 10 7
is_linear=0
shrinkage=0.1


Tree=54
num_leaves=7
num_cat=0
split_feature=3 8 9 9 9 0
split_gain=0.598805 0.165467 0.839812 0.607821 0.422287 0.0254678
threshold=118.80050000000001 16.366000000000003 106.24116666666667 106.80900000000001 107.33400000000003 20.500000000000004
decision_type=2 2 2 2 2 2
left_child=1 2 -1 -4 -5 -2
right_child=5 -3 3 4 -6 -7
leaf_value=0.062138926486174119 -0.033310808738072711 -0.0053340250253677375 -0.035707317789395662 0.045950243870417268 -0.0071086837599674841 -0.020280650382240611
leaf_weight=3.0000000000000062 2.9999999999999991 4.9999999999999991 2.9999999999999982 3 3 3
leaf_count=3 3 5 3 3 3 3
internal_value=0.000364131 0.00994996 0.0163183 0.00104475 0.0194208 -0.0267957
internal_weight=23 17 12 9 6 6
internal_count=23 17 12 9 6 6
is_linear=0
shrinkage=0.1


Tree=55
num_leaves=8
num_cat=0
split_feature=8 8 8 9 0 9 8
split_gain=4.03769 0.281368 1.47364 0.340669 0.474665 0.420419 0.29802
threshold=17.480500000000003 16.677500000000013 16.366000000000003 106.24116666666667 11.500000000000002 107.08416666666669 16.868000000000013
decision_type=2 2 2 2 2 2 2
left_child=1 2 3 -1 -5 -6 -3
right_child=-2 6 -4 4 5 -7 -8
leaf_value=0.019342749416828103 0.09981164038181306 0.032767475148042041 -0.078675294915835067 0.021783998608589174 -0.054453898469607021 -0.0071016849577426894 -0.011806044355034824
leaf_weight=5.0000000000000133 3.9999999999999991 2.9999999999999991 2.9999999999999991 2.9999999999999991 3 5 3
leaf_count=5 4 3 3 3 3 5 3
internal_value=0.00652761 -0.00839784 -0.0143595 -0.00230027 -0.012138 -0.0248588 0.0104807
internal_weight=29 25 19 16 11 8 6
internal_count=29 25 19 16 11 8 6
is_linear=0
shrinkage=0.1


Tree=56
num_leaves=6
num_cat=0
split_feature=8 0 3 8 8
split_gain=3.27053 0.231168 0.345592 0.322614 0.206132
threshold=17.480500000000003 14.500000000000002 118.49900000000001 16.366000000000003 15.327999999999998
decision_type=2 2 2 2 2
left_child=1 -1 3 4 -3
right_child=-2 2 -4 -5 -6
leaf_value=-0.024669829507668786 0.089830479025840765 -0.012435701191425317 0.020413207244127991 -0.030580559670925142 0.018020720593631266
leaf_weight=6.0000000000000062 3.9999999999999991 5.0000000000000018 4.9999999999999991 4.9999999999999991 4
leaf_count=6 4 5 5 5 4
internal_value=0.00587485 -0.00755805 -0.00215434 -0.0102142 0.00110049
internal_weight=29 25 19 14 9
internal_count=29 25 19 14 9
is_linear=0
shrinkage=0.1


Tree=57
num_leaves=7
num_cat=0
split_feature=0 2 0 9 9 8
split_gain=2.94793 0.406141 0.493858 0.526531 0.449215 0.0819056
threshold=35.500000000000007 2.5000000000000004 14.500000000000002 106.24116666666667 107.08416666666669 16.677500000000013
decision_type=2 2 2 2 2 2
left_child=1 4 -3 -4 -1 -5
right_child=-2 2 3 5 -6 -7
leaf_value=0.027511487603187536 0.075139557421207426 -0.055631498495737675 -0.046550400058428448 -0.0088411717675626299 -0.01744926609098911 0.010357143357396126
leaf_weight=5.0000000000000036 4.9999999999999991 3.0000000000000009 2.9999999999999991 3.9999999999999982 4 5
leaf_count=5 5 3 3 4 4 5
internal_value=0.00528736 -0.00926518 -0.0193416 -0.0102692 0.00752893 0.00182456
internal_weight=29 24 15 12 9 9
internal_count=29 24 15 12 9 9
is_linear=0
shrinkage=0.1


Tree=58
num_leaves=9
num_cat=0
split_feature=8 8 8 11 8 8 0 3
split_gain=2.66446 0.226384 1.26805 0.285041 0.461684 0.232231 0.203282 0.202828
threshold=17.480500000000003 16.677500000000013 16.366000000000003 0.043040293040293047 15.327999999999998 16.868000000000013 29.500000000000004 116.12100000000002
decision_type=2 2 2 2 2 2 2 2
left_child=1 2 3 6 -5 -3 -1 -8
right_child=-2 5 -4 4 -6 -7 7 -9
leaf_value=-0.029327810183167359 0.080537030845880514 0.02924146701892217 -0.072374393542607635 -0.012035074084997177 0.04344369371732075 -0.010105762754877406 -0.018610458324352895 0.018161616846919054
leaf_weight=4.0000000000000124 3.9999999999999991 2.9999999999999991 2.9999999999999991 2.9999999999999991 3 3 3 3
leaf_count=4 4 3 3 3 3 3 3 3
internal_value=0.00475863 -0.00736592 -0.0127134 -0.00152699 0.0157043 0.00956785 -0.0118658 -0.000224421
internal_weight=29 25 19 16 6 6 10 6
internal_count=29 25 19 16 6 6 10 6
is_linear=0
shrinkage=0.1


Tree=59
num_leaves=7
num_cat=0
split_feature=0 2 9 3 9 0
split_gain=2.5241 0.302617 0.433843 0.399572 0.306137 0.199247
threshold=35.500000000000007 2.5000000000000004 109.71000000000002 118.99400000000001 107.08416666666669 29.500000000000004
decision_type=2 2 2 2 2 2
left_child=1 4 3 5 -1 -3
right_child=-2 2 -4 -5 -6 -7
leaf_value=0.021809589713811858 0.068918812870979312 -0.03654821328818799 -0.051894477009773225 0.022228190985818706 -0.015306651592254637 -0.0066047159209847439
leaf_weight=5.0000000000000036 4.9999999999999991 3.9999999999999982 3.0000000000000009 2.9999999999999991 4 5
leaf_count=5 5 4 3 3 4 5
internal_value=0.00428276 -0.00918308 -0.017881 -0.00937765 0.00531348 -0.0199129
internal_weight=29 24 15 12 9 9
internal_count=29 24 15 12 9 9
is_linear=0
shrinkage=0.1


Tree=60
num_leaves=7
num_cat=0
split_feature=8 8 8 9 9 8
split_gain=0.45694 1.09143 0.236884 0.21317 0.283531 0.166391
threshold=15.688000000000004 16.677500000000013 16.868000000000013 106.48200000000001 107.08416666666669 16.366000000000003
decision_type=2 2 2 2 2 2
left_child=3 5 -3 -1 -5 -2
right_child=1 2 -4 4 -6 -7
leaf_value=0.029962513844172135 -0.035915520414710043 0.026067667454481122 -0.009476411417126655 -0.025137186050415036 0.01553134676069021 -0.069221319754918395
leaf_weight=3.0000000000000018 2.9999999999999991 3 5 3 4 3
leaf_count=3 3 3 5 3 4 3
internal_value=-0.00866618 -0.0203278 0.00385262 0.00766014 -0.00189802 -0.0525684
internal_weight=24 14 8 10 7 6
internal_count=24 14 8 10 7 6
is_linear=0
shrinkage=0.1


Tree=61
num_leaves=7
num_cat=0
split_feature=8 8 8 9 9 8
split_gain=0.370122 0.884057 0.191876 0.172667 0.22966 0.134777
threshold=15.688000000000004 16.677500000000013 16.868000000000013 106.48200000000001 107.08416666666669 16.366000000000003
decision_type=2 2 2 2 2 2
left_child=3 5 -3 -1 -5 -2
right_child=1 2 -4 4 -6 -7
leaf_value=0.026966262857119217 -0.03232396940390269 0.023460900286833439 -0.0085287711024284365 -0.022623467445373531 0.013978211767971514 -0.062299187978108711
leaf_weight=3.0000000000000018 2.9999999999999991 3 5 3 4 3
leaf_count=3 3 3 5 3 4 3
internal_value=-0.00779956 -0.018295 0.00346736 0.00689412 -0.00170822 -0.0473116
internal_weight=24 14 8 10 7 6
internal_count=24 14 8 10 7 6
is_linear=0
shrinkage=0.1


Tree=62
num_leaves=7
num_cat=0
split_feature=8 8 8 3 3 0
split_gain=0.299798 0.716086 0.15542 0.132068 0.271236 0.109355
threshold=15.688000000000004 16.677500000000013 16.868000000000013 118.06950000000002 116.93850000000002 35.500000000000007
decision_type=2 2 2 2 2 2
left_child=3 5 -3 4 -1 -2
right_child=1 2 -4 -5 -6 -7
leaf_value=-0.0056737601757049514 -0.056080728024244311 0.021114810618261492 -0.0076758941262960421 -0.0078701445832848535 0.036849657694498689 -0.029080109546581898
leaf_weight=3.0000000000000018 2.9999999999999991 3 5 4 3 3
leaf_count=3 3 3 5 4 3 3
internal_value=-0.0070196 -0.0164655 0.00312062 0.00620471 0.0155879 -0.0425804
internal_weight=24 14 8 10 6 6
internal_count=24 14 8 10 6 6
is_linear=0
shrinkage=0.1


Tree=63
num_leaves=7
num_cat=0
split_feature=8 8 9 9 8 8
split_gain=0.242837 0.58003 0.136328 0.191094 0.12589 0.116575
threshold=15.688000000000004 16.677500000000013 106.48200000000001 107.08416666666669 16.868000000000013 16.366000000000003
decision_type=2 2 2 2 2 2
left_child=2 5 -1 -4 -3 -2
right_child=1 4 3 -5 -6 -7
leaf_value=0.02341956396897632 -0.024383517851432168 0.019003330000365769 -0.021137979626655576 0.012249410152435301 -0.0069083048030734052 -0.05226123879353204
leaf_weight=3.0000000000000018 2.9999999999999991 3 3 4 5 3
leaf_count=3 3 3 3 4 5 3
internal_value=-0.00631764 -0.014819 0.00558424 -0.00205947 0.00280856 -0.0383224
internal_weight=24 14 10 7 8 6
internal_count=24 14 10 7 8 6
is_linear=0
shrinkage=0.1


Tree=64
num_leaves=6
num_cat=0
split_feature=3 0 9 11 9
split_gain=0.177098 0.620477 0.179297 0.109347 0.117988
threshold=118.80050000000001 20.500000000000004 107.08416666666669 0.043040293040293047 106.24116666666667
decision_type=2 2 2 2 2
left_child=2 -2 3 4 -1
right_child=1 -3 -4 -5 -6
leaf_value=-0.018589321461816612 0.0037379488348960872 -0.053787790673474459 0.022424533466498059 0.012047425284981728 0.0035831548273563378
leaf_weight=6.0000000000000053 5 3 2.9999999999999991 2.9999999999999991 4
leaf_count=6 5 3 3 3 4
internal_value=-0.00568588 -0.0178342 0.000388285 -0.004697 -0.00972033
internal_weight=24 8 16 13 10
internal_count=24 8 16 13 10
is_linear=0
shrinkage=0.1


Tree=65
num_leaves=7
num_cat=0
split_feature=8 2 3 0 3 0
split_gain=0.101606 0.184565 0.353188 0.201877 0.392011 0.193025
threshold=15.049499999999989 2.5000000000000004 118.49900000000001 14.500000000000002 118.99400000000001 29.500000000000004
decision_type=2 2 2 2 2 2
left_child=-1 2 -2 -3 5 -5
right_child=1 3 -4 4 -6 -7
leaf_value=0.0036457467079162574 -0.021880167846878358 -0.041574983298778512 0.026643925905227656 -0.043923433621724461 0.018517564112941417 -0.011838141791522502
leaf_weight=5.0000000000000027 3.0000000000000009 3.0000000000000009 3 2.9999999999999982 3 5
leaf_count=5 3 3 3 3 3 5
internal_value=-0.00910453 -0.0122921 0.00238188 -0.0185809 -0.0123098 -0.0238701
internal_weight=25 20 6 14 11 8
internal_count=25 20 6 14 11 8
is_linear=0
shrinkage=0.1


Tree=66
num_leaves=7
num_cat=0
split_feature=9 7 9 7 8 8
split_gain=0.123491 0.368855 0.463058 0.201634 0.193637 0.016969
threshold=106.80900000000001 115.50050000000002 107.48100000000001 113.63850000000002 16.677500000000013 15.688000000000004
decision_type=2 2 2 2 2 2
left_child=3 5 -3 -1 -5 -2
right_child=1 2 -4 4 -6 -7
leaf_value=-0.0012918103113770479 0.011460513869921368 -0.04708095689614613 0.0026145654916763304 -0.046447013815244027 -0.01051771594211459 0.022096601625283555
leaf_weight=5.0000000000000018 2.9999999999999991 3 5 3 3 3
leaf_count=5 3 3 5 3 3 3
internal_value=-0.00819408 -0.00196419 -0.0160213 -0.016123 -0.0284824 0.0167786
internal_weight=25 14 8 11 6 6
internal_count=25 14 8 11 6 6
is_linear=0
shrinkage=0.1


Tree=67
num_leaves=7
num_cat=0
split_feature=9 3 9 3 8 9
split_gain=0.100028 0.298773 0.375077 0.163324 0.156846 0.0149423
threshold=106.80900000000001 118.80050000000001 107.48100000000001 116.93850000000002 16.677500000000013 107.08416666666669
decision_type=2 2 2 2 2 2
left_child=3 5 -3 -1 -5 -2
right_child=1 2 -4 4 -6 -7
leaf_value=-0.0011626292020082468 0.010110327601432802 -0.042372861007849365 0.0023531089723110195 -0.041802313427130366 -0.0094659443090980219 0.02009107818206151
leaf_weight=5.0000000000000018 2.9999999999999991 3 5 3 3 3
leaf_count=5 3 3 5 3 3 3
internal_value=-0.00737467 -0.00176777 -0.0144191 -0.0145107 -0.0256341 0.0151007
internal_weight=25 14 8 11 6 6
internal_count=25 14 8 11 6 6
is_linear=0
shrinkage=0.1


Tree=68
num_leaves=6
num_cat=0
split_feature=8 2 3 9 9
split_gain=0.0861137 0.235866 0.0902703 0.144759 0.0748116
threshold=15.327999999999998 2.5000000000000004 118.49900000000001 106.24116666666667 107.08416666666669
decision_type=2 2 2 2 2
left_child=4 -2 3 -3 -1
right_child=1 2 -4 -5 -6
leaf_value=-0.0077519884333014438 0.0075846185348927954 -0.023390264250338074 -0.028528957962989807 0.0056687648097674039 0.011588589288294314
leaf_weight=4.0000000000000018 5.0000000000000009 4 5 3 4
leaf_count=4 5 4 5 3 4
internal_value=-0.0066372 -0.0106633 -0.0182666 -0.0109364 0.0019183
internal_weight=25 17 12 7 8
internal_count=25 17 12 7 8
is_linear=0
shrinkage=0.1


Tree=69
num_leaves=7
num_cat=0
split_feature=8 2 3 0 3 0
split_gain=0.0745872 0.127 0.277243 0.208806 0.332133 0.115187
threshold=15.049499999999989 2.5000000000000004 118.49900000000001 14.500000000000002 118.99400000000001 29.500000000000004
decision_type=2 2 2 2 2 2
left_child=-1 2 -2 -3 5 -5
right_child=1 3 -4 4 -6 -7
leaf_value=0.00495078012347221 -0.01802803101406121 -0.037306583424409206 0.024963711698849991 -0.033675369620323192 0.020832067231337223 -0.0088896681368350969
leaf_weight=5.0000000000000027 3.0000000000000009 3.0000000000000009 3 2.9999999999999982 3 5
leaf_count=5 3 3 3 3 3 5
internal_value=-0.00597348 -0.00870455 0.00346784 -0.0139213 -0.00754348 -0.0181843
internal_weight=25 20 6 14 11 8
internal_count=25 20 6 14 11 8
is_linear=0
shrinkage=0.1


Tree=70
num_leaves=7
num_cat=0
split_feature=0 9 0 9 9 0
split_gain=2.45385 0.234683 0.101099 0.153248 0.0155783 0.0141661
threshold=35.500000000000007 109.71000000000002 14.500000000000002 107.08416666666669 107.48100000000001 20.500000000000004
decision_type=2 2 2 2 2 2
left_child=1 2 -1 5 -5 -4
right_child=-2 -3 3 4 -6 -7
leaf_value=-0.0064118644595146049 0.078454941846430315 -0.020855834335088731 -0.003115266468375922 0.027329960465431208 0.017139020127554732 0.005300812795758246
leaf_weight=5.0000000000000098 4.9999999999999991 3.9999999999999991 3.9999999999999982 3 3 4
leaf_count=5 5 4 4 3 3 4
internal_value=0.0149622 0.00115941 0.0057942 0.0101535 0.0222345 0.00109277
internal_weight=28 23 19 14 6 8
internal_count=28 23 19 14 6 8
is_linear=0
shrinkage=0.1


Tree=71
num_leaves=7
num_cat=0
split_feature=0 9 0 9 8 8
split_gain=1.98762 0.190093 0.0818902 0.124131 0.0375771 0.0126184
threshold=35.500000000000007 109.71000000000002 14.500000000000002 107.08416666666669 16.677500000000013 16.054500000000001
decision_type=2 2 2 2 2 2
left_child=1 2 -1 4 -4 -5
right_child=-2 -3 3 5 -6 -7
leaf_value=-0.005770677775144565 0.070609446167945872 -0.018770250678062442 -0.0058700699359178557 0.024596963326136267 0.0078370601870119561 0.015425118270407738
leaf_weight=5.0000000000000098 4.9999999999999991 3.9999999999999991 3.9999999999999982 3 4 3
leaf_count=5 5 4 4 3 4 3
internal_value=0.013466 0.00104347 0.00521478 0.00913816 0.000983495 0.020011
internal_weight=28 23 19 14 8 6
internal_count=28 23 19 14 8 6
is_linear=0
shrinkage=0.1


Tree=72
num_leaves=9
num_cat=0
split_feature=8 8 8 3 0 3 0 0
split_gain=2.04559 0.157629 0.687995 0.15865 0.0982988 0.120301 0.08303 0.0301801
threshold=17.480500000000003 16.366000000000003 16.677500000000013 118.49900000000001 11.500000000000002 118.06950000000002 33.500000000000007 29.500000000000004
decision_type=2 2 2 2 2 2 2 2
left_child=1 4 -3 -4 -1 6 -6 -7
right_child=-2 2 3 -5 5 7 -8 -9
leaf_value=0.023552780350049284 0.078326674550771719 -0.048478581259648018 -0.0060882101456324247 0.026433622464537617 0.025090919931729645 -0.01379006927212079 0.0015636308739582694 0.00039446105559666944
leaf_weight=3.0000000000000062 3.9999999999999991 2.9999999999999982 3 3 2.9999999999999982 3 3 3
leaf_count=3 4 3 3 3 3 3 3 3
internal_value=0.0121194 0.00108482 -0.00937772 0.0101727 0.00736234 0.00331474 0.0133273 -0.0066978
internal_weight=28 24 9 6 15 12 6 6
internal_count=28 24 9 6 15 12 6 6
is_linear=0
shrinkage=0.1


Tree=73
num_leaves=7
num_cat=0
split_feature=0 9 7 7 9 9
split_gain=1.70667 0.230524 0.0697608 0.181754 0.0848243 0.0145522
threshold=35.500000000000007 109.71000000000002 115.19900000000003 115.50050000000002 107.08416666666669 106.24116666666667
decision_type=2 2 2 2 2 2
left_child=1 2 4 -4 5 -1
right_child=-2 -3 3 -5 -6 -7
leaf_value=-0.0022900995332747645 0.063858568146824835 -0.022422973997890949 0.030554141600926711 -0.00058029815554618827 0.013162353138128916 -0.010820106230676172
leaf_weight=4.0000000000000089 4.9999999999999991 3.9999999999999991 3 5 2.9999999999999991 4
leaf_count=4 5 4 3 5 3 4
internal_value=0.0109074 -0.000603684 0.00398985 0.0110951 -0.00117761 -0.0065551
internal_weight=28 23 19 8 11 8
internal_count=28 23 19 8 11 8
is_linear=0
shrinkage=0.1


Tree=74
num_leaves=9
num_cat=0
split_feature=8 8 8 3 0 0 0 8
split_gain=1.72298 0.135424 0.64504 0.11573 0.0798558 0.0843641 0.113467 0.0226505
threshold=17.480500000000003 16.366000000000003 16.677500000000013 118.49900000000001 11.500000000000002 17.500000000000004 29.500000000000004 15.688000000000004
decision_type=2 2 2 2 2 2 2 2
left_child=1 4 -3 -4 -1 -6 -7 -8
right_child=-2 2 3 -5 5 6 7 -9
leaf_value=0.020100956906874929 0.070579265803098687 -0.047868619859218614 -0.0049660449847578995 0.022810475031534827 -0.012662757933139802 0.022580088178316762 -0.007382842898368833 0.0049054927192628377
leaf_weight=3.0000000000000062 3.9999999999999991 2.9999999999999982 3 3 2.9999999999999991 2.9999999999999982 3 3
leaf_count=3 4 3 3 3 3 3 3 3
internal_value=0.00981669 -0.000310407 -0.0100081 0.00892222 0.00550819 0.00186 0.00670091 -0.00123868
internal_weight=28 24 9 6 15 12 9 6
internal_count=28 24 9 6 15 12 9 6
is_linear=0
shrinkage=0.1


Tree=75
num_leaves=8
num_cat=0
split_feature=8 9 7 8 9 0 8
split_gain=2.99594 0.257809 0.262346 0.351356 0.336092 0.0680574 0.0299758
threshold=17.480500000000003 105.70866666666669 115.50050000000002 16.054500000000001 107.48100000000001 17.500000000000004 15.688000000000004
decision_type=2 2 2 2 2 2 2
left_child=1 6 3 5 -4 -3 -1
right_child=-2 2 4 -5 -6 -7 -8
leaf_value=-0.013447580734888682 0.10331351260344189 -0.011770503719647716 -0.037425076961517333 0.036435469798743729 0.0068528503179550162 0.0072813366353511799 -0.0275840060164531
leaf_weight=3.0000000000000062 2.9999999999999991 3.0000000000000018 2.9999999999999991 3.9999999999999991 4 5 3
leaf_count=3 3 3 3 4 4 5 3
internal_value=0.00888639 -0.00244486 0.00326175 0.0122364 -0.0121234 0.000136897 -0.0205158
internal_weight=28 25 19 12 7 8 6
internal_count=28 25 19 12 7 8 6
is_linear=0
shrinkage=0.1


Tree=76
num_leaves=8
num_cat=0
split_feature=8 9 7 8 9 0 8
split_gain=2.42671 0.208826 0.2125 0.284599 0.272234 0.0551265 0.0242804
threshold=17.480500000000003 105.70866666666669 115.50050000000002 16.054500000000001 107.48100000000001 17.500000000000004 15.688000000000004
decision_type=2 2 2 2 2 2 2
left_child=1 6 3 5 -4 -3 -1
right_child=-2 2 4 -5 -6 -7 -8
leaf_value=-0.012102822462717664 0.092982155581315368 -0.01059345304965972 -0.033682568868001299 0.032791922800242901 0.0061675649136304841 0.0065532038360834113 -0.024825604942937687
leaf_weight=3.0000000000000062 2.9999999999999991 3.0000000000000018 2.9999999999999991 3.9999999999999991 4 5 3
leaf_count=3 3 3 3 4 4 5 3
internal_value=0.00799775 -0.00220038 0.00293557 0.0110128 -0.0109111 0.000123208 -0.0184642
internal_weight=28 25 19 12 7 8 6
internal_count=28 25 19 12 7 8 6
is_linear=0
shrinkage=0.1


Tree=77
num_leaves=8
num_cat=0
split_feature=8 9 3 8 9 0 9
split_gain=1.96563 0.169149 0.172125 0.230525 0.22051 0.0446524 0.0252649
threshold=17.480500000000003 105.70866666666669 118.80050000000001 16.054500000000001 107.48100000000001 17.500000000000004 105.1015
decision_type=2 2 2 2 2 2 2
left_child=1 6 3 5 -4 -3 -1
right_child=-2 2 4 -5 -6 -7 -8
leaf_value=-0.010128707811236358 0.08368394300341607 -0.0095341081420580471 -0.030314310888449353 0.029512731265276673 0.0055508083663880813 0.0058978829532861697 -0.023106877009073889
leaf_weight=3.0000000000000062 2.9999999999999991 3.0000000000000018 2.9999999999999991 3.9999999999999991 4 5 3
leaf_count=3 3 3 3 4 4 5 3
internal_value=0.00719798 -0.00198034 0.00264202 0.0099115 -0.00981996 0.000110886 -0.0166178
internal_weight=28 25 19 12 7 8 6
internal_count=28 25 19 12 7 8 6
is_linear=0
shrinkage=0.1


Tree=78
num_leaves=7
num_cat=0
split_feature=8 7 9 8 9 8
split_gain=1.59216 0.140539 0.222173 0.208361 0.156352 0.0374148
threshold=17.480500000000003 114.07300000000002 107.33400000000003 16.366000000000003 107.48100000000001 15.688000000000004
decision_type=2 2 2 2 2 2
left_child=1 5 3 -3 -4 -1
right_child=-2 2 4 -5 -6 -7
leaf_value=-0.0072200685739517148 0.075315546989440929 0.031763282418251035 -0.025990928212801606 -0.00051370747387409206 0.0028859993070363995 -0.020897567334274447
leaf_weight=6.0000000000000053 2.9999999999999991 4 3 4 5 3
leaf_count=6 3 4 3 4 5 3
internal_value=0.00647818 -0.0017823 0.00384097 0.0156248 -0.00794285 -0.0117792
internal_weight=28 25 16 8 8 9
internal_count=28 25 16 8 8 9
is_linear=0
shrinkage=0.1


Tree=79
num_leaves=7
num_cat=0
split_feature=0 7 7 7 8 0
split_gain=1.61268 0.304532 0.312253 0.169109 0.11292 0.0972904
threshold=35.500000000000007 116.55600000000003 113.63850000000002 115.50050000000002 16.054500000000001 17.500000000000004
decision_type=2 2 2 2 2 2
left_child=1 2 -1 4 5 -4
right_child=-2 -3 3 -5 -6 -7
leaf_value=-0.029685392975807086 0.057302778996527193 -0.030437662079930306 -0.0088693089783191716 -0.0097773380577564246 0.025805903784930702 0.01495352182537317
leaf_weight=3.0000000000000098 4.9999999999999991 3.9999999999999991 2.9999999999999982 4.9999999999999991 4 4
leaf_count=3 5 4 3 5 4 4
internal_value=0.00583036 -0.00535929 -7.96365e-05 0.00547144 0.0124027 0.00474374
internal_weight=28 23 19 16 11 7
internal_count=28 23 19 16 11 7
is_linear=0
shrinkage=0.1


Tree=80
num_leaves=7
num_cat=0
split_feature=0 3 8 8 11 8
split_gain=3.91572 0.895645 0.0709397 0.0807764 0.149785 0.280462
threshold=35.500000000000007 119.85600000000001 14.803500000000001 15.327999999999998 0.043040293040293047 16.677500000000013
decision_type=2 2 2 2 2 2
left_child=1 2 -1 -4 5 -5
right_child=-2 -3 3 4 -6 -7
leaf_value=-0.019701565677920908 0.10830271566907566 -0.064118680357933042 0.0094044096767902305 -0.034055725950747733 0.0067315544188022609 0.0033916983753442759
leaf_weight=3.0000000000000098 2.9999999999999991 2.9999999999999991 4.0000000000000027 3.9999999999999982 5 4
leaf_count=3 3 3 4 4 5 4
internal_value=0.00084872 -0.013167 -0.00552427 -0.00302239 -0.00684603 -0.015332
internal_weight=26 23 20 17 13 8
internal_count=26 23 20 17 13 8
is_linear=0
shrinkage=0.1


Tree=81
num_leaves=8
num_cat=0
split_feature=0 9 2 3 0 0 3
split_gain=3.17174 0.76782 0.0403282 0.24067 0.130516 0.0240922 0.0102791
threshold=35.500000000000007 109.71000000000002 2.5000000000000004 118.99400000000001 29.500000000000004 25.500000000000004 118.129
decision_type=2 2 2 2 2 2 2
left_child=1 2 6 4 5 -4 -1
right_child=-2 -3 3 -5 -6 -7 -8
leaf_value=-0.0019731171429157213 0.097472440203030919 -0.059026203118264675 -0.031186136603355421 0.016772509024788926 -0.0015295311808586117 -0.018512744704882299 0.0057703445355097444
leaf_weight=4.000000000000008 2.9999999999999991 2.9999999999999991 2.9999999999999982 3.0000000000000009 4 3 3
leaf_count=4 3 3 3 3 4 3 3
internal_value=0.000763847 -0.0118503 -0.00477393 -0.00806902 -0.0155215 -0.0248494 0.00134551
internal_weight=26 23 20 13 10 6 7
internal_count=26 23 20 13 10 6 7
is_linear=0
shrinkage=0.1


Tree=82
num_leaves=7
num_cat=0
split_feature=0 3 8 3 0 0
split_gain=2.56911 0.657804 0.0425534 0.0607282 0.12284 0.207328
threshold=35.500000000000007 119.85600000000001 14.803500000000001 118.80050000000001 20.500000000000004 11.500000000000002
decision_type=2 2 2 2 2 2
left_child=1 2 -1 4 5 -4
right_child=-2 -3 3 -5 -6 -7
leaf_value=-0.01509579401463265 0.087725196530421587 -0.054330814971278112 0.014235699673493691 -0.012952631339430809 0.013433422744274141 -0.019017085134983059
leaf_weight=3.0000000000000098 2.9999999999999991 2.9999999999999991 3.0000000000000018 3.9999999999999991 4.9999999999999991 5
leaf_count=3 3 3 3 4 5 5
internal_value=0.000687462 -0.0106653 -0.00411546 -0.00217775 0.0011376 -0.00654729
internal_weight=26 23 20 17 13 8
internal_count=26 23 20 17 13 8
is_linear=0
shrinkage=0.1


Tree=83
num_leaves=7
num_cat=0
split_feature=0 3 2 8 8 8
split_gain=2.08098 0.532821 0.0426867 0.0840313 0.199976 0.0347762
threshold=35.500000000000007 119.85600000000001 2.5000000000000004 16.677500000000013 15.327999999999998 15.327999999999998
decision_type=2 2 2 2 2 2
left_child=1 2 5 4 -4 -1
right_child=-2 -3 3 -5 -6 -7
leaf_value=-0.0065575073162714471 0.078952678106725224 -0.048897732794284825 0.00241720899939537 0.0043583326041698438 -0.029203632101416584 0.007061336040496826
leaf_weight=3.0000000000000071 2.9999999999999991 2.9999999999999991 4 4.0000000000000009 4 5
leaf_count=3 3 3 4 4 4 5
internal_value=0.000618717 -0.00959876 -0.00370391 -0.00747603 -0.0133932 0.00195427
internal_weight=26 23 20 12 8 8
internal_count=26 23 20 12 8 8
is_linear=0
shrinkage=0.1


Tree=84
num_leaves=8
num_cat=0
split_feature=2 3 3 9 8 8 9
split_gain=1.29944 1.96985 0.291722 0.257207 0.212981 0.228781 0.0100991
threshold=2.5000000000000004 118.49900000000001 119.85600000000001 106.24116666666667 16.677500000000013 15.327999999999998 106.48200000000001
decision_type=2 2 2 2 2 2 2
left_child=1 6 3 -2 5 -5 -1
right_child=2 -3 -4 4 -6 -7 -8
leaf_value=0.002303573489189146 -0.03107672426849601 0.097444343566894506 -0.044007960706949234 0.010248270134131118 0.021219504872957859 -0.026283268257975573 -0.0059017570068438836
leaf_weight=3.0000000000000018 4.0000000000000027 3 2.9999999999999991 2.9999999999999982 3 4 3
leaf_count=3 4 3 3 3 3 4 3
internal_value=0.000556844 0.0312821 -0.0157094 -0.00964547 -0.00107297 -0.0106269 -0.00179909
internal_weight=26 9 17 14 10 7 6
internal_count=26 9 17 14 10 7 6
is_linear=0
shrinkage=0.1


Tree=85
num_leaves=6
num_cat=0
split_feature=2 9 8 9 0
split_gain=1.88847 1.20169 0.563557 0.381642 0.567465
threshold=2.5000000000000004 107.08416666666669 15.327999999999998 106.24116666666667 29.500000000000004
decision_type=2 2 2 2 2
left_child=1 -1 -2 -4 -5
right_child=2 -3 3 4 -6
leaf_value=0.069866424500942201 0.0099835094809532093 -0.010189967602491377 -0.055222002416849138 -0.040557687580585491 0.0099753744900226565
leaf_weight=5.0000000000000018 5.0000000000000027 3 3.9999999999999991 4.9999999999999982 4
leaf_count=5 5 3 4 5 4
internal_value=-0.000580584 0.0398453 -0.0185476 -0.0295211 -0.0180985
internal_weight=26 8 18 13 9
internal_count=26 8 18 13 9
is_linear=0
shrinkage=0.1


Tree=86
num_leaves=6
num_cat=0
split_feature=2 0 9 3 9
split_gain=1.52966 1.12711 0.402894 0.309746 0.0776343
threshold=2.5000000000000004 14.500000000000002 106.24116666666667 119.85600000000001 107.08416666666669
decision_type=2 2 2 2 2
left_child=1 -1 -2 4 -4
right_child=2 -3 3 -5 -6
leaf_value=-0.0016744103282690039 -0.037850834180911362 0.073395908251404754 -0.0099727888902028435 -0.033941321571667987 0.0097292800744374578
leaf_weight=4.0000000000000018 6.0000000000000027 4 2.9999999999999982 2.9999999999999991 6
leaf_count=4 6 4 3 3 6
internal_value=-0.000522526 0.0358607 -0.0166929 -0.00611389 0.00316192
internal_weight=26 8 18 12 9
internal_count=26 8 18 12 9
is_linear=0
shrinkage=0.1


Tree=87
num_leaves=6
num_cat=0
split_feature=11 8 8 9 0
split_gain=1.23902 0.965633 0.461272 0.25391 0.436581
threshold=0.043040293040293047 16.677500000000013 15.327999999999998 106.24116666666667 29.500000000000004
decision_type=2 2 2 2 2
left_child=2 -2 -1 -4 -5
right_child=1 -3 3 4 -6
leaf_value=0.010788847431540481 0.0053632477391511177 0.077127050608396516 -0.045914717391133314 -0.035333980917930607 0.008990012668073177
leaf_weight=5.0000000000000027 5.0000000000000018 3 3.9999999999999991 4.9999999999999982 4
leaf_count=5 5 3 4 5 4
internal_value=-0.000470273 0.0322747 -0.0150236 -0.0249514 -0.0156344
internal_weight=26 8 18 13 9
internal_count=26 8 18 13 9
is_linear=0
shrinkage=0.1


Tree=88
num_leaves=6
num_cat=0
split_feature=2 9 8 9 0
split_gain=1.00361 0.907509 0.37363 0.205667 0.353631
threshold=2.5000000000000004 107.08416666666669 15.327999999999998 106.24116666666667 29.500000000000004
decision_type=2 2 2 2 2
left_child=1 -1 -2 -4 -5
right_child=2 -3 3 4 -6
leaf_value=0.055136126577854133 0.0097099624574184355 -0.014434325974434609 -0.041323244944214826 -0.031800583004951484 0.0080910110846161825
leaf_weight=5.0000000000000018 5.0000000000000027 3 3.9999999999999991 4.9999999999999982 4
leaf_count=5 5 3 4 5 4
internal_value=-0.000423246 0.0290472 -0.0135212 -0.0224563 -0.014071
internal_weight=26 8 18 13 9
internal_count=26 8 18 13 9
is_linear=0
shrinkage=0.1


Tree=89
num_leaves=6
num_cat=0
split_feature=11 0 8 9 0
split_gain=0.812923 0.819966 0.30264 0.16659 0.286441
threshold=0.043040293040293047 14.500000000000002 15.327999999999998 106.24116666666667 29.500000000000004
decision_type=2 2 2 2 2
left_child=2 -2 -1 -4 -5
right_child=1 -3 3 4 -6
leaf_value=0.0087389659881591739 -0.0058724798262119252 0.058157450670842076 -0.037190920487046246 -0.028620525002479559 0.007281910255551337
leaf_weight=5.0000000000000027 4.0000000000000018 4 3.9999999999999991 4.9999999999999982 4
leaf_count=5 4 4 4 5 4
internal_value=-0.000380921 0.0261425 -0.0121691 -0.0202107 -0.0126639
internal_weight=26 8 18 13 9
internal_count=26 8 18 13 9
is_linear=0
shrinkage=0.1


Tree=90
num_leaves=6
num_cat=0
split_feature=3 9 0 9 9
split_gain=0.40635 0.254722 0.200404 0.103582 0.0371024
threshold=117.373 105.1015 14.500000000000002 107.33400000000003 107.33400000000003
decision_type=2 2 2 2 2
left_child=1 -1 4 -4 -2
right_child=2 -3 3 -5 -6
leaf_value=-0.01837161605556804 -0.031270573536554935 -0.059580223759015387 0.00817135125398636 -0.011317153722047805 -0.015543221433957415
leaf_weight=3.0000000000000027 3.0000000000000027 3 5.9999999999999982 5 3
leaf_count=3 3 3 6 5 3
internal_value=-0.0166024 -0.0389759 -0.00870583 -0.00068706 -0.0234069
internal_weight=23 6 17 11 6
internal_count=23 6 17 11 6
is_linear=0
shrinkage=0.1


Tree=91
num_leaves=6
num_cat=0
split_feature=3 9 8 0 8
split_gain=0.329143 0.206325 0.171403 0.215408 0.0710417
threshold=117.373 105.1015 17.480500000000003 14.500000000000002 16.054500000000001
decision_type=2 2 2 2 2
left_child=1 -1 3 -2 -5
right_child=2 -3 -4 4 -6
leaf_value=-0.016534454127152744 -0.022799752838909608 -0.053622200588385252 -0.029526652147372563 -0.0037706429511308679 0.013086609244346618
leaf_weight=3.0000000000000027 4.0000000000000027 3 2.9999999999999991 4.9999999999999982 5
leaf_count=3 4 3 3 5 5
internal_value=-0.0149421 -0.0350783 -0.00783524 -0.00318708 0.00465798
internal_weight=23 6 17 14 10
internal_count=23 6 17 14 10
is_linear=0
shrinkage=0.1


Tree=92
num_leaves=6
num_cat=0
split_feature=3 9 8 8 8
split_gain=0.266606 0.167123 0.138836 0.115154 0.137633
threshold=117.373 105.1015 17.480500000000003 16.677500000000013 15.327999999999998
decision_type=2 2 2 2 2
left_child=1 -1 3 4 -2
right_child=2 -3 -4 -5 -6
leaf_value=-0.014881008615096392 0.003127387240529059 -0.048259981473286938 -0.026573987056811649 0.011471480503678322 -0.020336025059223172
leaf_weight=3.0000000000000027 5.0000000000000018 3 2.9999999999999991 3.9999999999999991 5
leaf_count=3 5 3 3 4 5
internal_value=-0.0134479 -0.0315705 -0.00705172 -0.00286838 -0.00860432
internal_weight=23 6 17 14 10
internal_count=23 6 17 14 10
is_linear=0
shrinkage=0.1


Tree=93
num_leaves=7
num_cat=0
split_feature=3 9 8 9 8 8
split_gain=0.215951 0.13537 0.112457 0.0983329 0.084092 0.15943
threshold=117.373 105.1015 17.480500000000003 107.48100000000001 15.327999999999998 16.677500000000013
decision_type=2 2 2 2 2 2
left_child=1 -1 3 4 -2 -6
right_child=2 -3 -4 -5 5 -7
leaf_value=-0.013392907877763097 0.0046081842854619002 -0.043433981637159974 -0.023916589220364892 0.013466464976469675 -0.026637383922934528 0.0038586219151814771
leaf_weight=3.0000000000000027 4.0000000000000018 3 2.9999999999999991 2.9999999999999991 4 3
leaf_count=3 4 3 3 3 4 3
internal_value=-0.0121031 -0.0284134 -0.00634655 -0.00258154 -0.00695827 -0.0135677
internal_weight=23 6 17 14 11 7
internal_count=23 6 17 14 11 7
is_linear=0
shrinkage=0.1


Tree=94
num_leaves=7
num_cat=0
split_feature=3 9 8 0 8 8
split_gain=0.17492 0.10965 0.0910904 0.168416 0.116424 0.08252
threshold=117.373 105.1015 17.480500000000003 20.500000000000004 16.054500000000001 16.054500000000001
decision_type=2 2 2 2 2 2
left_child=1 -1 3 5 -5 -2
right_child=2 -3 -4 4 -6 -7
leaf_value=-0.012053616965810443 -0.0038884914480149719 -0.039090583721796662 -0.021524929503599802 -0.006247023741404214 0.019813337922096247 -0.025828566650549563
leaf_weight=3.0000000000000027 4.0000000000000018 3 2.9999999999999991 3 4 3
leaf_count=3 4 3 3 3 4 3
internal_value=-0.0108928 -0.0255721 -0.00571189 -0.00232338 0.00864461 -0.0132914
internal_weight=23 6 17 14 7 7
internal_count=23 6 17 14 7 7
is_linear=0
shrinkage=0.1


Tree=95
num_leaves=6
num_cat=0
split_feature=8 0 0 8 8
split_gain=0.171447 0.160079 0.115464 0.0354212 0.0799652
threshold=15.688000000000004 17.500000000000004 29.500000000000004 16.868000000000013 16.054500000000001
decision_type=2 2 2 2 2
left_child=2 -2 -1 4 -3
right_child=1 3 -4 -5 -6
leaf_value=0.021374142169952384 -0.020845352709293368 -0.0073176159212986654 -0.0014203669503331181 -0.0067724239081144322 0.01428015250712633
leaf_weight=5.0000000000000018 4.9999999999999991 2.9999999999999982 4 4 4
leaf_count=5 5 3 4 4 4
internal_value=0.000201622 -0.00600929 0.0112432 0.00073437 0.00502397
internal_weight=25 16 9 11 7
internal_count=25 16 9 11 7
is_linear=0
shrinkage=0.1


Tree=96
num_leaves=6
num_cat=0
split_feature=8 0 0 9 7
split_gain=0.138872 0.129664 0.0935261 0.0764988 0.0515694
threshold=15.688000000000004 17.500000000000004 29.500000000000004 106.24116666666667 115.50050000000002
decision_type=2 2 2 2 2
left_child=2 -2 -1 -3 -5
right_child=1 3 -4 4 -6
leaf_value=0.019236729145050039 -0.018760817348957064 -0.012957130310436091 -0.0012783304788172242 0.016132851441701249 -0.00045138031244277947
leaf_weight=5.0000000000000018 4.9999999999999991 2.9999999999999991 4 3 5
leaf_count=5 5 3 4 3 5
internal_value=0.00018146 -0.00540836 0.0101189 0.000660933 0.00576771
internal_weight=25 16 9 11 8
internal_count=25 16 9 11 8
is_linear=0
shrinkage=0.1


Tree=97
num_leaves=6
num_cat=0
split_feature=8 0 0 9 3
split_gain=0.112486 0.105028 0.0757562 0.061964 0.0417712
threshold=15.688000000000004 17.500000000000004 29.500000000000004 106.24116666666667 118.80050000000001
decision_type=2 2 2 2 2
left_child=2 -2 -1 -3 -5
right_child=1 3 -4 4 -6
leaf_value=0.017313055694103234 -0.016884736120700836 -0.011661417564998071 -0.0011504968628287314 0.014519566297531122 -0.00040624186396598806
leaf_weight=5.0000000000000018 4.9999999999999991 2.9999999999999991 4 3 5
leaf_count=5 5 3 4 3 5
internal_value=0.000163314 -0.00486753 0.00910703 0.00059484 0.00519094
internal_weight=25 16 9 11 8
internal_count=25 16 9 11 8
is_linear=0
shrinkage=0.1


Tree=98
num_leaves=6
num_cat=0
split_feature=0 0 3 3 3
split_gain=0.0963617 0.117271 0.10159 0.0567878 0.0311828
threshold=17.500000000000004 20.500000000000004 118.99400000000001 118.80050000000001 116.12100000000002
decision_type=2 2 2 2 2
left_child=2 -2 -1 4 -3
right_child=1 3 -4 -5 -6
leaf_value=-0.02345131163795787 0.022348046302795382 -0.0039407056116033358 -0.00017447635531425473 -0.0095088999718427672 0.0082449220120906826
leaf_weight=3.0000000000000018 3.0000000000000027 2.9999999999999982 5 3.9999999999999991 7
leaf_count=3 3 3 5 4 7
internal_value=0.000146982 0.00440593 -0.00890329 0.000561196 0.00458923
internal_weight=25 17 8 14 10
internal_count=25 17 8 14 10
is_linear=0
shrinkage=0.1


Tree=99
num_leaves=6
num_cat=0
split_feature=8 9 8 8 8
split_gain=0.0876068 0.0926232 0.0913096 0.197739 0.0568359
threshold=15.688000000000004 106.24116666666667 17.480500000000003 16.677500000000013 15.049499999999989
decision_type=2 2 2 2 2
left_child=4 -2 3 -3 -1
right_child=1 2 -4 -5 -6
leaf_value=0.0009174042940139765 -0.017485821538139136 -0.00813620947301388 -0.015023447076479594 0.021693733520805832 0.016909956000745293
leaf_weight=5.0000000000000018 3.9999999999999991 4.9999999999999982 2.9999999999999991 4 4
leaf_count=5 4 5 3 4 4
internal_value=0.000132284 -0.00430748 8.52955e-05 0.00512154 0.00802521
internal_weight=25 16 12 9 9
internal_count=25 16 12 9 9
is_linear=0
shrinkage=0.1


end of trees

feature_importances:
LapNumber=168
LapTimeDelta=139
LapTimeMA3=128
LapTime=109
CompoundEncoded=24
FuelCorrectedLapTime=15
StintProgression=9

parameters:
[boosting: gbdt]
[objective: regression]
[metric: l1]
[tree_learner: serial]
[device_type: cpu]
[data_sample_strategy: bagging]
[data: ]
[valid: ]
[num_iterations: 100]
[learning_rate: 0.1]
[num_leaves: 16]
[num_threads: 0]
[seed: 0]
[deterministic: 0]
[force_col_wise: 0]
[force_row_wise: 0]
[histogram_pool_size: -1]
[max_depth: 6]
[min_data_in_leaf: 3]
[min_sum_hessian_in_leaf: 0.001]
[bagging_fraction: 0.8]
[pos_bagging_fraction: 1]
[neg_bagging_fraction: 1]
[bagging_freq: 5]
[bagging_seed: 3]
[bagging_by_query: 0]
[feature_fraction: 0.8]
[feature_fraction_bynode: 1]
[feature_fraction_seed: 2]
[extra_trees: 0]
[extra_seed: 6]
[early_stopping_round: 0]
[early_stopping_min_delta: 0]
[first_metric_only: 0]
[max_delta_step: 0]
[lambda_l1: 0]
[lambda_l2: 0]
[linear_lambda: 0]
[min_gain_to_split: 0.01]
[drop_rate: 0.1]
[max_drop: 50]
[skip_drop: 0.5]
[xgboost_dart_mode: 0]
[uniform_drop: 0]
[drop_seed: 4]
[top_rate: 0.2]
[other_rate: 0.1]
[min_data_per_group: 100]
[max_cat_threshold: 32]
[cat_l2: 10]
[cat_smooth: 10]
[max_cat_to_onehot: 4]
[top_k: 20]
[monotone_constraints: ]
[monotone_constraints_method: basic]
[monotone_penalty: 0]
[feature_contri: ]
[forcedsplits_filename: ]
[refit_decay_rate: 0.9]
[cegb_tradeoff: 1]
[cegb_penalty_split: 0]
[cegb_penalty_feature_lazy: ]
[cegb_penalty_feature_coupled: ]
[path_smooth: 0]
[interaction_constraints: ]
[verbosity: -1]
[saved_feature_importance_type: 0]
[use_quantized_grad: 0]
[num_grad_quant_bins: 4]
[quant_train_renew_leaf: 0]
[stochastic_rounding: 1]
[linear_tree: 0]
[max_bin: 255]
[max_bin_by_feature: ]
[min_data_in_bin: 3]
[bin_construct_sample_cnt: 200000]
[data_random_seed: 1]
[is_enable_sparse: 1]
[enable_bundle: 1]
[use_missing: 1]
[zero_as_missing: 0]
[feature_pre_filter: 1]
[pre_partition: 0]
[two_round: 0]
[header: 0]
[label_column: ]
[weight_column: ]
[group_column: ]
[ignore_column: ]
[categorical_feature: ]
[forcedbins_filename: ]
[precise_float_parser: 0]
[parser_config_file: ]
[objective_seed: 5]
[num_class: 1]
[is_unbalance: 0]
[scale_pos_weight: 1]
[sigmoid: 1]
[boost_from_average: 1]
[reg_sqrt: 0]
[alpha: 0.9]
[fair_c: 1]
[poisson_max_delta_step: 0.7]
[tweedie_variance_power: 1.5]
[lambdarank_truncation_level: 30]
[lambdarank_norm: 1]
[label_gain: ]
[lambdarank_position_bias_regularization: 0]
[eval_at: ]
[multi_error_top_k: 1]
[auc_mu_weights: ]
[num_machines: 1]
[local_listen_port: 12400]
[time_out: 120]
[machine_list_filename: ]
[machines: ]
[gpu_platform_id: -1]
[gpu_device_id: -1]
[gpu_use_dp: 0]
[num_gpu: 1]

end of parameters

pandas_categorical:[]
